{"learner":{"attributes":{"scikit_learn":"{\"_estimator_type\": \"regressor\"}"},"feature_names":["SSTA_DHW","TSA_DHW","SSTA","SSTA_Frequency","Temperature_Maximum","Turbidity","Depth_m","TSA_DHW_3mean","TSA_DHW_6mean","SSTA_3mean","TSA_DHW_lag1"],"feature_types":["float","float","float","float","float","float","float","float","float","float","float"],"gradient_booster":{"model":{"cats":{"enc":[],"feature_segments":[],"sorted_idx":[]},"gbtree_model_param":{"num_parallel_tree":"1","num_trees":"400"},"iteration_indptr":[0,1,2,3,4,5,6,7,8,9,10,11,12,13,14,15,16,17,18,19,20,21,22,23,24,25,26,27,28,29,30,31,32,33,34,35,36,37,38,39,40,41,42,43,44,45,46,47,48,49,50,51,52,53,54,55,56,57,58,59,60,61,62,63,64,65,66,67,68,69,70,71,72,73,74,75,76,77,78,79,80,81,82,83,84,85,86,87,88,89,90,91,92,93,94,95,96,97,98,99,100,101,102,103,104,105,106,107,108,109,110,111,112,113,114,115,116,117,118,119,120,121,122,123,124,125,126,127,128,129,130,131,132,133,134,135,136,137,138,139,140,141,142,143,144,145,146,147,148,149,150,151,152,153,154,155,156,157,158,159,160,161,162,163,164,165,166,167,168,169,170,171,172,173,174,175,176,177,178,179,180,181,182,183,184,185,186,187,188,189,190,191,192,193,194,195,196,197,198,199,200,201,202,203,204,205,206,207,208,209,210,211,212,213,214,215,216,217,218,219,220,221,222,223,224,225,226,227,228,229,230,231,232,233,234,235,236,237,238,239,240,241,242,243,244,245,246,247,248,249,250,251,252,253,254,255,256,257,258,259,260,261,262,263,264,265,266,267,268,269,270,271,272,273,274,275,276,277,278,279,280,281,282,283,284,285,286,287,288,289,290,291,292,293,294,295,296,297,298,299,300,301,302,303,304,305,306,307,308,309,310,311,312,313,314,315,316,317,318,319,320,321,322,323,324,325,326,327,328,329,330,331,332,333,334,335,336,337,338,339,340,341,342,343,344,345,346,347,348,349,350,351,352,353,354,355,356,357,358,359,360,361,362,363,364,365,366,367,368,369,370,371,372,373,374,375,376,377,378,379,380,381,382,383,384,385,386,387,388,389,390,391,392,393,394,395,396,397,398,399,400],"tree_info":[0,0,0,0,0,0,0,0,0,0,0,0,0,0,0,0,0,0,0,0,0,0,0,0,0,0,0,0,0,0,0,0,0,0,0,0,0,0,0,0,0,0,0,0,0,0,0,0,0,0,0,0,0,0,0,0,0,0,0,0,0,0,0,0,0,0,0,0,0,0,0,0,0,0,0,0,0,0,0,0,0,0,0,0,0,0,0,0,0,0,0,0,0,0,0,0,0,0,0,0,0,0,0,0,0,0,0,0,0,0,0,0,0,0,0,0,0,0,0,0,0,0,0,0,0,0,0,0,0,0,0,0,0,0,0,0,0,0,0,0,0,0,0,0,0,0,0,0,0,0,0,0,0,0,0,0,0,0,0,0,0,0,0,0,0,0,0,0,0,0,0,0,0,0,0,0,0,0,0,0,0,0,0,0,0,0,0,0,0,0,0,0,0,0,0,0,0,0,0,0,0,0,0,0,0,0,0,0,0,0,0,0,0,0,0,0,0,0,0,0,0,0,0,0,0,0,0,0,0,0,0,0,0,0,0,0,0,0,0,0,0,0,0,0,0,0,0,0,0,0,0,0,0,0,0,0,0,0,0,0,0,0,0,0,0,0,0,0,0,0,0,0,0,0,0,0,0,0,0,0,0,0,0,0,0,0,0,0,0,0,0,0,0,0,0,0,0,0,0,0,0,0,0,0,0,0,0,0,0,0,0,0,0,0,0,0,0,0,0,0,0,0,0,0,0,0,0,0,0,0,0,0,0,0,0,0,0,0,0,0,0,0,0,0,0,0,0,0,0,0,0,0,0,0,0,0,0,0,0,0,0,0,0,0,0,0,0,0,0,0,0,0,0,0,0,0,0,0,0,0,0,0,0,0,0,0,0,0,0,0,0,0,0,0,0,0,0,0,0,0],"trees":[{"base_weights":[1.9550865E-7,-1.340906E0,1.1264974E1,-1.97769E0,1.3298763E1,9.079147E0,4.9616875E1,5.797489E-1,-3.3920634E0,1.3552501E0,1.8274488E1,1.360131E1,1.4467279E0,1.3307362E1,6.1251125E1,-1.2760219E-2,1.228531E0,-1.8860339E-1,-8.4062085E-2,-1.0903587E-1,1.2308124E0,1.1637303E0,2.5614068E-2,-2.598847E-1,8.1735754E-1,1.8872416E0,5.644978E-2,6.663684E-2,1.1399106E0,1.4406823E0,3.7319188E0],"categories":[],"categories_nodes":[],"categories_segments":[],"categories_sizes":[],"default_left":[0,0,0,0,0,0,0,0,0,0,0,0,0,0,0,0,0,0,0,0,0,0,0,0,0,0,0,0,0,0,0],"id":0,"left_children":[1,3,5,7,9,11,13,15,17,19,21,23,25,27,29,-1,-1,-1,-1,-1,-1,-1,-1,-1,-1,-1,-1,-1,-1,-1,-1],"loss_changes":[2.7974966E5,1.543105E5,1.6469581E5,5.7373953E4,4.0980312E4,6.4350875E4,4.3962906E4,1.1316284E5,6.633336E3,1.6832709E4,4.3240047E4,6.0530906E4,7.9728794E3,3.038149E3,3.2589281E4,0E0,0E0,0E0,0E0,0E0,0E0,0E0,0E0,0E0,0E0,0E0,0E0,0E0,0E0,0E0,0E0],"parents":[2147483647,0,0,1,1,2,2,3,3,4,4,5,5,6,6,7,7,8,8,9,9,10,10,11,11,12,12,13,13,14,14],"right_children":[2,4,6,8,10,12,14,16,18,20,22,24,26,28,30,-1,-1,-1,-1,-1,-1,-1,-1,-1,-1,-1,-1,-1,-1,-1,-1],"split_conditions":[2.73E0,1.42E1,1.47E1,4.52E-2,3.0439E2,6.86E-2,3.43E-2,3.0765E2,1E0,1.615E0,3.0537E2,3.0356E2,-1.51E0,3.0377E2,1.05E1,-1.2760219E-2,1.228531E0,-1.8860339E-1,-8.4062085E-2,-1.0903587E-1,1.2308124E0,1.1637303E0,2.5614068E-2,-2.598847E-1,8.1735754E-1,1.8872416E0,5.644978E-2,6.663684E-2,1.1399106E0,1.4406823E0,3.7319188E0],"split_indices":[1,6,6,5,4,5,5,4,1,8,4,4,9,4,3,0,0,0,0,0,0,0,0,0,0,0,0,0,0,0,0],"split_type":[0,0,0,0,0,0,0,0,0,0,0,0,0,0,0,0,0,0,0,0,0,0,0,0,0,0,0,0,0,0,0],"sum_hessian":[1.8518E4,1.6549E4,1.969E3,1.586E4,6.89E2,1.864E3,1.05E2,5.648E3,1.0212E4,2.03E2,4.86E2,1.17E3,6.94E2,2.6E1,7.9E1,5.459E3,1.89E2,8.355E3,1.857E3,1.77E2,2.6E1,3.79E2,1.07E2,1.49E2,1.021E3,5E0,6.89E2,1.2E1,1.4E1,2.4E1,5.5E1],"tree_param":{"num_deleted":"0","num_feature":"11","num_nodes":"31","size_leaf_vector":"1"}},{"base_weights":[6.554847E-4,-1.273664E0,1.0706233E1,-1.878746E0,1.2637176E1,8.626531E0,4.7196213E1,5.5097675E-1,-3.222487E0,1.2929865E0,1.7363207E1,1.29217205E1,1.3771881E0,1.2686681E1,5.8253227E1,-1.2122326E-2,1.1674278E0,-1.7917435E-1,-7.986124E-2,-1.0361471E-1,1.1715511E0,1.1056969E0,2.4345217E-2,3.8159418E-1,1.0960015E0,1.8086065E0,5.3631373E-2,6.356128E-2,1.0867147E0,1.3715295E0,3.5486546E0],"categories":[],"categories_nodes":[],"categories_segments":[],"categories_sizes":[],"default_left":[0,0,0,0,0,0,0,0,0,0,0,0,0,0,0,0,0,0,0,0,0,0,0,0,0,0,0,0,0,0,0],"id":1,"left_children":[1,3,5,7,9,11,13,15,17,19,21,23,25,27,29,-1,-1,-1,-1,-1,-1,-1,-1,-1,-1,-1,-1,-1,-1,-1,-1],"loss_changes":[2.5265586E5,1.3932838E5,1.4909277E5,5.178664E4,3.6970508E4,5.805328E4,3.9707625E4,1.0218549E5,5.9864375E3,1.5246699E4,3.9034344E4,5.5571797E4,7.326235E3,2.7610024E3,2.9417969E4,0E0,0E0,0E0,0E0,0E0,0E0,0E0,0E0,0E0,0E0,0E0,0E0,0E0,0E0,0E0,0E0],"parents":[2147483647,0,0,1,1,2,2,3,3,4,4,5,5,6,6,7,7,8,8,9,9,10,10,11,11,12,12,13,13,14,14],"right_children":[2,4,6,8,10,12,14,16,18,20,22,24,26,28,30,-1,-1,-1,-1,-1,-1,-1,-1,-1,-1,-1,-1,-1,-1,-1,-1],"split_conditions":[2.73E0,1.42E1,1.47E1,4.52E-2,3.0439E2,6.86E-2,3.43E-2,3.0765E2,1E0,1.615E0,3.0537E2,1.2E1,-1.51E0,3.0377E2,1.05E1,-1.2122326E-2,1.1674278E0,-1.7917435E-1,-7.986124E-2,-1.0361471E-1,1.1715511E0,1.1056969E0,2.4345217E-2,3.8159418E-1,1.0960015E0,1.8086065E0,5.3631373E-2,6.356128E-2,1.0867147E0,1.3715295E0,3.5486546E0],"split_indices":[1,6,6,5,4,5,5,4,1,8,4,3,9,4,3,0,0,0,0,0,0,0,0,0,0,0,0,0,0,0,0],"split_type":[0,0,0,0,0,0,0,0,0,0,0,0,0,0,0,0,0,0,0,0,0,0,0,0,0,0,0,0,0,0,0],"sum_hessian":[1.8518E4,1.6549E4,1.969E3,1.586E4,6.89E2,1.864E3,1.05E2,5.648E3,1.0212E4,2.03E2,4.86E2,1.17E3,6.94E2,2.6E1,7.9E1,5.459E3,1.89E2,8.355E3,1.857E3,1.77E2,2.6E1,3.79E2,1.07E2,7.38E2,4.32E2,5E0,6.89E2,1.2E1,1.4E1,2.4E1,5.5E1],"tree_param":{"num_deleted":"0","num_feature":"11","num_nodes":"31","size_leaf_vector":"1"}},{"base_weights":[1.2978982E-3,-1.2097939E0,1.0175698E1,-1.7847522E0,1.2008502E1,8.196995E0,4.489367E1,8.705112E-1,-2.9023101E0,1.2335725E0,1.6497366E1,1.22768955E1,1.3110083E0,1.2094949E1,5.540207E1,-1.3863597E-3,1.1093636E0,-1.6164225E-1,-6.611731E-2,-9.846307E-2,1.1151432E0,1.0563638E0,4.0340025E-2,-2.866474E-1,7.454104E-1,1.733248E0,5.0953697E-2,1.5372156E0,3.2294944E-1,1.3056961E0,3.3743904E0],"categories":[],"categories_nodes":[],"categories_segments":[],"categories_sizes":[],"default_left":[0,0,0,0,0,0,0,0,0,0,0,0,0,0,0,0,0,0,0,0,0,0,0,0,0,0,0,0,0,0,0],"id":2,"left_children":[1,3,5,7,9,11,13,15,17,19,21,23,25,27,29,-1,-1,-1,-1,-1,-1,-1,-1,-1,-1,-1,-1,-1,-1,-1,-1],"loss_changes":[2.2820588E5,1.2580093E5,1.3496422E5,4.7068625E4,3.3353023E4,5.2379477E4,3.586408E4,8.997487E4,5.8254062E3,1.3810135E4,3.53615E4,5.557858E4,6.7320024E3,2.6393132E3,2.6555156E4,0E0,0E0,0E0,0E0,0E0,0E0,0E0,0E0,0E0,0E0,0E0,0E0,0E0,0E0,0E0,0E0],"parents":[2147483647,0,0,1,1,2,2,3,3,4,4,5,5,6,6,7,7,8,8,9,9,10,10,11,11,12,12,13,13,14,14],"right_children":[2,4,6,8,10,12,14,16,18,20,22,24,26,28,30,-1,-1,-1,-1,-1,-1,-1,-1,-1,-1,-1,-1,-1,-1,-1,-1],"split_conditions":[2.73E0,1.42E1,1.47E1,4.12E-2,3.0439E2,6.86E-2,3.43E-2,3.0765E2,1.03E0,1.615E0,4.52E-2,3.0356E2,-1.51E0,2.74E-2,1.05E1,-1.3863597E-3,1.1093636E0,-1.6164225E-1,-6.611731E-2,-9.846307E-2,1.1151432E0,1.0563638E0,4.0340025E-2,-2.866474E-1,7.454104E-1,1.733248E0,5.0953697E-2,1.5372156E0,3.2294944E-1,1.3056961E0,3.3743904E0],"split_indices":[1,6,6,5,4,5,5,4,1,8,5,4,9,5,3,0,0,0,0,0,0,0,0,0,0,0,0,0,0,0,0],"split_type":[0,0,0,0,0,0,0,0,0,0,0,0,0,0,0,0,0,0,0,0,0,0,0,0,0,0,0,0,0,0,0],"sum_hessian":[1.8518E4,1.6549E4,1.969E3,1.586E4,6.89E2,1.864E3,1.05E2,4.698E3,1.1162E4,2.03E2,4.86E2,1.17E3,6.94E2,2.6E1,7.9E1,4.509E3,1.89E2,9.23E3,1.932E3,1.77E2,2.6E1,3.75E2,1.11E2,1.49E2,1.021E3,5E0,6.89E2,5E0,2.1E1,2.4E1,5.5E1],"tree_param":{"num_deleted":"0","num_feature":"11","num_nodes":"31","size_leaf_vector":"1"}},{"base_weights":[1.8688001E-3,-1.1482619E0,9.735958E0,-1.671721E0,1.1006237E1,7.6598477E0,4.2320435E1,4.1093695E-1,-2.8213751E0,2.284598E-1,1.527289E1,1.4729673E1,2.7752895E0,1.3824751E1,5.288558E1,-1.5614064E-2,1.0539597E0,-1.6305177E-1,-5.123201E-2,-9.0159394E-2,1.0803537E0,9.8088515E-1,4.2597367E-3,-2.774115E-1,9.2562723E-1,-8.9786686E-2,2.8553042E-1,1.9832448E0,3.3067134E-1,1.003837E0,2.9814618E0],"categories":[],"categories_nodes":[],"categories_segments":[],"categories_sizes":[],"default_left":[0,0,0,0,0,0,0,0,0,0,0,0,0,0,0,0,0,0,0,0,0,0,0,0,0,0,0,0,0,0,0],"id":3,"left_children":[1,3,5,7,9,11,13,15,17,19,21,23,25,27,29,-1,-1,-1,-1,-1,-1,-1,-1,-1,-1,-1,-1,-1,-1,-1,-1],"loss_changes":[2.073402E5,1.0539852E5,1.3206489E5,3.8023227E4,3.145029E4,6.3534344E4,3.4493E4,8.4445914E4,8.079453E3,8.508555E3,3.2332297E4,5.7787656E4,1.4635232E4,5.8869526E3,1.7609203E4,0E0,0E0,0E0,0E0,0E0,0E0,0E0,0E0,0E0,0E0,0E0,0E0,0E0,0E0,0E0,0E0],"parents":[2147483647,0,0,1,1,2,2,3,3,4,4,5,5,6,6,7,7,8,8,9,9,10,10,11,11,12,12,13,13,14,14],"right_children":[2,4,6,8,10,12,14,16,18,20,22,24,26,28,30,-1,-1,-1,-1,-1,-1,-1,-1,-1,-1,-1,-1,-1,-1,-1,-1],"split_conditions":[2.73E0,1.42E1,1.47E1,4.52E-2,3.0439E2,5.02E-2,3.43E-2,3.0765E2,1E0,1.615E0,3.0537E2,3.0373E2,1E1,2.0433333E0,9E0,-1.5614064E-2,1.0539597E0,-1.6305177E-1,-5.123201E-2,-9.0159394E-2,1.0803537E0,9.8088515E-1,4.2597367E-3,-2.774115E-1,9.2562723E-1,-8.9786686E-2,2.8553042E-1,1.9832448E0,3.3067134E-1,1.003837E0,2.9814618E0],"split_indices":[10,6,6,5,4,5,5,4,1,8,4,4,3,7,3,0,0,0,0,0,0,0,0,0,0,0,0,0,0,0,0],"split_type":[0,0,0,0,0,0,0,0,0,0,0,0,0,0,0,0,0,0,0,0,0,0,0,0,0,0,0,0,0,0,0],"sum_hessian":[1.8518E4,1.6562E4,1.956E3,1.5879E4,6.83E2,1.84E3,1.16E2,5.648E3,1.0231E4,1.94E2,4.89E2,7.51E2,1.089E3,3.2E1,8.4E1,5.458E3,1.9E2,8.219E3,2.012E3,1.78E2,1.6E1,3.8E2,1.09E2,1.18E2,6.33E2,4.26E2,6.63E2,6E0,2.6E1,1.5E1,6.9E1],"tree_param":{"num_deleted":"0","num_feature":"11","num_nodes":"31","size_leaf_vector":"1"}},{"base_weights":[2.312129E-3,-1.1006957E0,9.268697E0,-1.6190672E0,1.0816683E1,7.4710035E0,4.081048E1,7.86641E-1,-2.631591E0,1.0798715E0,1.4873136E1,1.1223856E1,1.1371026E0,1.1098723E1,5.0328064E1,-1.2298116E-3,1.0019356E0,-1.4638834E-1,-6.0792472E-2,-8.5428305E-2,1.1032172E0,9.540104E-1,-3.362021E-3,1.643933E-1,8.405037E-1,1.6519387E0,4.2902444E-2,1.452057E0,2.8504252E-1,1.1929992E0,3.0622728E0],"categories":[],"categories_nodes":[],"categories_segments":[],"categories_sizes":[],"default_left":[0,0,0,0,0,0,0,0,0,0,0,0,0,0,0,0,0,0,0,0,0,0,0,0,0,0,0,0,0,0,0],"id":4,"left_children":[1,3,5,7,9,11,13,15,17,19,21,23,25,27,29,-1,-1,-1,-1,-1,-1,-1,-1,-1,-1,-1,-1,-1,-1,-1,-1],"loss_changes":[1.8929097E5,1.0225728E5,1.1139891E5,3.8636875E4,2.7236812E4,4.431867E4,2.9416547E4,7.338946E4,4.6771797E3,1.1974533E4,3.061179E4,5.1857688E4,6.1587373E3,2.4494148E3,2.1655688E4,0E0,0E0,0E0,0E0,0E0,0E0,0E0,0E0,0E0,0E0,0E0,0E0,0E0,0E0,0E0,0E0],"parents":[2147483647,0,0,1,1,2,2,3,3,4,4,5,5,6,6,7,7,8,8,9,9,10,10,11,11,12,12,13,13,14,14],"right_children":[2,4,6,8,10,12,14,16,18,20,22,24,26,28,30,-1,-1,-1,-1,-1,-1,-1,-1,-1,-1,-1,-1,-1,-1,-1,-1],"split_conditions":[2.73E0,1.42E1,1.47E1,4.12E-2,3.0439E2,6.86E-2,3.43E-2,3.0765E2,1.03E0,1.45E1,3.0537E2,8.5E0,-1.51E0,2.74E-2,1.05E1,-1.2298116E-3,1.0019356E0,-1.4638834E-1,-6.0792472E-2,-8.5428305E-2,1.1032172E0,9.540104E-1,-3.362021E-3,1.643933E-1,8.405037E-1,1.6519387E0,4.2902444E-2,1.452057E0,2.8504252E-1,1.1929992E0,3.0622728E0],"split_indices":[1,6,6,5,4,5,5,4,1,3,4,3,9,5,3,0,0,0,0,0,0,0,0,0,0,0,0,0,0,0,0],"split_type":[0,0,0,0,0,0,0,0,0,0,0,0,0,0,0,0,0,0,0,0,0,0,0,0,0,0,0,0,0,0,0],"sum_hessian":[1.8518E4,1.6549E4,1.969E3,1.586E4,6.89E2,1.864E3,1.05E2,4.698E3,1.1162E4,2.03E2,4.86E2,1.17E3,6.94E2,2.6E1,7.9E1,4.509E3,1.89E2,9.23E3,1.932E3,1.8E2,2.3E1,3.79E2,1.07E2,4.84E2,6.86E2,5E0,6.89E2,5E0,2.1E1,2.4E1,5.5E1],"tree_param":{"num_deleted":"0","num_feature":"11","num_nodes":"31","size_leaf_vector":"1"}},{"base_weights":[2.8150938E-3,-1.1495911E0,8.113673E0,-1.6472522E0,1.02931595E1,6.257173E0,3.1530066E1,2.0571253E-1,-2.6708362E0,1.4522927E0,1.5093785E1,1.7825998E1,4.4010053E0,1.3751575E1,4.5233818E1,-2.1961456E-2,9.3194544E-1,-1.478254E-1,-6.74092E-2,2.3978112E-2,1.3128837E0,4.3154833E-1,1.4466864E0,1.5381532E0,-6.48456E-2,-2.5428256E-1,2.912701E-1,8.0913216E-2,1.1623181E0,2.801113E0,9.88041E-2],"categories":[],"categories_nodes":[],"categories_segments":[],"categories_sizes":[],"default_left":[0,0,0,0,0,0,0,0,0,0,0,0,0,0,0,0,0,0,0,0,0,0,0,0,0,0,0,0,0,0,0],"id":5,"left_children":[1,3,5,7,9,11,13,15,17,19,21,23,25,27,29,-1,-1,-1,-1,-1,-1,-1,-1,-1,-1,-1,-1,-1,-1,-1,-1],"loss_changes":[1.7310648E5,9.236077E4,9.996344E4,2.9476629E4,2.8668664E4,4.578933E4,4.0551766E4,6.576257E4,3.7786172E3,5.754227E3,3.8927195E4,7.302123E4,2.4920129E4,8.60262E3,4.4224203E4,0E0,0E0,0E0,0E0,0E0,0E0,0E0,0E0,0E0,0E0,0E0,0E0,0E0,0E0,0E0,0E0],"parents":[2147483647,0,0,1,1,2,2,3,3,4,4,5,5,6,6,7,7,8,8,9,9,10,10,11,11,12,12,13,13,14,14],"right_children":[2,4,6,8,10,12,14,16,18,20,22,24,26,28,30,-1,-1,-1,-1,-1,-1,-1,-1,-1,-1,-1,-1,-1,-1,-1,-1],"split_conditions":[2.25E0,1.42E1,1.33E1,4.52E-2,3.046E2,3.53E-2,7.25E0,3.0765E2,1E0,2.1566668E0,1.76E1,3.047E2,3.0356E2,8E0,1.27E1,-2.1961456E-2,9.3194544E-1,-1.478254E-1,-6.74092E-2,2.3978112E-2,1.3128837E0,4.3154833E-1,1.4466864E0,1.5381532E0,-6.48456E-2,-2.5428256E-1,2.912701E-1,8.0913216E-2,1.1623181E0,2.801113E0,9.88041E-2],"split_indices":[7,6,6,5,4,5,0,4,1,8,6,4,4,3,0,0,0,0,0,0,0,0,0,0,0,0,0,0,0,0,0],"split_type":[0,0,0,0,0,0,0,0,0,0,0,0,0,0,0,0,0,0,0,0,0,0,0,0,0,0,0,0,0,0,0],"sum_hessian":[1.8518E4,1.6215E4,2.303E3,1.554E4,6.75E2,2.135E3,1.68E2,5.53E3,1.001E4,2.38E2,4.37E2,2.94E2,1.841E3,7.4E1,9.4E1,5.344E3,1.86E2,8.231E3,1.779E3,2.3E2,8E0,2.99E2,1.38E2,1.75E2,1.19E2,2.4E2,1.601E3,3.3E1,4.1E1,7.5E1,1.9E1],"tree_param":{"num_deleted":"0","num_feature":"11","num_nodes":"31","size_leaf_vector":"1"}},{"base_weights":[3.1907135E-3,-9.718851E-1,8.716099E0,-1.4415665E0,9.86545E0,6.821783E0,3.3520126E1,4.0587485E-1,-2.4590895E0,1.555162E0,1.4416826E1,1.2932861E1,2.8631263E0,1.2614937E1,4.247222E1,-1.1599591E-2,9.2076486E-1,-1.4020436E-1,-5.291176E-2,-4.522152E-2,6.59388E-1,4.2620808E-1,1.3638856E0,-2.9164308E-1,8.5399216E-1,-1.3503586E-1,2.7200776E-1,-1.270643E-1,9.871258E-1,2.6125233E0,1.0765803E-1],"categories":[],"categories_nodes":[],"categories_segments":[],"categories_sizes":[],"default_left":[0,0,0,0,0,0,0,0,0,0,0,0,0,0,0,0,0,0,0,0,0,0,0,0,0,0,0,0,0,0,0],"id":6,"left_children":[1,3,5,7,9,11,13,15,17,19,21,23,25,27,29,-1,-1,-1,-1,-1,-1,-1,-1,-1,-1,-1,-1,-1,-1,-1,-1],"loss_changes":[1.5734119E5,8.4794836E4,8.735444E4,3.0012227E4,2.6151266E4,4.1887125E4,2.416739E4,6.5150504E4,4.9725156E3,7.0503438E3,3.364333E4,5.309582E4,1.5112801E4,4.4792856E3,3.6158453E4,0E0,0E0,0E0,0E0,0E0,0E0,0E0,0E0,0E0,0E0,0E0,0E0,0E0,0E0,0E0,0E0],"parents":[2147483647,0,0,1,1,2,2,3,3,4,4,5,5,6,6,7,7,8,8,9,9,10,10,11,11,12,12,13,13,14,14],"right_children":[2,4,6,8,10,12,14,16,18,20,22,24,26,28,30,-1,-1,-1,-1,-1,-1,-1,-1,-1,-1,-1,-1,-1,-1,-1,-1],"split_conditions":[2.72E0,1.42E1,1.4E1,4.52E-2,3.046E2,4.93E-2,1.233E1,3.0765E2,1E0,1.143E1,1.76E1,3.0385E2,8.67E0,3.27E0,1.27E1,-1.1599591E-2,9.2076486E-1,-1.4020436E-1,-5.291176E-2,-4.522152E-2,6.59388E-1,4.2620808E-1,1.3638856E0,-2.9164308E-1,8.5399216E-1,-1.3503586E-1,2.7200776E-1,-1.270643E-1,9.871258E-1,2.6125233E0,1.0765803E-1],"split_indices":[7,6,6,5,4,5,3,4,1,3,6,4,3,10,0,0,0,0,0,0,0,0,0,0,0,0,0,0,0,0,0],"split_type":[0,0,0,0,0,0,0,0,0,0,0,0,0,0,0,0,0,0,0,0,0,0,0,0,0,0,0,0,0,0,0],"sum_hessian":[1.8518E4,1.6655E4,1.863E3,1.5964E4,6.91E2,1.732E3,1.31E2,5.67E3,1.0294E4,2.45E2,4.46E2,6.8E2,1.052E3,4E1,9.1E1,5.477E3,1.93E2,8.259E3,2.035E3,2.03E2,4.2E1,3.07E2,1.39E2,1.23E2,5.57E2,3.33E2,7.19E2,1.3E1,2.7E1,7.3E1,1.8E1],"tree_param":{"num_deleted":"0","num_feature":"11","num_nodes":"31","size_leaf_vector":"1"}},{"base_weights":[3.4307414E-3,-9.581097E-1,8.081345E0,-1.4015385E0,9.236359E0,6.5167613E0,3.5532917E1,4.188255E-1,-2.4082785E0,7.056593E-1,1.2790828E1,9.914466E0,7.8261805E-1,1.026138E1,4.36179E1,-8.308984E-3,8.613912E-1,-1.3295966E-1,-6.392707E-2,-8.596937E-2,9.4825757E-1,8.467216E-1,-6.170221E-2,2.4790113E-1,9.1753596E-1,1.5641841E0,2.5812859E-2,7.7757547E-3,9.1678524E-1,1.2757096E-1,2.4393787E0],"categories":[],"categories_nodes":[],"categories_segments":[],"categories_sizes":[],"default_left":[0,0,0,0,0,0,0,0,0,0,0,0,0,0,0,0,0,0,0,0,0,0,0,0,0,0,0,0,0,0,0],"id":7,"left_children":[1,3,5,7,9,11,13,15,17,19,21,23,25,27,29,-1,-1,-1,-1,-1,-1,-1,-1,-1,-1,-1,-1,-1,-1,-1,-1],"loss_changes":[1.4384927E5,7.4827586E4,8.4380484E4,2.9068406E4,2.091323E4,3.63279E4,2.1210344E4,5.5551465E4,2.8916562E3,9.065753E3,2.8322172E4,4.8872992E4,5.630231E3,2.2002954E3,1.6859531E4,0E0,0E0,0E0,0E0,0E0,0E0,0E0,0E0,0E0,0E0,0E0,0E0,0E0,0E0,0E0,0E0],"parents":[2147483647,0,0,1,1,2,2,3,3,4,4,5,5,6,6,7,7,8,8,9,9,10,10,11,11,12,12,13,13,14,14],"right_children":[2,4,6,8,10,12,14,16,18,20,22,24,26,28,30,-1,-1,-1,-1,-1,-1,-1,-1,-1,-1,-1,-1,-1,-1,-1,-1],"split_conditions":[2.73E0,1.42E1,1.47E1,4.52E-2,3.0439E2,6.86E-2,3.43E-2,3.0765E2,1E0,1.45E1,4.52E-2,1.2E1,-1.51E0,3.0377E2,6.07E0,-8.308984E-3,8.613912E-1,-1.3295966E-1,-6.392707E-2,-8.596937E-2,9.4825757E-1,8.467216E-1,-6.170221E-2,2.4790113E-1,9.1753596E-1,1.5641841E0,2.5812859E-2,7.7757547E-3,9.1678524E-1,1.2757096E-1,2.4393787E0],"split_indices":[1,6,6,5,4,5,5,4,1,3,5,3,9,4,0,0,0,0,0,0,0,0,0,0,0,0,0,0,0,0,0],"split_type":[0,0,0,0,0,0,0,0,0,0,0,0,0,0,0,0,0,0,0,0,0,0,0,0,0,0,0,0,0,0,0],"sum_hessian":[1.8518E4,1.6549E4,1.969E3,1.586E4,6.89E2,1.864E3,1.05E2,5.648E3,1.0212E4,2.03E2,4.86E2,1.17E3,6.94E2,2.6E1,7.9E1,5.459E3,1.89E2,8.355E3,1.857E3,1.8E2,2.3E1,3.75E2,1.11E2,7.38E2,4.32E2,5E0,6.89E2,1.2E1,1.4E1,9E0,7E1],"tree_param":{"num_deleted":"0","num_feature":"11","num_nodes":"31","size_leaf_vector":"1"}},{"base_weights":[3.7209862E-3,-9.999E-1,7.067399E0,-1.2402549E0,1.689386E1,5.451081E0,2.745431E1,2.7375324E0,-1.8628354E0,1.4123517E0,2.534841E1,1.0763885E1,2.0597367E0,1.1682476E1,3.9616764E1,-1.7781036E-1,5.200298E-1,-1.0438865E-1,1.6503601E-1,-7.8840815E-2,1.3695514E0,9.749821E-2,1.5485848E0,-3.0362216E-1,7.060246E-1,3.7075125E-2,5.744359E-1,4.16932E-2,1.0093267E0,2.4575207E0,7.04031E-2],"categories":[],"categories_nodes":[],"categories_segments":[],"categories_sizes":[],"default_left":[0,0,0,0,0,0,0,0,0,0,0,0,0,0,0,0,0,0,0,0,0,0,0,0,0,0,0,0,0,0,0],"id":8,"left_children":[1,3,5,7,9,11,13,15,17,19,21,23,25,27,29,-1,-1,-1,-1,-1,-1,-1,-1,-1,-1,-1,-1,-1,-1,-1,-1],"loss_changes":[1.3129298E5,6.976357E4,7.577114E4,3.963394E4,2.8105375E4,3.846331E4,3.195546E4,1.04501695E5,1.6078258E4,6.0225967E3,1.8228695E4,4.7104516E4,1.6212117E4,6.902457E3,3.4536297E4,0E0,0E0,0E0,0E0,0E0,0E0,0E0,0E0,0E0,0E0,0E0,0E0,0E0,0E0,0E0,0E0],"parents":[2147483647,0,0,1,1,2,2,3,3,4,4,5,5,6,6,7,7,8,8,9,9,10,10,11,11,12,12,13,13,14,14],"right_children":[2,4,6,8,10,12,14,16,18,20,22,24,26,28,30,-1,-1,-1,-1,-1,-1,-1,-1,-1,-1,-1,-1,-1,-1,-1,-1],"split_conditions":[2.25E0,1.76E1,1.33E1,2.91E-2,3.0458E2,4.93E-2,7.25E0,2.73E-2,3.0765E2,1.9266666E0,-1E-2,3.0356E2,1.176E1,8E0,1.27E1,-1.7781036E-1,5.200298E-1,-1.0438865E-1,1.6503601E-1,-7.8840815E-2,1.3695514E0,9.749821E-2,1.5485848E0,-3.0362216E-1,7.060246E-1,3.7075125E-2,5.744359E-1,4.16932E-2,1.0093267E0,2.4575207E0,7.04031E-2],"split_indices":[7,6,6,5,4,5,0,5,4,8,9,4,0,3,0,0,0,0,0,0,0,0,0,0,0,0,0,0,0,0,0],"split_type":[0,0,0,0,0,0,0,0,0,0,0,0,0,0,0,0,0,0,0,0,0,0,0,0,0,0,0,0,0,0,0],"sum_hessian":[1.8518E4,1.6215E4,2.303E3,1.6001E4,2.14E2,2.135E3,1.68E2,2.165E3,1.3836E4,7.6E1,1.38E2,8.31E2,1.304E3,7.4E1,9.4E1,1.189E3,9.76E2,1.3259E4,5.77E2,6.9E1,7E0,2.7E1,1.11E2,1.38E2,6.93E2,1.145E3,1.59E2,3.3E1,4.1E1,7.5E1,1.9E1],"tree_param":{"num_deleted":"0","num_feature":"11","num_nodes":"31","size_leaf_vector":"1"}},{"base_weights":[3.963379E-3,-8.70727E-1,7.4068723E0,-1.3132442E0,7.1812234E0,5.827372E0,3.2197067E1,4.1769138E-1,-2.035625E0,3.7644086E0,1.5358687E1,1.1615927E1,1.8284545E0,1.113606E1,3.9994907E1,-2.6197E-2,6.356005E-1,-1.06409185E-1,1.1991083E-1,2.6312197E-2,6.6746616E-1,1.443149E0,4.8763704E-1,1.3583215E-1,9.576436E-1,-4.3327086E-2,2.951997E-1,1.7663043E0,2.2260629E-1,6.806465E-1,2.2726858E0],"categories":[],"categories_nodes":[],"categories_segments":[],"categories_sizes":[],"default_left":[0,0,0,0,0,0,0,0,0,0,0,0,0,0,0,0,0,0,0,0,0,0,0,0,0,0,0,0,0,0,0],"id":9,"left_children":[1,3,5,7,9,11,13,15,17,19,21,23,25,27,29,-1,-1,-1,-1,-1,-1,-1,-1,-1,-1,-1,-1,-1,-1,-1,-1],"loss_changes":[1.19921664E5,5.9025496E4,7.64409E4,1.9633293E4,2.405516E4,4.259415E4,1.8769562E4,5.3537395E4,4.55141E3,1.8925871E4,1.8947406E4,5.0387164E4,1.1977199E4,5.178313E3,1.1622453E4,0E0,0E0,0E0,0E0,0E0,0E0,0E0,0E0,0E0,0E0,0E0,0E0,0E0,0E0,0E0,0E0],"parents":[2147483647,0,0,1,1,2,2,3,3,4,4,5,5,6,6,7,7,8,8,9,9,10,10,11,11,12,12,13,13,14,14],"right_children":[2,4,6,8,10,12,14,16,18,20,22,24,26,28,30,-1,-1,-1,-1,-1,-1,-1,-1,-1,-1,-1,-1,-1,-1,-1,-1],"split_conditions":[2.73E0,1.33E1,1.47E1,4.12E-2,7.33E0,5.02E-2,3.43E-2,3.0632E2,1.099E1,1.76E1,9E0,8.5E0,4.33E0,2.0433333E0,9E0,-2.6197E-2,6.356005E-1,-1.06409185E-1,1.1991083E-1,2.6312197E-2,6.6746616E-1,1.443149E0,4.8763704E-1,1.3583215E-1,9.576436E-1,-4.3327086E-2,2.951997E-1,1.7663043E0,2.2260629E-1,6.806465E-1,2.2726858E0],"split_indices":[10,6,6,5,3,5,5,4,0,6,3,3,8,7,3,0,0,0,0,0,0,0,0,0,0,0,0,0,0,0,0],"split_type":[0,0,0,0,0,0,0,0,0,0,0,0,0,0,0,0,0,0,0,0,0,0,0,0,0,0,0,0,0,0,0],"sum_hessian":[1.8518E4,1.6562E4,1.956E3,1.57E4,8.62E2,1.84E3,1.16E2,4.623E3,1.1077E4,6.09E2,2.53E2,7.51E2,1.089E3,3.2E1,8.4E1,4.295E3,3.28E2,1.0851E4,2.26E2,4.56E2,1.53E2,7.3E1,1.8E2,3.45E2,4.06E2,6.56E2,4.33E2,6E0,2.6E1,1.5E1,6.9E1],"tree_param":{"num_deleted":"0","num_feature":"11","num_nodes":"31","size_leaf_vector":"1"}},{"base_weights":[4.2799884E-3,-9.0550184E-1,6.50072E0,-1.2905818E0,8.020304E0,5.262366E0,2.9092823E1,2.467156E-1,-2.139859E0,1.154178E0,1.2189781E1,3.7241514E0,1.53176565E1,4.2842144E1,1.938775E1,-1.5386085E-2,8.1083804E-1,-1.1351808E-1,-9.926161E-3,-6.458443E-2,5.363652E-1,8.4209245E-1,-6.596585E-2,1.2172769E0,1.508254E-1,1.1784397E0,1.7701359E-1,3.0175138E-2,2.3869789E0,1.5884105E0,6.1949486E-1],"categories":[],"categories_nodes":[],"categories_segments":[],"categories_sizes":[],"default_left":[0,0,0,0,0,0,0,0,0,0,0,0,0,0,0,0,0,0,0,0,0,0,0,0,0,0,0,0,0,0,0],"id":10,"left_children":[1,3,5,7,9,11,13,15,17,19,21,23,25,27,29,-1,-1,-1,-1,-1,-1,-1,-1,-1,-1,-1,-1,-1,-1,-1,-1],"loss_changes":[1.0945953E5,5.5846836E4,6.349464E4,2.0333814E4,1.922405E4,3.3321164E4,1.4915094E4,4.908487E4,2.5411562E3,5.9845767E3,2.6291527E4,2.725848E4,2.7709125E4,9.900523E3,5.7575977E3,0E0,0E0,0E0,0E0,0E0,0E0,0E0,0E0,0E0,0E0,0E0,0E0,0E0,0E0,0E0,0E0],"parents":[2147483647,0,0,1,1,2,2,3,3,4,4,5,5,6,6,7,7,8,8,9,9,10,10,11,11,12,12,13,13,14,14],"right_children":[2,4,6,8,10,12,14,16,18,20,22,24,26,28,30,-1,-1,-1,-1,-1,-1,-1,-1,-1,-1,-1,-1,-1,-1,-1,-1],"split_conditions":[2.43E0,1.42E1,1.47E1,4.52E-2,3.046E2,1.176E1,3E-1,3.0765E2,1.38E0,1.143E1,4.52E-2,-1.5E0,1.141E1,3.0373E2,1.55E1,-1.5386085E-2,8.1083804E-1,-1.1351808E-1,-9.926161E-3,-6.458443E-2,5.363652E-1,8.4209245E-1,-6.596585E-2,1.2172769E0,1.508254E-1,1.1784397E0,1.7701359E-1,3.0175138E-2,2.3869789E0,1.5884105E0,6.1949486E-1],"split_indices":[1,6,6,5,4,0,2,4,2,3,5,2,1,4,6,0,0,0,0,0,0,0,0,0,0,0,0,0,0,0,0],"split_type":[0,0,0,0,0,0,0,0,0,0,0,0,0,0,0,0,0,0,0,0,0,0,0,0,0,0,0,0,0,0,0],"sum_hessian":[1.8518E4,1.6244E4,2.274E3,1.5573E4,6.71E2,2.157E3,1.17E2,5.542E3,1.0031E4,2.54E2,4.17E2,1.872E3,2.85E2,4.7E1,7E1,5.357E3,1.85E2,9.399E3,6.32E2,2.03E2,5.1E1,3.1E2,1.07E2,6.1E1,1.811E3,1.67E2,1.18E2,5E0,4.2E1,2.4E1,4.6E1],"tree_param":{"num_deleted":"0","num_feature":"11","num_nodes":"31","size_leaf_vector":"1"}},{"base_weights":[4.5665456E-3,-7.931443E-1,6.7559614E0,-9.918013E-1,1.3968874E1,1.3258573E1,1.6672453E0,2.4871323E0,-1.5228944E0,1.0321642E0,2.1500107E1,3.123291E0,2.066983E1,-2.1722956E0,4.1572814E0,-1.739056E-1,4.8518786E-1,-8.5786395E-2,1.4336728E-1,-1.3012208E-1,8.7201166E-1,2.7430898E-2,1.3273007E0,2.3814094E0,1.2482458E-1,-3.1345665E-1,1.3659397E0,-1.2710758E-1,1.0349619E0,3.347974E-2,4.1224477E-1],"categories":[],"categories_nodes":[],"categories_segments":[],"categories_sizes":[],"default_left":[0,0,0,0,0,0,0,0,0,0,0,0,0,0,0,0,0,0,0,0,0,0,0,0,0,0,0,0,0,0,0],"id":11,"left_children":[1,3,5,7,9,11,13,15,17,19,21,23,25,27,29,-1,-1,-1,-1,-1,-1,-1,-1,-1,-1,-1,-1,-1,-1,-1,-1],"loss_changes":[9.9742414E4,4.8586164E4,6.47349E4,3.0201574E4,2.141227E4,6.4459375E4,1.0516125E4,9.323469E4,1.2009496E4,4.9356104E3,1.4680418E4,1.003511E4,8.901291E4,3.715441E3,9.503442E3,0E0,0E0,0E0,0E0,0E0,0E0,0E0,0E0,0E0,0E0,0E0,0E0,0E0,0E0,0E0,0E0],"parents":[2147483647,0,0,1,1,2,2,3,3,4,4,5,5,6,6,7,7,8,8,9,9,10,10,11,11,12,12,13,13,14,14],"right_children":[2,4,6,8,10,12,14,16,18,20,22,24,26,28,30,-1,-1,-1,-1,-1,-1,-1,-1,-1,-1,-1,-1,-1,-1,-1,-1],"split_conditions":[2.73E0,1.76E1,5.02E-2,2.91E-2,3.0458E2,8.5E0,1E1,2.73E-2,3.0765E2,1.375E1,-1E-2,-1.79E0,3.0373E2,1.176E1,4.16E0,-1.739056E-1,4.8518786E-1,-8.5786395E-2,1.4336728E-1,-1.3012208E-1,8.7201166E-1,2.7430898E-2,1.3273007E0,2.3814094E0,1.2482458E-1,-3.1345665E-1,1.3659397E0,-1.2710758E-1,1.0349619E0,3.347974E-2,4.1224477E-1],"split_indices":[10,6,5,5,4,3,3,5,4,3,9,2,4,0,8,0,0,0,0,0,0,0,0,0,0,0,0,0,0,0,0],"split_type":[0,0,0,0,0,0,0,0,0,0,0,0,0,0,0,0,0,0,0,0,0,0,0,0,0,0,0,0,0,0,0],"sum_hessian":[1.8518E4,1.6562E4,1.956E3,1.6343E4,2.19E2,8.58E2,1.098E3,2.164E3,1.4179E4,8.1E1,1.38E2,3.63E2,4.95E2,4.32E2,6.66E2,1.185E3,9.79E2,1.3583E4,5.96E2,6.7E1,1.4E1,2.7E1,1.11E2,4E0,3.59E2,9.8E1,3.97E2,4.26E2,6E0,3.6E2,3.06E2],"tree_param":{"num_deleted":"0","num_feature":"11","num_nodes":"31","size_leaf_vector":"1"}},{"base_weights":[4.736557E-3,-8.259456E-1,5.936353E0,-1.0267533E0,1.3606197E1,4.789635E0,2.685738E1,2.4239185E0,-1.5553933E0,1.6047078E0,2.127182E1,-5.7192655E0,6.0707173E0,3.1241982E1,7.628136E-1,-6.387001E-2,6.513192E-1,-8.7996684E-2,1.5506712E-1,-1.0422983E-1,7.556212E-1,2.6108315E-2,1.3203427E0,-3.3837953E-1,-5.073863E-2,8.046185E-1,1.4733812E-1,7.1925867E-1,2.2265377E0,-8.024116E-2,1.654382E-1],"categories":[],"categories_nodes":[],"categories_segments":[],"categories_sizes":[],"default_left":[0,0,0,0,0,0,0,0,0,0,0,0,0,0,0,0,0,0,0,0,0,0,0,0,0,0,0,0,0,0,0],"id":12,"left_children":[1,3,5,7,9,11,13,15,17,19,21,23,25,27,29,-1,-1,-1,-1,-1,-1,-1,-1,-1,-1,-1,-1,-1,-1,-1,-1],"loss_changes":[9.125336E4,4.709337E4,5.444978E4,2.9232334E4,2.0481625E4,2.9087363E4,1.3477055E4,8.35652E4,1.3240305E4,4.4169023E3,1.4477027E4,1.1521143E3,6.0187617E4,2.1984062E4,1.1381193E2,0E0,0E0,0E0,0E0,0E0,0E0,0E0,0E0,0E0,0E0,0E0,0E0,0E0,0E0,0E0,0E0],"parents":[2147483647,0,0,1,1,2,2,3,3,4,4,5,5,6,6,7,7,8,8,9,9,10,10,11,11,12,12,13,13,14,14],"right_children":[2,4,6,8,10,12,14,16,18,20,22,24,26,28,30,-1,-1,-1,-1,-1,-1,-1,-1,-1,-1,-1,-1,-1,-1,-1,-1],"split_conditions":[2.43E0,1.76E1,1.47E1,2.91E-2,3.0458E2,3.0356E2,1.27E1,2.79E-2,3.0765E2,1.9266666E0,-1E-2,3.033E2,3.0466E2,1.05E1,3.32E-2,-6.387001E-2,6.513192E-1,-8.7996684E-2,1.5506712E-1,-1.0422983E-1,7.556212E-1,2.6108315E-2,1.3203427E0,-3.3837953E-1,-5.073863E-2,8.046185E-1,1.4733812E-1,7.1925867E-1,2.2265377E0,-8.024116E-2,1.654382E-1],"split_indices":[1,6,6,5,4,4,0,5,4,8,9,4,4,3,5,0,0,0,0,0,0,0,0,0,0,0,0,0,0,0,0],"split_type":[0,0,0,0,0,0,0,0,0,0,0,0,0,0,0,0,0,0,0,0,0,0,0,0,0,0,0,0,0,0,0],"sum_hessian":[1.8518E4,1.6244E4,2.274E3,1.6022E4,2.22E2,2.157E3,1.17E2,2.128E3,1.3894E4,8.7E1,1.35E2,2.34E2,1.923E3,1E2,1.7E1,1.578E3,5.5E2,1.331E4,5.84E2,6.9E1,1.8E1,2.7E1,1.08E2,1.91E2,4.3E1,4.56E2,1.467E3,4.5E1,5.5E1,9E0,8E0],"tree_param":{"num_deleted":"0","num_feature":"11","num_nodes":"31","size_leaf_vector":"1"}},{"base_weights":[4.836898E-3,-7.980377E-1,5.6556225E0,-9.901785E-1,1.350631E1,4.225869E0,2.1097282E1,2.245664E0,-1.4966354E0,6.9158614E-1,2.0507948E1,-5.426548E0,5.5261545E0,1.1408539E0,2.7970942E1,-1.5856157E-1,4.4206104E-1,-8.373185E-2,1.2947609E-1,-9.90928E-2,1.1998878E0,2.4849532E-2,1.266379E0,-7.3909685E-2,-3.1064624E-1,8.1304646E-1,1.1238229E-1,-1.6902666E-1,6.1087763E-1,-1.9603975E-1,1.5840459E0],"categories":[],"categories_nodes":[],"categories_segments":[],"categories_sizes":[],"default_left":[0,0,0,0,0,0,0,0,0,0,0,0,0,0,0,0,0,0,0,0,0,0,0,0,0,0,0,0,0,0,0],"id":13,"left_children":[1,3,5,7,9,11,13,15,17,19,21,23,25,27,29,-1,-1,-1,-1,-1,-1,-1,-1,-1,-1,-1,-1,-1,-1,-1,-1],"loss_changes":[8.402286E4,4.4582215E4,5.0778008E4,2.6227676E4,1.9276488E4,2.6512375E4,2.671696E4,7.741369E4,1.0068574E4,4.8452524E3,1.3393324E4,7.7014453E2,6.5424387E4,2.5954858E3,1.7280258E4,0E0,0E0,0E0,0E0,0E0,0E0,0E0,0E0,0E0,0E0,0E0,0E0,0E0,0E0,0E0,0E0],"parents":[2147483647,0,0,1,1,2,2,3,3,4,4,5,5,6,6,7,7,8,8,9,9,10,10,11,11,12,12,13,13,14,14],"right_children":[2,4,6,8,10,12,14,16,18,20,22,24,26,28,30,-1,-1,-1,-1,-1,-1,-1,-1,-1,-1,-1,-1,-1,-1,-1,-1],"split_conditions":[2.25E0,1.76E1,1.3E1,2.91E-2,3.0458E2,3.0356E2,8.5E0,2.73E-2,3.0765E2,1.9266666E0,-1E-2,1.3E-1,3.0466E2,1E0,3.0367E2,-1.5856157E-1,4.4206104E-1,-8.373185E-2,1.2947609E-1,-9.90928E-2,1.1998878E0,2.4849532E-2,1.266379E0,-7.3909685E-2,-3.1064624E-1,8.1304646E-1,1.1238229E-1,-1.6902666E-1,6.1087763E-1,-1.9603975E-1,1.5840459E0],"split_indices":[7,6,6,5,4,4,3,5,4,8,9,2,4,2,4,0,0,0,0,0,0,0,0,0,0,0,0,0,0,0,0],"split_type":[0,0,0,0,0,0,0,0,0,0,0,0,0,0,0,0,0,0,0,0,0,0,0,0,0,0,0,0,0,0,0],"sum_hessian":[1.8518E4,1.6215E4,2.303E3,1.6001E4,2.14E2,2.109E3,1.94E2,2.165E3,1.3836E4,7.6E1,1.38E2,2.5E2,1.859E3,5E1,1.44E2,1.189E3,9.76E2,1.3259E4,5.77E2,6.9E1,7E0,2.7E1,1.11E2,4.2E1,2.08E2,4.34E2,1.425E3,3.6E1,1.4E1,1.5E1,1.29E2],"tree_param":{"num_deleted":"0","num_feature":"11","num_nodes":"31","size_leaf_vector":"1"}},{"base_weights":[4.8698997E-3,-7.579681E-1,5.3738704E0,-1.0867103E0,6.80082E0,4.014832E0,2.0051802E1,1.785764E-1,-1.785663E0,3.0425062E0,1.33161E1,-5.1567526E0,5.2503443E0,7.7623215E0,3.02971E1,-4.2927666E-3,1.3500199E0,-9.991797E-2,-2.601707E-2,-4.5754287E-2,4.6099558E-1,1.2329624E0,3.0929685E-1,-7.030015E-2,-2.9518825E-1,7.7248764E-1,1.0676712E-1,1.3711974E-1,1.6339566E0,1.8410214E0,1.0699006E-1],"categories":[],"categories_nodes":[],"categories_segments":[],"categories_sizes":[],"default_left":[0,0,0,0,0,0,0,0,0,0,0,0,0,0,0,0,0,0,0,0,0,0,0,0,0,0,0,0,0,0,0],"id":14,"left_children":[1,3,5,7,9,11,13,15,17,19,21,23,25,27,29,-1,-1,-1,-1,-1,-1,-1,-1,-1,-1,-1,-1,-1,-1,-1,-1],"loss_changes":[7.585194E4,4.030241E4,4.587939E4,1.3744398E4,1.6512336E4,2.3936766E4,2.4317148E4,3.9231156E4,2.6932188E3,1.0520928E4,1.9824445E4,6.9496436E2,5.90614E4,1.1167629E4,1.9391219E4,0E0,0E0,0E0,0E0,0E0,0E0,0E0,0E0,0E0,0E0,0E0,0E0,0E0,0E0,0E0,0E0],"parents":[2147483647,0,0,1,1,2,2,3,3,4,4,5,5,6,6,7,7,8,8,9,9,10,10,11,11,12,12,13,13,14,14],"right_children":[2,4,6,8,10,12,14,16,18,20,22,24,26,28,30,-1,-1,-1,-1,-1,-1,-1,-1,-1,-1,-1,-1,-1,-1,-1,-1],"split_conditions":[2.25E0,1.42E1,1.3E1,4.52E-2,8.6666666E-2,3.0356E2,1.375E1,3.0814E2,1.375E1,5.9E-1,9.6E-1,1.3E-1,3.0466E2,1.59E0,1.27E1,-4.2927666E-3,1.3500199E0,-9.991797E-2,-2.601707E-2,-4.5754287E-2,4.6099558E-1,1.2329624E0,3.0929685E-1,-7.030015E-2,-2.9518825E-1,7.7248764E-1,1.0676712E-1,1.3711974E-1,1.6339566E0,1.8410214E0,1.0699006E-1],"split_indices":[7,6,6,5,8,4,3,4,3,2,0,2,4,2,0,0,0,0,0,0,0,0,0,0,0,0,0,0,0,0,0],"split_type":[0,0,0,0,0,0,0,0,0,0,0,0,0,0,0,0,0,0,0,0,0,0,0,0,0,0,0,0,0,0,0],"sum_hessian":[1.8518E4,1.6215E4,2.303E3,1.554E4,6.75E2,2.109E3,1.94E2,5.53E3,1.001E4,4.29E2,2.46E2,2.5E2,1.859E3,8.9E1,1.05E2,5.477E3,5.3E1,8.569E3,1.441E3,2.62E2,1.67E2,9.4E1,1.52E2,4.2E1,2.08E2,4.34E2,1.425E3,7.5E1,1.4E1,8.5E1,2E1],"tree_param":{"num_deleted":"0","num_feature":"11","num_nodes":"31","size_leaf_vector":"1"}},{"base_weights":[5.026592E-3,-7.218691E-1,5.195539E0,-1.0295299E0,6.409426E0,4.1922545E0,2.3499712E1,2.4193294E-1,-1.731951E0,2.8913467E0,1.2608458E1,2.8291602E0,1.3104434E1,2.746875E1,-7.65343E-2,-1.289998E-2,7.320958E-1,-8.743579E-2,6.2061423E-1,-4.3475267E-2,4.3808302E-1,1.1311722E0,2.1465538E-1,1.0422037E0,1.1055974E-1,2.4339385E0,5.33764E-1,6.428912E-1,1.9490035E0,-1.1712521E-1,1.224857E-1],"categories":[],"categories_nodes":[],"categories_segments":[],"categories_sizes":[],"default_left":[0,0,0,0,0,0,0,0,0,0,0,0,0,0,0,0,0,0,0,0,0,0,0,0,0,0,0,0,0,0,0],"id":15,"left_children":[1,3,5,7,9,11,13,15,17,19,21,23,25,27,29,-1,-1,-1,-1,-1,-1,-1,-1,-1,-1,-1,-1,-1,-1,-1,-1],"loss_changes":[6.987522E4,3.564845E4,4.1680254E4,1.3909596E4,1.4618979E4,2.617861E4,1.1043945E4,3.990794E4,2.4005273E3,9.500893E3,2.0139457E4,2.0805262E4,2.4195188E4,1.6486094E4,1.0877772E2,0E0,0E0,0E0,0E0,0E0,0E0,0E0,0E0,0E0,0E0,0E0,0E0,0E0,0E0,0E0,0E0],"parents":[2147483647,0,0,1,1,2,2,3,3,4,4,5,5,6,6,7,7,8,8,9,9,10,10,11,11,12,12,13,13,14,14],"right_children":[2,4,6,8,10,12,14,16,18,20,22,24,26,28,30,-1,-1,-1,-1,-1,-1,-1,-1,-1,-1,-1,-1,-1,-1,-1,-1],"split_conditions":[2.43E0,1.42E1,1.47E1,4.52E-2,8.6666666E-2,1.176E1,1.27E1,3.0765E2,2.479E1,5.9E-1,9.6E-1,-1.5E0,3.53E-2,1.05E1,3.32E-2,-1.289998E-2,7.320958E-1,-8.743579E-2,6.2061423E-1,-4.3475267E-2,4.3808302E-1,1.1311722E0,2.1465538E-1,1.0422037E0,1.1055974E-1,2.4339385E0,5.33764E-1,6.428912E-1,1.9490035E0,-1.1712521E-1,1.224857E-1],"split_indices":[1,6,6,5,8,0,0,4,0,2,0,2,5,3,5,0,0,0,0,0,0,0,0,0,0,0,0,0,0,0,0],"split_type":[0,0,0,0,0,0,0,0,0,0,0,0,0,0,0,0,0,0,0,0,0,0,0,0,0,0,0,0,0,0,0],"sum_hessian":[1.8518E4,1.6244E4,2.274E3,1.5573E4,6.71E2,2.157E3,1.17E2,5.542E3,1.0031E4,4.29E2,2.42E2,1.872E3,2.85E2,1E2,1.7E1,5.357E3,1.85E2,1.002E4,1.1E1,2.62E2,1.67E2,1.09E2,1.33E2,6.1E1,1.811E3,1.7E1,2.68E2,4.5E1,5.5E1,9E0,8E0],"tree_param":{"num_deleted":"0","num_feature":"11","num_nodes":"31","size_leaf_vector":"1"}},{"base_weights":[5.2995454E-3,-6.867557E-1,4.93714E0,-1.004478E0,5.110607E0,1.0218578E1,8.5106975E-1,1.1449083E0,-1.313671E0,2.355579E0,1.1684447E1,2.984104E0,1.6295368E1,-5.5003923E-1,5.980309E0,-1.0123016E-1,5.857238E-1,-7.282466E-2,9.449078E-2,-2.2364666E-3,4.7148156E-1,1.1851424E0,3.2824335E-1,2.0991454E0,1.2287443E-1,-2.3905747E-1,1.081836E0,-7.049527E-2,2.9535958E-1,1.6481917E-1,1.5304992E0],"categories":[],"categories_nodes":[],"categories_segments":[],"categories_sizes":[],"default_left":[0,0,0,0,0,0,0,0,0,0,0,0,0,0,0,0,0,0,0,0,0,0,0,0,0,0,0,0,0,0,0],"id":16,"left_children":[1,3,5,7,9,11,13,15,17,19,21,23,25,27,29,-1,-1,-1,-1,-1,-1,-1,-1,-1,-1,-1,-1,-1,-1,-1,-1],"loss_changes":[6.3210707E4,2.9920264E4,4.9172867E4,1.0234637E4,1.5258254E4,4.3649992E4,9.245287E3,6.491392E4,6.162002E3,1.0120445E4,1.516516E4,9.241329E3,6.0895062E4,5.6217583E3,1.8143863E4,0E0,0E0,0E0,0E0,0E0,0E0,0E0,0E0,0E0,0E0,0E0,0E0,0E0,0E0,0E0,0E0],"parents":[2147483647,0,0,1,1,2,2,3,3,4,4,5,5,6,6,7,7,8,8,9,9,10,10,11,11,12,12,13,13,14,14],"right_children":[2,4,6,8,10,12,14,16,18,20,22,24,26,28,30,-1,-1,-1,-1,-1,-1,-1,-1,-1,-1,-1,-1,-1,-1,-1,-1],"split_conditions":[2.4E0,1.33E1,5.02E-2,2.91E-2,7.33E0,8.5E0,1.714E1,2.79E-2,3.0765E2,1.76E1,9E0,-1.79E0,3.0373E2,6.0233335E0,3.0677E2,-1.0123016E-1,5.857238E-1,-7.282466E-2,9.449078E-2,-2.2364666E-3,4.7148156E-1,1.1851424E0,3.2824335E-1,2.0991454E0,1.2287443E-1,-2.3905747E-1,1.081836E0,-7.049527E-2,2.9535958E-1,1.6481917E-1,1.5304992E0],"split_indices":[10,6,5,5,3,3,3,5,4,6,3,2,4,8,4,0,0,0,0,0,0,0,0,0,0,0,0,0,0,0,0],"split_type":[0,0,0,0,0,0,0,0,0,0,0,0,0,0,0,0,0,0,0,0,0,0,0,0,0,0,0,0,0,0,0],"sum_hessian":[1.8518E4,1.624E4,2.278E3,1.5397E4,8.43E2,9.93E2,1.285E3,1.936E3,1.3461E4,5.95E2,2.48E2,4.54E2,5.39E2,1.01E3,2.75E2,1.49E3,4.46E2,1.2887E4,5.74E2,4.45E2,1.5E2,7.3E1,1.75E2,5E0,4.49E2,1.09E2,4.3E2,8.92E2,1.18E2,2.49E2,2.6E1],"tree_param":{"num_deleted":"0","num_feature":"11","num_nodes":"31","size_leaf_vector":"1"}},{"base_weights":[5.4381127E-3,-6.560297E-1,4.728752E0,-8.171065E-1,1.0920607E1,3.3936071E0,1.6642782E1,2.0106237E0,-1.2503142E0,2.3638274E-1,1.775363E1,2.0898977E1,2.818094E0,6.00794E0,2.6595829E1,-1.4677243E-1,4.0011868E-1,-7.075443E-2,1.2505384E-1,-1.5861659E-1,4.7292343E-1,-4.0886074E-2,1.1180687E0,1.7919331E0,5.5867303E-2,-3.5375874E-2,2.8331122E-1,1.2373967E0,3.0790275E-2,1.5848339E0,7.6270096E-2],"categories":[],"categories_nodes":[],"categories_segments":[],"categories_sizes":[],"default_left":[0,0,0,0,0,0,0,0,0,0,0,0,0,0,0,0,0,0,0,0,0,0,0,0,0,0,0,0,0,0,0],"id":17,"left_children":[1,3,5,7,9,11,13,15,17,19,21,23,25,27,29,-1,-1,-1,-1,-1,-1,-1,-1,-1,-1,-1,-1,-1,-1,-1,-1],"loss_changes":[5.7862383E4,3.0301426E4,3.6131855E4,1.9630602E4,1.6276045E4,2.0563754E4,2.4079648E4,6.311775E4,8.592506E3,2.7963252E3,1.1656082E4,1.9169496E4,1.9916107E4,1.1302201E4,1.5041547E4,0E0,0E0,0E0,0E0,0E0,0E0,0E0,0E0,0E0,0E0,0E0,0E0,0E0,0E0,0E0,0E0],"parents":[2147483647,0,0,1,1,2,2,3,3,4,4,5,5,6,6,7,7,8,8,9,9,10,10,11,11,12,12,13,13,14,14],"right_children":[2,4,6,8,10,12,14,16,18,20,22,24,26,28,30,-1,-1,-1,-1,-1,-1,-1,-1,-1,-1,-1,-1,-1,-1,-1,-1],"split_conditions":[2.43E0,1.76E1,1.25E1,2.91E-2,3.0458E2,-1.5E0,6.96E0,2.73E-2,3.0765E2,1.3E1,-1E-2,3.0464E2,6.07E0,3.0432E2,1.27E1,-1.4677243E-1,4.0011868E-1,-7.075443E-2,1.2505384E-1,-1.5861659E-1,4.7292343E-1,-4.0886074E-2,1.1180687E0,1.7919331E0,5.5867303E-2,-3.5375874E-2,2.8331122E-1,1.2373967E0,3.0790275E-2,1.5848339E0,7.6270096E-2],"split_indices":[1,6,6,5,4,2,0,5,4,3,9,4,0,4,0,0,0,0,0,0,0,0,0,0,0,0,0,0,0,0,0],"split_type":[0,0,0,0,0,0,0,0,0,0,0,0,0,0,0,0,0,0,0,0,0,0,0,0,0,0,0,0,0,0,0],"sum_hessian":[1.8518E4,1.6244E4,2.274E3,1.6022E4,2.22E2,2.046E3,2.28E2,2.128E3,1.3894E4,8.7E1,1.35E2,6.4E1,1.982E3,1.11E2,1.17E2,1.166E3,9.62E2,1.331E4,5.84E2,6.4E1,2.3E1,2.7E1,1.08E2,3.6E1,2.8E1,8.86E2,1.096E3,2.4E1,8.7E1,9.7E1,2E1],"tree_param":{"num_deleted":"0","num_feature":"11","num_nodes":"31","size_leaf_vector":"1"}},{"base_weights":[5.5293636E-3,-4.5857543E-1,6.173535E0,-9.0679556E-1,3.8097901E0,1.5437381E0,1.3912136E1,1.582378E-1,-1.4777396E0,-5.541467E0,5.2199874E0,-3.1582683E-1,9.303807E0,1.863447E1,1.0087729E0,-4.7152685E-3,1.2445408E0,-6.721233E-2,-2.0818558E-1,-2.9884484E-1,-3.6754772E-2,7.215044E-1,1.0320075E-1,2.8549E-1,-7.9014696E-2,-1.34584475E-2,9.1445917E-1,2.7850947E-1,1.1269068E0,1.5072211E-2,1.5543823E0],"categories":[],"categories_nodes":[],"categories_segments":[],"categories_sizes":[],"default_left":[0,0,0,0,0,0,0,0,0,0,0,0,0,0,0,0,0,0,0,0,0,0,0,0,0,0,0,0,0,0,0],"id":18,"left_children":[1,3,5,7,9,11,13,15,17,19,21,23,25,27,29,-1,-1,-1,-1,-1,-1,-1,-1,-1,-1,-1,-1,-1,-1,-1,-1],"loss_changes":[5.3015336E4,3.295585E4,4.6411812E4,9.478897E3,2.1616232E4,1.1720385E4,2.9534188E4,3.398707E4,3.6330566E3,4.455664E2,4.1332312E4,5.0072227E3,1.3509559E4,1.7978953E4,2.7777388E3,0E0,0E0,0E0,0E0,0E0,0E0,0E0,0E0,0E0,0E0,0E0,0E0,0E0,0E0,0E0,0E0],"parents":[2147483647,0,0,1,1,2,2,3,3,4,4,5,5,6,6,7,7,8,8,9,9,10,10,11,11,12,12,13,13,14,14],"right_children":[2,4,6,8,10,12,14,16,18,20,22,24,26,28,30,-1,-1,-1,-1,-1,-1,-1,-1,-1,-1,-1,-1,-1,-1,-1,-1],"split_conditions":[1.25E1,2.7666667E0,7.33E0,4.52E-2,3.0356E2,1.76E1,5E-2,3.0814E2,3.0726E2,1.65E1,3.047E2,2.83E-2,4E-1,8.6666666E-2,2.3E1,-4.7152685E-3,1.2445408E0,-6.721233E-2,-2.0818558E-1,-2.9884484E-1,-3.6754772E-2,7.215044E-1,1.0320075E-1,2.8549E-1,-7.9014696E-2,-1.34584475E-2,9.1445917E-1,2.7850947E-1,1.1269068E0,1.5072211E-2,1.5543823E0],"split_indices":[6,7,3,5,4,6,5,4,4,1,4,5,9,8,3,0,0,0,0,0,0,0,0,0,0,0,0,0,0,0,0],"split_type":[0,0,0,0,0,0,0,0,0,0,0,0,0,0,0,0,0,0,0,0,0,0,0,0,0,0,0,0,0,0,0],"sum_hessian":[1.8518E4,1.7223E4,1.295E3,1.5587E4,1.636E3,8.11E2,4.84E2,5.44E3,1.0147E4,2.14E2,1.422E3,6.55E2,1.56E2,3.54E2,1.3E2,5.386E3,5.4E1,9.668E3,4.79E2,1.96E2,1.8E1,3.62E2,1.06E3,1.13E2,5.42E2,7.6E1,8E1,8.2E1,2.72E2,1.28E2,2E0],"tree_param":{"num_deleted":"0","num_feature":"11","num_nodes":"31","size_leaf_vector":"1"}},{"base_weights":[5.551833E-3,-6.018973E-1,4.30218E0,-7.474868E-1,9.849299E0,3.0972116E0,1.5154414E1,1.8551214E0,-1.1467521E0,-2.0738238E-1,1.6284143E1,1.9510933E1,2.5627515E0,5.3982825E0,2.4286043E1,-6.116703E-2,5.336849E-1,-6.513458E-2,1.1991817E-1,-1.432289E-1,4.7966003E-1,-5.460779E-2,1.0299191E0,1.6749623E0,4.954945E-2,2.9686982E-2,3.6257282E-1,1.1547599E0,1.5470286E-2,1.4569181E0,2.4270404E-2],"categories":[],"categories_nodes":[],"categories_segments":[],"categories_sizes":[],"default_left":[0,0,0,0,0,0,0,0,0,0,0,0,0,0,0,0,0,0,0,0,0,0,0,0,0,0,0,0,0,0,0],"id":19,"left_children":[1,3,5,7,9,11,13,15,17,19,21,23,25,27,29,-1,-1,-1,-1,-1,-1,-1,-1,-1,-1,-1,-1,-1,-1,-1,-1],"loss_changes":[4.8336867E4,2.46966E4,2.995077E4,1.6632383E4,1.4434416E4,1.8073941E4,2.0270367E4,5.7810414E4,7.6740977E3,2.3191821E3,1.0217809E4,1.680588E4,1.847839E4,1.0079287E4,1.3613469E4,0E0,0E0,0E0,0E0,0E0,0E0,0E0,0E0,0E0,0E0,0E0,0E0,0E0,0E0,0E0,0E0],"parents":[2147483647,0,0,1,1,2,2,3,3,4,4,5,5,6,6,7,7,8,8,9,9,10,10,11,11,12,12,13,13,14,14],"right_children":[2,4,6,8,10,12,14,16,18,20,22,24,26,28,30,-1,-1,-1,-1,-1,-1,-1,-1,-1,-1,-1,-1,-1,-1,-1,-1],"split_conditions":[2.42E0,1.76E1,1.25E1,2.91E-2,3.0458E2,-1.5E0,6.96E0,2.79E-2,3.0765E2,1.9266666E0,-1E-2,3.0464E2,1.45E1,3.0432E2,1.27E1,-6.116703E-2,5.336849E-1,-6.513458E-2,1.1991817E-1,-1.432289E-1,4.7966003E-1,-5.460779E-2,1.0299191E0,1.6749623E0,4.954945E-2,2.9686982E-2,3.6257282E-1,1.1547599E0,1.5470286E-2,1.4569181E0,2.4270404E-2],"split_indices":[1,6,6,5,4,2,0,5,4,8,9,4,3,4,0,0,0,0,0,0,0,0,0,0,0,0,0,0,0,0,0],"split_type":[0,0,0,0,0,0,0,0,0,0,0,0,0,0,0,0,0,0,0,0,0,0,0,0,0,0,0,0,0,0,0],"sum_hessian":[1.8518E4,1.6225E4,2.293E3,1.6003E4,2.22E2,2.065E3,2.28E2,2.128E3,1.3875E4,8.7E1,1.35E2,6.4E1,2.001E3,1.11E2,1.17E2,1.578E3,5.5E2,1.3291E4,5.84E2,6.9E1,1.8E1,2.7E1,1.08E2,3.6E1,2.8E1,1.41E3,5.91E2,2.4E1,8.7E1,9.7E1,2E1],"tree_param":{"num_deleted":"0","num_feature":"11","num_nodes":"31","size_leaf_vector":"1"}},{"base_weights":[5.631009E-3,-5.7307357E-1,4.129692E0,-8.3681554E-1,4.2393336E0,8.821552E0,4.999575E-1,-1.6262836E0,-1.9779623E-1,1.3502764E0,9.288433E0,4.9153066E0,1.7841618E1,-4.1888836E-1,6.788762E0,-1.0202612E-1,-9.381206E-3,2.3923483E-1,-3.916074E-2,-5.7974078E-2,3.092567E-1,6.317541E-1,-1.8078993E-1,6.767007E-1,6.1584342E-2,-2.0024121E-1,1.2070415E0,-2.4562219E-1,4.839266E-2,2.8826052E-2,1.9869627E0],"categories":[],"categories_nodes":[],"categories_segments":[],"categories_sizes":[],"default_left":[0,0,0,0,0,0,0,0,0,0,0,0,0,0,0,0,0,0,0,0,0,0,0,0,0,0,0,0,0,0,0],"id":20,"left_children":[1,3,5,7,9,11,13,15,17,19,21,23,25,27,29,-1,-1,-1,-1,-1,-1,-1,-1,-1,-1,-1,-1,-1,-1,-1,-1],"loss_changes":[4.420006E4,2.0617172E4,3.880743E4,7.767744E3,1.2299002E4,3.4935492E4,7.43392E3,4.10451E3,2.4829004E4,6.5354365E3,1.3303766E4,2.2048217E4,4.1381305E4,7.0026167E3,3.3547297E4,0E0,0E0,0E0,0E0,0E0,0E0,0E0,0E0,0E0,0E0,0E0,0E0,0E0,0E0,0E0,0E0],"parents":[2147483647,0,0,1,1,2,2,3,3,4,4,5,5,6,6,7,7,8,8,9,9,10,10,11,11,12,12,13,13,14,14],"right_children":[2,4,6,8,10,12,14,16,18,20,22,24,26,28,30,-1,-1,-1,-1,-1,-1,-1,-1,-1,-1,-1,-1,-1,-1,-1,-1],"split_conditions":[2.4E0,1.33E1,5.02E-2,5.2E0,8.6666666E-2,1.4E1,3.0667E2,5.68E-1,2.91E-2,6E-1,4.93E-2,-2.2E-1,3.0367E2,7.33E0,1.537E1,-1.0202612E-1,-9.381206E-3,2.3923483E-1,-3.916074E-2,-5.7974078E-2,3.092567E-1,6.317541E-1,-1.8078993E-1,6.767007E-1,6.1584342E-2,-2.0024121E-1,1.2070415E0,-2.4562219E-1,4.839266E-2,2.8826052E-2,1.9869627E0],"split_indices":[10,6,5,6,8,3,4,8,5,9,5,2,4,3,0,0,0,0,0,0,0,0,0,0,0,0,0,0,0,0,0],"split_type":[0,0,0,0,0,0,0,0,0,0,0,0,0,0,0,0,0,0,0,0,0,0,0,0,0,0,0,0,0,0,0],"sum_hessian":[1.8518E4,1.624E4,2.278E3,1.5397E4,8.43E2,9.93E2,1.285E3,6.887E3,8.51E3,5.37E2,3.06E2,6.94E2,2.99E2,1.122E3,1.63E2,5.347E3,1.54E3,8.94E2,7.616E3,3.54E2,1.83E2,2.43E2,6.3E1,2.07E2,4.87E2,6.7E1,2.32E2,2.64E2,8.58E2,1.38E2,2.5E1],"tree_param":{"num_deleted":"0","num_feature":"11","num_nodes":"31","size_leaf_vector":"1"}},{"base_weights":[5.5846036E-3,-4.010845E-1,5.410263E0,-8.69368E-1,2.7125967E0,1.2293923E0,1.2398834E1,-8.85335E-1,2.9109509E1,-5.0001116E0,3.7305512E0,-4.2618024E-1,8.139113E0,1.6479816E1,5.1376665E-1,-7.9826206E-2,-1.4653851E-2,2.2177432E0,1.3877209E-1,-9.087681E-2,-2.824364E-1,6.041405E-1,6.269917E-2,-6.870049E-2,3.256984E-1,-2.984191E-2,8.171588E-1,2.790714E-1,9.9338716E-1,-1.414188E-1,3.4764656E-1],"categories":[],"categories_nodes":[],"categories_segments":[],"categories_sizes":[],"default_left":[0,0,0,0,0,0,0,0,0,0,0,0,0,0,0,0,0,0,0,0,0,0,0,0,0,0,0,0,0,0,0],"id":21,"left_children":[1,3,5,7,9,11,13,15,17,19,21,23,25,27,29,-1,-1,-1,-1,-1,-1,-1,-1,-1,-1,-1,-1,-1,-1,-1,-1],"loss_changes":[4.0705375E4,2.5116422E4,3.7851688E4,7.192925E3,1.7699525E4,9.292379E3,2.3515367E4,6.3033223E3,3.0886729E3,5.3263574E2,4.114788E4,4.32417E3,1.126199E4,1.3218281E4,2.7097407E3,0E0,0E0,0E0,0E0,0E0,0E0,0E0,0E0,0E0,0E0,0E0,0E0,0E0,0E0,0E0,0E0],"parents":[2147483647,0,0,1,1,2,2,3,3,4,4,5,5,6,6,7,7,8,8,9,9,10,10,11,11,12,12,13,13,14,14],"right_children":[2,4,6,8,10,12,14,16,18,20,22,24,26,28,30,-1,-1,-1,-1,-1,-1,-1,-1,-1,-1,-1,-1,-1,-1,-1,-1],"split_conditions":[1.25E1,2.09E0,7.33E0,3.14E0,3.0356E2,1.76E1,5.25E-2,5.2E0,2.86E-2,1.3E-1,3.0466E2,4.15E0,4E-1,8.6666666E-2,1.37E0,-7.9826206E-2,-1.4653851E-2,2.2177432E0,1.3877209E-1,-9.087681E-2,-2.824364E-1,6.041405E-1,6.269917E-2,-6.870049E-2,3.256984E-1,-2.984191E-2,8.171588E-1,2.790714E-1,9.9338716E-1,-1.414188E-1,3.4764656E-1],"split_indices":[6,7,3,10,4,6,5,6,5,2,4,0,9,8,10,0,0,0,0,0,0,0,0,0,0,0,0,0,0,0,0],"split_type":[0,0,0,0,0,0,0,0,0,0,0,0,0,0,0,0,0,0,0,0,0,0,0,0,0,0,0,0,0,0,0],"sum_hessian":[1.8518E4,1.7223E4,1.295E3,1.4972E4,2.251E3,8.11E2,4.84E2,1.4965E4,7E0,2.62E2,1.989E3,6.55E2,1.56E2,3.6E2,1.24E2,6.799E3,8.166E3,4E0,3E0,4.5E1,2.17E2,4.54E2,1.535E3,5.77E2,7.8E1,7.6E1,8E1,8.6E1,2.74E2,8.2E1,4.2E1],"tree_param":{"num_deleted":"0","num_feature":"11","num_nodes":"31","size_leaf_vector":"1"}},{"base_weights":[5.5796085E-3,-5.246048E-1,3.7556958E0,-6.516799E-1,8.597522E0,1.4815843E0,8.416863E0,1.657884E0,-1.0059901E0,-8.8901937E-1,1.4672655E1,5.6045794E0,-1.286531E0,1.3200976E1,-8.490373E-1,-1.3748382E-1,3.498706E-1,-5.7669487E-2,1.17242336E-1,-2.737956E-1,2.0192818E-1,-7.302486E-2,9.3411696E-1,1.18628025E-1,8.040661E-1,-1.9904523E-1,2.9304773E-2,-3.145748E-1,8.5667914E-1,1.143638E0,-1.0521398E-1],"categories":[],"categories_nodes":[],"categories_segments":[],"categories_sizes":[],"default_left":[0,0,0,0,0,0,0,0,0,0,0,0,0,0,0,0,0,0,0,0,0,0,0,0,0,0,0,0,0,0,0],"id":22,"left_children":[1,3,5,7,9,11,13,15,17,19,21,23,25,27,29,-1,-1,-1,-1,-1,-1,-1,-1,-1,-1,-1,-1,-1,-1,-1,-1],"loss_changes":[3.682243E4,1.8814701E4,2.4303963E4,1.3097777E4,1.286498E4,1.7617355E4,3.3346703E4,5.012375E4,6.8562217E3,2.0111167E3,8.824967E3,2.0955686E4,4.664426E3,3.8129297E4,7.7007173E3,0E0,0E0,0E0,0E0,0E0,0E0,0E0,0E0,0E0,0E0,0E0,0E0,0E0,0E0,0E0,0E0],"parents":[2147483647,0,0,1,1,2,2,3,3,4,4,5,5,6,6,7,7,8,8,9,9,10,10,11,11,12,12,13,13,14,14],"right_children":[2,4,6,8,10,12,14,16,18,20,22,24,26,28,30,-1,-1,-1,-1,-1,-1,-1,-1,-1,-1,-1,-1,-1,-1,-1,-1],"split_conditions":[2.42E0,1.76E1,1.4E1,2.91E-2,3.0458E2,4.57E-2,7.62E-2,2.73E-2,3.0765E2,2.5E-1,-1E-2,4.01E-2,8E0,3.0356E2,-1.01E0,-1.3748382E-1,3.498706E-1,-5.7669487E-2,1.17242336E-1,-2.737956E-1,2.0192818E-1,-7.302486E-2,9.3411696E-1,1.18628025E-1,8.040661E-1,-1.9904523E-1,2.9304773E-2,-3.145748E-1,8.5667914E-1,1.143638E0,-1.0521398E-1],"split_indices":[1,6,3,5,4,5,5,5,4,2,9,5,3,4,9,0,0,0,0,0,0,0,0,0,0,0,0,0,0,0,0],"split_type":[0,0,0,0,0,0,0,0,0,0,0,0,0,0,0,0,0,0,0,0,0,0,0,0,0,0,0,0,0,0,0],"sum_hessian":[1.8518E4,1.6225E4,2.293E3,1.6003E4,2.22E2,1.542E3,7.51E2,2.128E3,1.3875E4,8.7E1,1.35E2,6.19E2,9.23E2,4.95E2,2.56E2,1.166E3,9.62E2,1.3291E4,5.84E2,4.5E1,4.2E1,2.7E1,1.08E2,4.74E2,1.45E2,3.78E2,5.45E2,8.3E1,4.12E2,1.2E1,2.44E2],"tree_param":{"num_deleted":"0","num_feature":"11","num_nodes":"31","size_leaf_vector":"1"}},{"base_weights":[5.4839253E-3,-3.6814398E-1,4.9710407E0,-6.539981E-1,3.8512216E0,1.0689673E0,1.1493747E1,3.1851795E-1,-1.1752406E0,-2.0195363E0,6.5731783E0,-4.1816083E-1,7.275892E0,1.5269298E1,4.9800456E-1,3.2128494E-3,1.1575879E0,-5.1847983E-2,-2.2503757E-1,2.259955E-1,-2.1294422E-1,1.033881E0,2.0264514E-1,7.3190235E-2,-1.8009524E-1,-1.8762513E-1,6.466107E-1,2.5599802E-1,9.212327E-1,-1.3277486E-1,3.2867074E-1],"categories":[],"categories_nodes":[],"categories_segments":[],"categories_sizes":[],"default_left":[0,0,0,0,0,0,0,0,0,0,0,0,0,0,0,0,0,0,0,0,0,0,0,0,0,0,0,0,0,0,0],"id":23,"left_children":[1,3,5,7,9,11,13,15,17,19,21,23,25,27,29,-1,-1,-1,-1,-1,-1,-1,-1,-1,-1,-1,-1,-1,-1,-1,-1],"loss_changes":[3.4359582E4,2.077678E4,3.29736E4,8.1779565E3,1.7479357E4,7.498202E3,2.0127164E4,3.2684047E4,4.8251904E3,5.100751E3,2.6469861E4,3.9358257E3,9.84221E3,1.1466609E4,2.4123076E3,0E0,0E0,0E0,0E0,0E0,0E0,0E0,0E0,0E0,0E0,0E0,0E0,0E0,0E0,0E0,0E0],"parents":[2147483647,0,0,1,1,2,2,3,3,4,4,5,5,6,6,7,7,8,8,9,9,10,10,11,11,12,12,13,13,14,14],"right_children":[2,4,6,8,10,12,14,16,18,20,22,24,26,28,30,-1,-1,-1,-1,-1,-1,-1,-1,-1,-1,-1,-1,-1,-1,-1,-1],"split_conditions":[1.25E1,4.24E0,7.33E0,4.57E-2,8.25E0,1.76E1,5.25E-2,3.0814E2,3.0814E2,4.1E0,3.53E-2,3.0505E2,3.0458E2,8.6666666E-2,1.37E0,3.2128494E-3,1.1575879E0,-5.1847983E-2,-2.2503757E-1,2.259955E-1,-2.1294422E-1,1.033881E0,2.0264514E-1,7.3190235E-2,-1.8009524E-1,-1.8762513E-1,6.466107E-1,2.5599802E-1,9.212327E-1,-1.3277486E-1,3.2867074E-1],"split_indices":[6,10,3,5,3,6,5,4,4,6,5,4,4,8,10,0,0,0,0,0,0,0,0,0,0,0,0,0,0,0,0],"split_type":[0,0,0,0,0,0,0,0,0,0,0,0,0,0,0,0,0,0,0,0,0,0,0,0,0,0,0,0,0,0,0],"sum_hessian":[1.8518E4,1.7223E4,1.295E3,1.6131E4,1.092E3,8.11E2,4.84E2,5.629E3,1.0502E4,3.46E2,7.46E2,6.55E2,1.56E2,3.6E2,1.24E2,5.568E3,6.1E1,1.0084E4,4.18E2,8.8E1,2.58E2,1.12E2,6.34E2,4.12E2,2.43E2,5.3E1,1.03E2,8.6E1,2.74E2,8.2E1,4.2E1],"tree_param":{"num_deleted":"0","num_feature":"11","num_nodes":"31","size_leaf_vector":"1"}},{"base_weights":[5.4180445E-3,-4.819739E-1,3.452853E0,-5.965461E-1,7.7426724E0,1.3366569E0,7.7904034E0,1.5272685E0,-9.2236084E-1,-9.6481013E-1,1.3319994E1,5.1372943E0,-1.215001E0,1.2263596E1,-8.729973E-1,-6.132043E-2,4.707853E-1,-5.3112764E-2,1.1289048E-1,-2.6586875E-1,1.8569298E-1,-1.0321128E-1,8.574851E-1,1.0320474E-1,7.550265E-1,-1.8578269E-1,2.6151264E-2,-2.4530959E-1,8.119015E-1,1.0873748E0,-1.03485264E-1],"categories":[],"categories_nodes":[],"categories_segments":[],"categories_sizes":[],"default_left":[0,0,0,0,0,0,0,0,0,0,0,0,0,0,0,0,0,0,0,0,0,0,0,0,0,0,0,0,0,0,0],"id":24,"left_children":[1,3,5,7,9,11,13,15,17,19,21,23,25,27,29,-1,-1,-1,-1,-1,-1,-1,-1,-1,-1,-1,-1,-1,-1,-1,-1],"loss_changes":[3.1118252E4,1.5294641E4,2.1046463E4,1.1075698E4,1.084272E4,1.4970144E4,2.9153E4,4.6258137E4,6.175668E3,1.8117988E3,8.048123E3,1.8952613E4,4.017832E3,3.3926797E4,7.002032E3,0E0,0E0,0E0,0E0,0E0,0E0,0E0,0E0,0E0,0E0,0E0,0E0,0E0,0E0,0E0,0E0],"parents":[2147483647,0,0,1,1,2,2,3,3,4,4,5,5,6,6,7,7,8,8,9,9,10,10,11,11,12,12,13,13,14,14],"right_children":[2,4,6,8,10,12,14,16,18,20,22,24,26,28,30,-1,-1,-1,-1,-1,-1,-1,-1,-1,-1,-1,-1,-1,-1,-1,-1],"split_conditions":[2.42E0,1.76E1,1.4E1,2.91E-2,3.0458E2,4.57E-2,7.62E-2,2.79E-2,3.0765E2,2.5E-1,-1E-2,4.01E-2,8E0,3.0367E2,-1.01E0,-6.132043E-2,4.707853E-1,-5.3112764E-2,1.1289048E-1,-2.6586875E-1,1.8569298E-1,-1.0321128E-1,8.574851E-1,1.0320474E-1,7.550265E-1,-1.8578269E-1,2.6151264E-2,-2.4530959E-1,8.119015E-1,1.0873748E0,-1.03485264E-1],"split_indices":[1,6,3,5,4,5,5,5,4,2,9,5,3,4,9,0,0,0,0,0,0,0,0,0,0,0,0,0,0,0,0],"split_type":[0,0,0,0,0,0,0,0,0,0,0,0,0,0,0,0,0,0,0,0,0,0,0,0,0,0,0,0,0,0,0],"sum_hessian":[1.8518E4,1.6225E4,2.293E3,1.6003E4,2.22E2,1.542E3,7.51E2,2.128E3,1.3875E4,8.7E1,1.35E2,6.19E2,9.23E2,4.95E2,2.56E2,1.578E3,5.5E2,1.3291E4,5.84E2,4.5E1,4.2E1,2.7E1,1.08E2,4.74E2,1.45E2,3.78E2,5.45E2,9.3E1,4.02E2,1.2E1,2.44E2],"tree_param":{"num_deleted":"0","num_feature":"11","num_nodes":"31","size_leaf_vector":"1"}},{"base_weights":[5.330414E-3,-3.3859378E-1,4.5761213E0,-7.2889E-1,2.3187943E0,9.2709154E-1,1.0675989E1,-6.3154763E-1,-4.559918E0,1.2638442E1,1.5597546E0,-1.0961634E0,4.7542963E0,1.4175845E1,4.829971E-1,-3.611531E-2,1.0541747E0,-9.252526E-1,-2.120889E-1,9.553572E-1,-8.201903E-2,-1.15362285E-2,2.783422E-1,8.200619E-2,-1.7730786E-1,-7.703246E-2,5.251514E-1,5.09293E-1,1.0906748E0,-7.377751E-2,5.1263666E-1],"categories":[],"categories_nodes":[],"categories_segments":[],"categories_sizes":[],"default_left":[0,0,0,0,0,0,0,0,0,0,0,0,0,0,0,0,0,0,0,0,0,0,0,0,0,0,0,0,0,0,0],"id":25,"left_children":[1,3,5,7,9,11,13,15,17,19,21,23,25,27,29,-1,-1,-1,-1,-1,-1,-1,-1,-1,-1,-1,-1,-1,-1,-1,-1],"loss_changes":[2.9113521E4,1.786588E4,2.8837248E4,5.5980264E3,1.7259938E4,6.2928613E3,1.729505E4,2.8883883E4,1.5718838E3,1.3978525E4,1.4752281E4,3.572284E3,1.0184994E4,1.0778969E4,2.4069397E3,0E0,0E0,0E0,0E0,0E0,0E0,0E0,0E0,0E0,0E0,0E0,0E0,0E0,0E0,0E0,0E0],"parents":[2147483647,0,0,1,1,2,2,3,3,4,4,5,5,6,6,7,7,8,8,9,9,10,10,11,11,12,12,13,13,14,14],"right_children":[2,4,6,8,10,12,14,16,18,20,22,24,26,28,30,-1,-1,-1,-1,-1,-1,-1,-1,-1,-1,-1,-1,-1,-1,-1,-1],"split_conditions":[1.25E1,2.05E0,7.33E0,3.082E2,2.98E-2,1.6E1,5.25E-2,3.0814E2,3.32E-2,3.047E2,1.45E1,3.0464E2,2.3666666E-1,3.94E-2,1.47E0,-3.611531E-2,1.0541747E0,-9.252526E-1,-2.120889E-1,9.553572E-1,-8.201903E-2,-1.15362285E-2,2.783422E-1,8.200619E-2,-1.7730786E-1,-7.703246E-2,5.251514E-1,5.09293E-1,1.0906748E0,-7.377751E-2,5.1263666E-1],"split_indices":[6,8,3,4,5,6,5,4,5,4,3,4,9,5,2,0,0,0,0,0,0,0,0,0,0,0,0,0,0,0,0],"split_type":[0,0,0,0,0,0,0,0,0,0,0,0,0,0,0,0,0,0,0,0,0,0,0,0,0,0,0,0,0,0,0],"sum_hessian":[1.8518E4,1.7223E4,1.295E3,1.5018E4,2.205E3,8.11E2,4.84E2,1.4647E4,3.71E2,1.5E2,2.055E3,5.31E2,2.8E2,3.6E2,1.24E2,1.4587E4,6E1,7E0,3.64E2,1.03E2,4.7E1,1.421E3,6.34E2,2.51E2,2.8E2,1.34E2,1.46E2,2.38E2,1.22E2,1.04E2,2E1],"tree_param":{"num_deleted":"0","num_feature":"11","num_nodes":"31","size_leaf_vector":"1"}},{"base_weights":[5.248175E-3,-2.677531E-1,5.263952E0,1.0757388E0,-1.0678583E0,7.1085987E0,-4.899317E0,-2.1583831E0,3.0135896E0,-1.3714985E0,5.7849586E-1,1.3351473E0,1.2731362E1,-7.842402E0,1.3298468E1,-1.3002604E-1,1.9876483E-1,-1.528493E-2,2.6222894E-1,-6.1443962E-2,-2.4430262E-1,5.393759E-1,1.1411482E-2,1.5345489E0,2.758937E-3,-2.586846E-1,8.2525915E-1,9.022755E-1,-4.4364434E-1,2.1821115E0,-1.411653E-1],"categories":[],"categories_nodes":[],"categories_segments":[],"categories_sizes":[],"default_left":[0,0,0,0,0,0,0,0,0,0,0,0,0,0,0,0,0,0,0,0,0,0,0,0,0,0,0,0,0,0,0],"id":26,"left_children":[1,3,5,7,9,11,13,15,17,19,21,23,25,27,29,-1,-1,-1,-1,-1,-1,-1,-1,-1,-1,-1,-1,-1,-1,-1,-1],"loss_changes":[2.6587893E4,1.8926451E4,1.7170174E4,4.1194844E4,5.5171816E3,2.5109172E4,7.6559175E3,6.689824E3,3.0437355E4,4.6640723E3,6.144468E3,1.43893545E4,2.6573008E4,3.4147202E3,9.907121E3,0E0,0E0,0E0,0E0,0E0,0E0,0E0,0E0,0E0,0E0,0E0,0E0,0E0,0E0,0E0,0E0],"parents":[2147483647,0,0,1,1,2,2,3,3,4,4,5,5,6,6,7,7,8,8,9,9,10,10,11,11,12,12,13,13,14,14],"right_children":[2,4,6,8,10,12,14,16,18,20,22,24,26,28,30,-1,-1,-1,-1,-1,-1,-1,-1,-1,-1,-1,-1,-1,-1,-1,-1],"split_conditions":[4.33E0,4.57E-2,1.66E0,5.2E0,1.375E1,1.2E1,3.0677E2,1.84E0,3.046E2,3.27E0,5.02E-2,4.423333E0,3.0367E2,3.51E-2,3.0705E2,-1.3002604E-1,1.9876483E-1,-1.528493E-2,2.6222894E-1,-6.1443962E-2,-2.4430262E-1,5.393759E-1,1.1411482E-2,1.5345489E0,2.758937E-3,-2.586846E-1,8.2525915E-1,9.022755E-1,-4.4364434E-1,2.1821115E0,-1.411653E-1],"split_indices":[8,5,2,6,3,3,4,8,4,10,5,8,4,5,4,0,0,0,0,0,0,0,0,0,0,0,0,0,0,0,0],"split_type":[0,0,0,0,0,0,0,0,0,0,0,0,0,0,0,0,0,0,0,0,0,0,0,0,0,0,0,0,0,0,0],"sum_hessian":[1.8518E4,1.7605E4,9.13E2,6.571E3,1.1034E4,7.73E2,1.4E2,2.462E3,4.109E3,9.316E3,1.718E3,3.82E2,3.91E2,1.21E2,1.9E1,2.297E3,1.65E2,1.652E3,2.457E3,8.954E3,3.62E2,5.6E1,1.662E3,1.5E1,3.67E2,6.8E1,3.23E2,4E0,1.17E2,6E0,1.3E1],"tree_param":{"num_deleted":"0","num_feature":"11","num_nodes":"31","size_leaf_vector":"1"}},{"base_weights":[5.2646487E-3,-4.3087474E-1,3.0901785E0,-5.3138876E-1,6.784629E0,-5.162793E0,4.030158E0,1.4092016E0,-8.2909596E-1,-1.275907E0,1.1950382E1,3.791396E-1,-5.6520333E0,1.0602825E1,1.6409886E0,-5.707672E-2,4.3581423E-1,-4.8011348E-2,1.0758984E-1,-2.6074013E-1,1.483734E-1,-1.2096156E-1,7.7660114E-1,-1.8056478E-1,4.1529235E-1,-3.0415222E-1,-7.8740016E-2,1.2779802E-1,8.286191E-1,-7.230218E-2,2.3608875E-1],"categories":[],"categories_nodes":[],"categories_segments":[],"categories_sizes":[],"default_left":[0,0,0,0,0,0,0,0,0,0,0,0,0,0,0,0,0,0,0,0,0,0,0,0,0,0,0,0,0,0,0],"id":27,"left_children":[1,3,5,7,9,11,13,15,17,19,21,23,25,27,29,-1,-1,-1,-1,-1,-1,-1,-1,-1,-1,-1,-1,-1,-1,-1,-1],"loss_changes":[2.4917764E4,1.1771662E4,1.78168E4,9.247123E3,9.3006875E3,6.3930664E2,3.233123E4,3.9691188E4,5.4260205E3,1.4863254E3,7.0370566E3,6.626151E2,3.700044E2,2.6329527E4,1.4386685E4,0E0,0E0,0E0,0E0,0E0,0E0,0E0,0E0,0E0,0E0,0E0,0E0,0E0,0E0,0E0,0E0],"parents":[2147483647,0,0,1,1,2,2,3,3,4,4,5,5,6,6,7,7,8,8,9,9,10,10,11,11,12,12,13,13,14,14],"right_children":[2,4,6,8,10,12,14,16,18,20,22,24,26,28,30,-1,-1,-1,-1,-1,-1,-1,-1,-1,-1,-1,-1,-1,-1,-1,-1],"split_conditions":[2.42E0,1.76E1,3.0356E2,2.91E-2,3.0458E2,1E0,3.0466E2,2.79E-2,3.0765E2,2.5E-1,-1E-2,3.033E2,1.637E1,8.2E0,6.07E0,-5.707672E-2,4.3581423E-1,-4.8011348E-2,1.0758984E-1,-2.6074013E-1,1.483734E-1,-1.2096156E-1,7.7660114E-1,-1.8056478E-1,4.1529235E-1,-3.0415222E-1,-7.8740016E-2,1.2779802E-1,8.286191E-1,-7.230218E-2,2.3608875E-1],"split_indices":[1,6,4,5,4,8,4,5,4,2,9,4,0,6,0,0,0,0,0,0,0,0,0,0,0,0,0,0,0,0,0],"split_type":[0,0,0,0,0,0,0,0,0,0,0,0,0,0,0,0,0,0,0,0,0,0,0,0,0,0,0,0,0,0,0],"sum_hessian":[1.8518E4,1.6225E4,2.293E3,1.6003E4,2.22E2,2.34E2,2.059E3,2.128E3,1.3875E4,8.7E1,1.35E2,1.9E1,2.15E2,5.48E2,1.511E3,1.578E3,5.5E2,1.3291E4,5.84E2,4.5E1,4.2E1,2.7E1,1.08E2,1.3E1,6E0,1.94E2,2.1E1,2.34E2,3.14E2,7.55E2,7.56E2],"tree_param":{"num_deleted":"0","num_feature":"11","num_nodes":"31","size_leaf_vector":"1"}},{"base_weights":[5.1068948E-3,-3.0076572E-1,4.070188E0,-6.495155E-1,2.01812E0,7.033619E-1,9.698626E0,-6.647591E-1,2.7948662E1,-4.555042E0,2.8858204E0,-1.1266226E0,4.165456E0,1.2962818E1,6.85157E-1,-2.8710617E-2,-2.1225384E-1,2.1199882E0,1.4488092E-1,-9.745899E-2,-2.6095006E-1,4.9666414E-1,3.981572E-2,7.202449E-2,-1.7123961E-1,-7.7734396E-2,4.6951565E-1,4.8634192E-1,1.1139694E0,1.5260652E-5,1.4838557E0],"categories":[],"categories_nodes":[],"categories_segments":[],"categories_sizes":[],"default_left":[0,0,0,0,0,0,0,0,0,0,0,0,0,0,0,0,0,0,0,0,0,0,0,0,0,0,0,0,0,0,0],"id":28,"left_children":[1,3,5,7,9,11,13,15,17,19,21,23,25,27,29,-1,-1,-1,-1,-1,-1,-1,-1,-1,-1,-1,-1,-1,-1,-1,-1],"loss_changes":[2.3027693E4,1.3930547E4,2.4552342E4,6.5459023E3,1.2857503E4,5.1491826E3,1.4260641E4,4.8493335E3,2.7732642E3,4.448662E2,2.9296264E4,3.1435525E3,8.412826E3,1.05160625E4,2.581166E3,0E0,0E0,0E0,0E0,0E0,0E0,0E0,0E0,0E0,0E0,0E0,0E0,0E0,0E0,0E0,0E0],"parents":[2147483647,0,0,1,1,2,2,3,3,4,4,5,5,6,6,7,7,8,8,9,9,10,10,11,11,12,12,13,13,14,14],"right_children":[2,4,6,8,10,12,14,16,18,20,22,24,26,28,30,-1,-1,-1,-1,-1,-1,-1,-1,-1,-1,-1,-1,-1,-1,-1,-1],"split_conditions":[1.25E1,2.09E0,7.33E0,3.14E0,3.0356E2,1.6E1,5.05E-2,3.082E2,2.86E-2,3.56E0,3.0466E2,3.0464E2,2.3666666E-1,4.09E-2,2.3E1,-2.8710617E-2,-2.1225384E-1,2.1199882E0,1.4488092E-1,-9.745899E-2,-2.6095006E-1,4.9666414E-1,3.981572E-2,7.202449E-2,-1.7123961E-1,-7.7734396E-2,4.6951565E-1,4.8634192E-1,1.1139694E0,1.5260652E-5,1.4838557E0],"split_indices":[6,7,3,10,4,6,5,4,5,0,4,4,9,5,3,0,0,0,0,0,0,0,0,0,0,0,0,0,0,0,0],"split_type":[0,0,0,0,0,0,0,0,0,0,0,0,0,0,0,0,0,0,0,0,0,0,0,0,0,0,0,0,0,0,0],"sum_hessian":[1.8518E4,1.7223E4,1.295E3,1.4972E4,2.251E3,8.11E2,4.84E2,1.4965E4,7E0,2.62E2,1.989E3,5.31E2,2.8E2,3.55E2,1.29E2,1.4597E4,3.68E2,4E0,3E0,5.4E1,2.08E2,4.54E2,1.535E3,2.51E2,2.8E2,1.34E2,1.46E2,2.65E2,9E1,1.27E2,2E0],"tree_param":{"num_deleted":"0","num_feature":"11","num_nodes":"31","size_leaf_vector":"1"}},{"base_weights":[5.1528397E-3,-4.0812305E-1,2.7468085E0,-6.037038E-1,2.35799E0,6.308279E0,3.3652198E-2,-1.2260679E0,-8.654735E-2,1.7714316E-1,6.493391E0,3.382772E0,1.3433507E1,-7.1421504E-1,5.3166347E0,-1.2128933E-1,-3.2743942E-2,9.051604E-2,-5.8232952E-2,-8.202247E-3,1.1816586E0,4.738368E-1,-1.0740757E-1,6.7935795E-1,6.1187863E-2,-1.1869281E-1,9.4847965E-1,-3.113342E-3,-4.0489456E-1,1.3006042E-3,1.7410516E0],"categories":[],"categories_nodes":[],"categories_segments":[],"categories_sizes":[],"default_left":[0,0,0,0,0,0,0,0,0,0,0,0,0,0,0,0,0,0,0,0,0,0,0,0,0,0,0,0,0,0,0],"id":29,"left_children":[1,3,5,7,9,11,13,15,17,19,21,23,25,27,29,-1,-1,-1,-1,-1,-1,-1,-1,-1,-1,-1,-1,-1,-1,-1,-1],"loss_changes":[2.0984262E4,8.708253E3,2.34418E4,4.8380874E3,9.585703E3,2.1820867E4,5.4482334E3,4.673298E3,1.6793896E4,5.5819106E3,9.481875E3,1.6396781E4,2.673586E4,5.8145356E3,2.6691615E4,0E0,0E0,0E0,0E0,0E0,0E0,0E0,0E0,0E0,0E0,0E0,0E0,0E0,0E0,0E0,0E0],"parents":[2147483647,0,0,1,1,2,2,3,3,4,4,5,5,6,6,7,7,8,8,9,9,10,10,11,11,12,12,13,13,14,14],"right_children":[2,4,6,8,10,12,14,16,18,20,22,24,26,28,30,-1,-1,-1,-1,-1,-1,-1,-1,-1,-1,-1,-1,-1,-1,-1,-1],"split_conditions":[2.28E0,1.25E1,5.02E-2,5.2E0,8.6666666E-2,1.4E1,3.0667E2,4.42E-2,4.52E-2,3.0705E2,4.52E-2,2.66E0,3.0377E2,1.69E0,1.537E1,-1.2128933E-1,-3.2743942E-2,9.051604E-2,-5.8232952E-2,-8.202247E-3,1.1816586E0,4.738368E-1,-1.0740757E-1,6.7935795E-1,6.1187863E-2,-1.1869281E-1,9.4847965E-1,-3.113342E-3,-4.0489456E-1,1.3006042E-3,1.7410516E0],"split_indices":[10,6,5,6,8,3,4,5,5,4,5,0,4,9,0,0,0,0,0,0,0,0,0,0,0,0,0,0,0,0,0],"split_type":[0,0,0,0,0,0,0,0,0,0,0,0,0,0,0,0,0,0,0,0,0,0,0,0,0,0,0,0,0,0,0],"sum_hessian":[1.8518E4,1.6093E4,2.425E3,1.5031E4,1.062E3,1.048E3,1.377E3,6.821E3,8.21E3,6.96E2,3.66E2,7.44E2,3.04E2,1.207E3,1.7E2,2.199E3,4.622E3,2.975E3,5.235E3,6.87E2,9E0,2.72E2,9.4E1,1.29E2,6.15E2,7.9E1,2.25E2,1.11E3,9.7E1,1.45E2,2.5E1],"tree_param":{"num_deleted":"0","num_feature":"11","num_nodes":"31","size_leaf_vector":"1"}},{"base_weights":[5.1286425E-3,-3.817511E-1,2.7416177E0,5.975438E-1,-9.686534E-1,9.8902804E-1,6.334043E0,1.9882567E-1,1.2568244E1,-8.5016423E-1,-3.6768486E0,3.1257437E1,7.1141577E-1,1.018514E1,-1.1230688E0,-1.4140486E-2,5.528972E-1,-5.750817E-1,9.6037215E-1,-4.8916914E-2,5.6947786E-2,-8.532232E-2,-1.973484E-1,2.0640404E0,-2.060596E-1,7.5876325E-1,6.559969E-3,-2.2302292E-1,6.787981E-1,1.0044006E0,-1.1219855E-1],"categories":[],"categories_nodes":[],"categories_segments":[],"categories_sizes":[],"default_left":[0,0,0,0,0,0,0,0,0,0,0,0,0,0,0,0,0,0,0,0,0,0,0,0,0,0,0,0,0,0,0],"id":30,"left_children":[1,3,5,7,9,11,13,15,17,19,21,23,25,27,29,-1,-1,-1,-1,-1,-1,-1,-1,-1,-1,-1,-1,-1,-1,-1,-1],"loss_changes":[1.9606965E4,9.326479E3,1.4436869E4,2.902172E4,3.2526426E3,1.2943408E4,2.1607418E4,3.0787705E4,3.1542635E4,2.4797725E3,2.1946875E2,5.134711E3,1.2838019E4,2.469221E4,6.155392E3,0E0,0E0,0E0,0E0,0E0,0E0,0E0,0E0,0E0,0E0,0E0,0E0,0E0,0E0,0E0,0E0],"parents":[2147483647,0,0,1,1,2,2,3,3,4,4,5,5,6,6,7,7,8,8,9,9,10,10,11,11,12,12,13,13,14,14],"right_children":[2,4,6,8,10,12,14,16,18,20,22,24,26,28,30,-1,-1,-1,-1,-1,-1,-1,-1,-1,-1,-1,-1,-1,-1,-1,-1],"split_conditions":[2.42E0,4.52E-2,1.4E1,3.0765E2,3.0765E2,4.1333333E-1,7.62E-2,4.44E-2,3.51E-2,1.38E0,1.33E0,1.55E1,-1.5E0,3.0367E2,-1.01E0,-1.4140486E-2,5.528972E-1,-5.750817E-1,9.6037215E-1,-4.8916914E-2,5.6947786E-2,-8.532232E-2,-1.973484E-1,2.0640404E0,-2.060596E-1,7.5876325E-1,6.559969E-3,-2.2302292E-1,6.787981E-1,1.0044006E0,-1.1219855E-1],"split_indices":[1,5,3,4,4,8,5,5,5,2,3,6,2,4,9,0,0,0,0,0,0,0,0,0,0,0,0,0,0,0,0],"split_type":[0,0,0,0,0,0,0,0,0,0,0,0,0,0,0,0,0,0,0,0,0,0,0,0,0,0,0,0,0,0,0],"sum_hessian":[1.8518E4,1.6225E4,2.293E3,6.08E3,1.0145E4,1.542E3,7.51E2,5.885E3,1.95E2,9.721E3,4.24E2,1.3E1,1.529E3,4.95E2,2.56E2,5.636E3,2.49E2,4.2E1,1.53E2,9.133E3,5.88E2,5.2E1,3.72E2,1E1,3E0,5.8E1,1.471E3,9.3E1,4.02E2,1.2E1,2.44E2],"tree_param":{"num_deleted":"0","num_feature":"11","num_nodes":"31","size_leaf_vector":"1"}},{"base_weights":[5.121694E-3,-2.6853454E-1,3.6420429E0,-4.4538116E-1,3.3866332E0,5.689784E-1,8.77954E0,-2.391524E0,-2.3073487E-1,5.0841246E0,-5.2562556E0,-1.1481271E0,3.8178437E0,1.1628181E1,4.824295E-1,-1.7037682E-1,-3.8298924E-2,5.372132E-2,-4.436011E-2,2.9674446E-2,5.081487E-1,-4.1024733E-1,6.8553984E-1,6.2459987E-2,-1.6469786E-1,-8.0877244E-2,4.3917775E-1,1.4424096E-1,7.17599E-1,-6.901386E-2,4.8864946E-1],"categories":[],"categories_nodes":[],"categories_segments":[],"categories_sizes":[],"default_left":[0,0,0,0,0,0,0,0,0,0,0,0,0,0,0,0,0,0,0,0,0,0,0,0,0,0,0,0,0,0,0],"id":31,"left_children":[1,3,5,7,9,11,13,15,17,19,21,23,25,27,29,-1,-1,-1,-1,-1,-1,-1,-1,-1,-1,-1,-1,-1,-1,-1,-1],"loss_changes":[1.8432312E4,1.1135172E4,2.0456074E4,6.862791E3,1.1690351E4,4.534242E3,1.1457605E4,2.6927598E3,1.2680672E4,1.5160799E4,7.43906E3,2.740859E3,7.5985596E3,8.555863E3,2.176688E3,0E0,0E0,0E0,0E0,0E0,0E0,0E0,0E0,0E0,0E0,0E0,0E0,0E0,0E0,0E0,0E0],"parents":[2147483647,0,0,1,1,2,2,3,3,4,4,5,5,6,6,7,7,8,8,9,9,10,10,11,11,12,12,13,13,14,14],"right_children":[2,4,6,8,10,12,14,16,18,20,22,24,26,28,30,-1,-1,-1,-1,-1,-1,-1,-1,-1,-1,-1,-1,-1,-1,-1,-1],"split_conditions":[1.25E1,4.33E0,7.33E0,3.0356E2,1.66E0,1.6E1,5.25E-2,6.42E-2,4.57E-2,1.2E1,3.0677E2,3.0464E2,2.3666666E-1,8.6666666E-2,1.47E0,-1.7037682E-1,-3.8298924E-2,5.372132E-2,-4.436011E-2,2.9674446E-2,5.081487E-1,-4.1024733E-1,6.8553984E-1,6.2459987E-2,-1.6469786E-1,-8.0877244E-2,4.3917775E-1,1.4424096E-1,7.17599E-1,-6.901386E-2,4.8864946E-1],"split_indices":[6,8,3,4,2,6,5,5,5,3,4,4,9,8,2,0,0,0,0,0,0,0,0,0,0,0,0,0,0,0,0],"split_type":[0,0,0,0,0,0,0,0,0,0,0,0,0,0,0,0,0,0,0,0,0,0,0,0,0,0,0,0,0,0,0],"sum_hessian":[1.8518E4,1.7223E4,1.295E3,1.6429E4,7.94E2,8.11E2,4.84E2,1.631E3,1.4798E4,6.64E2,1.3E2,5.31E2,2.8E2,3.6E2,1.24E2,1.003E3,6.28E2,4.952E3,9.846E3,3.53E2,3.11E2,1.13E2,1.7E1,2.51E2,2.8E2,1.34E2,1.46E2,8.6E1,2.74E2,1.04E2,2E1],"tree_param":{"num_deleted":"0","num_feature":"11","num_nodes":"31","size_leaf_vector":"1"}},{"base_weights":[4.9817776E-3,-3.5308498E-1,2.5376697E0,-4.349744E-1,5.525443E0,-4.547708E0,3.3447213E0,1.27332E0,-6.9704735E-1,-2.9416677E-1,1.1724974E1,5.451073E-1,-4.998211E0,8.897608E0,1.3262826E0,-1.2016453E-1,2.8637272E-1,-4.088779E-2,1.0234028E-1,1.3369624E-1,-3.228466E-1,-1.209469E-1,8.119564E-1,-1.5875624E-1,3.9538497E-1,-2.6928803E-1,-5.7153422E-2,8.476733E-2,7.121238E-1,-7.3984824E-2,2.0634015E-1],"categories":[],"categories_nodes":[],"categories_segments":[],"categories_sizes":[],"default_left":[0,0,0,0,0,0,0,0,0,0,0,0,0,0,0,0,0,0,0,0,0,0,0,0,0,0,0,0,0,0,0],"id":32,"left_children":[1,3,5,7,9,11,13,15,17,19,21,23,25,27,29,-1,-1,-1,-1,-1,-1,-1,-1,-1,-1,-1,-1,-1,-1,-1,-1],"loss_changes":[1.6795246E4,7.8134277E3,1.313291E4,7.165841E3,8.0490317E3,5.418911E2,2.307701E4,3.487852E4,4.597492E3,2.139097E3,6.9348447E3,5.7291895E2,3.1656055E2,2.1109688E4,1.1887707E4,0E0,0E0,0E0,0E0,0E0,0E0,0E0,0E0,0E0,0E0,0E0,0E0,0E0,0E0,0E0,0E0],"parents":[2147483647,0,0,1,1,2,2,3,3,4,4,5,5,6,6,7,7,8,8,9,9,10,10,11,11,12,12,13,13,14,14],"right_children":[2,4,6,8,10,12,14,16,18,20,22,24,26,28,30,-1,-1,-1,-1,-1,-1,-1,-1,-1,-1,-1,-1,-1,-1,-1,-1],"split_conditions":[2.42E0,1.76E1,3.0356E2,2.91E-2,3.047E2,1E0,3.0466E2,2.73E-2,3.0765E2,2.14E0,-1E-2,3.033E2,1.65E1,8.2E0,6.07E0,-1.2016453E-1,2.8637272E-1,-4.088779E-2,1.0234028E-1,1.3369624E-1,-3.228466E-1,-1.209469E-1,8.119564E-1,-1.5875624E-1,3.9538497E-1,-2.6928803E-1,-5.7153422E-2,8.476733E-2,7.121238E-1,-7.3984824E-2,2.0634015E-1],"split_indices":[1,6,4,5,4,8,4,5,4,0,9,4,1,6,0,0,0,0,0,0,0,0,0,0,0,0,0,0,0,0,0],"split_type":[0,0,0,0,0,0,0,0,0,0,0,0,0,0,0,0,0,0,0,0,0,0,0,0,0,0,0,0,0,0,0],"sum_hessian":[1.8518E4,1.6225E4,2.293E3,1.6003E4,2.22E2,2.34E2,2.059E3,2.128E3,1.3875E4,1.15E2,1.07E2,1.9E1,2.15E2,5.48E2,1.511E3,1.166E3,9.62E2,1.3291E4,5.84E2,7.8E1,3.7E1,2.6E1,8.1E1,1.3E1,6E0,1.95E2,2E1,2.34E2,3.14E2,7.55E2,7.56E2],"tree_param":{"num_deleted":"0","num_feature":"11","num_nodes":"31","size_leaf_vector":"1"}},{"base_weights":[4.817414E-3,-3.5318556E-1,2.3563406E0,-4.308236E-1,5.628917E0,5.7276597E0,-1.9015054E-1,1.0606943E0,-6.693303E-1,-3.6103737E0,1.0308636E1,-4.8535523E0,7.770309E0,-1.0720135E0,5.583504E0,-1.2185409E-1,2.6714852E-1,-4.4906903E-2,4.42E-2,7.145163E-2,-2.8273585E-1,6.222958E-1,-9.039709E-1,-2.6464006E-1,5.3940254E-1,7.7872604E-1,7.5396754E-2,-2.5380779E-2,-4.4183093E-1,8.656136E-1,-2.1712612E-1],"categories":[],"categories_nodes":[],"categories_segments":[],"categories_sizes":[],"default_left":[0,0,0,0,0,0,0,0,0,0,0,0,0,0,0,0,0,0,0,0,0,0,0,0,0,0,0,0,0,0,0],"id":33,"left_children":[1,3,5,7,9,11,13,15,17,19,21,23,25,27,29,-1,-1,-1,-1,-1,-1,-1,-1,-1,-1,-1,-1,-1,-1,-1,-1],"loss_changes":[1.5591096E4,7.467346E3,2.1008664E4,5.645546E3,8.944098E3,2.279695E4,7.108729E3,3.2785855E4,4.863212E3,7.2924005E2,8.537248E3,1.2319626E3,4.3131285E4,5.302512E3,2.161289E4,0E0,0E0,0E0,0E0,0E0,0E0,0E0,0E0,0E0,0E0,0E0,0E0,0E0,0E0,0E0,0E0],"parents":[2147483647,0,0,1,1,2,2,3,3,4,4,5,5,6,6,7,7,8,8,9,9,10,10,11,11,12,12,13,13,14,14],"right_children":[2,4,6,8,10,12,14,16,18,20,22,24,26,28,30,-1,-1,-1,-1,-1,-1,-1,-1,-1,-1,-1,-1,-1,-1,-1,-1],"split_conditions":[2.05E0,1.76E1,5.02E-2,2.91E-2,3.0458E2,3.0373E2,3.0667E2,2.73E-2,3.0632E2,2.86E-2,8.5E0,4.28E-2,3.047E2,1.141E1,3.0705E2,-1.2185409E-1,2.6714852E-1,-4.4906903E-2,4.42E-2,7.145163E-2,-2.8273585E-1,6.222958E-1,-9.039709E-1,-2.6464006E-1,5.3940254E-1,7.7872604E-1,7.5396754E-2,-2.5380779E-2,-4.4183093E-1,8.656136E-1,-2.1712612E-1],"split_indices":[8,6,5,5,4,4,4,5,4,5,3,5,4,1,4,0,0,0,0,0,0,0,0,0,0,0,0,0,0,0,0],"split_type":[0,0,0,0,0,0,0,0,0,0,0,0,0,0,0,0,0,0,0,0,0,0,0,0,0,0,0,0,0,0,0],"sum_hessian":[1.8518E4,1.6072E4,2.446E3,1.5867E4,2.05E2,1.052E3,1.394E3,2.187E3,1.368E4,6.9E1,1.36E2,1.7E2,8.82E2,1.21E3,1.84E2,1.204E3,9.83E2,1.1924E4,1.756E3,2E1,4.9E1,1.27E2,9E0,1.66E2,4E0,3.92E2,4.9E2,1.129E3,8.1E1,8.4E1,1E2],"tree_param":{"num_deleted":"0","num_feature":"11","num_nodes":"31","size_leaf_vector":"1"}},{"base_weights":[4.6284785E-3,-2.3584037E-1,3.2004857E0,-3.28446E-1,5.5153923E0,3.7831956E-1,7.918833E0,-2.1831413E-1,-4.4132295E0,9.439417E0,-7.4464903E0,1.580863E0,-3.3587642E0,9.816738E-1,1.07028885E1,-1.472673E-2,7.718621E-1,-8.716772E-1,-2.0826697E-1,8.276513E-2,9.332905E-1,-4.9238244E-1,5.2962863E-1,3.386427E-2,3.807536E-1,-2.0389466E-1,-1.6118392E-2,1.3065037E0,-6.826611E-2,7.7374107E-1,2.5294E-1],"categories":[],"categories_nodes":[],"categories_segments":[],"categories_sizes":[],"default_left":[0,0,0,0,0,0,0,0,0,0,0,0,0,0,0,0,0,0,0,0,0,0,0,0,0,0,0,0,0,0,0],"id":34,"left_children":[1,3,5,7,9,11,13,15,17,19,21,23,25,27,29,-1,-1,-1,-1,-1,-1,-1,-1,-1,-1,-1,-1,-1,-1,-1,-1],"loss_changes":[1.4232683E4,9.175255E3,1.7254488E4,7.625146E3,1.3955821E4,3.6544421E3,9.35651E3,1.9703113E4,1.363668E3,1.505115E4,2.8764487E3,3.348054E3,4.3103076E2,8.298922E3,9.240609E3,0E0,0E0,0E0,0E0,0E0,0E0,0E0,0E0,0E0,0E0,0E0,0E0,0E0,0E0,0E0,0E0],"parents":[2147483647,0,0,1,1,2,2,3,3,4,4,5,5,6,6,7,7,8,8,9,9,10,10,11,11,12,12,13,13,14,14],"right_children":[2,4,6,8,10,12,14,16,18,20,22,24,26,28,30,-1,-1,-1,-1,-1,-1,-1,-1,-1,-1,-1,-1,-1,-1,-1,-1],"split_conditions":[1.25E1,6.96E0,7.33E0,3.082E2,1.49E0,3.0537E2,8.6666666E-2,3.0814E2,3.32E-2,7.8E-1,3.0621E2,4.11E0,3.063E2,7.67E0,3.2E-1,-1.472673E-2,7.718621E-1,-8.716772E-1,-2.0826697E-1,8.276513E-2,9.332905E-1,-4.9238244E-1,5.2962863E-1,3.386427E-2,3.807536E-1,-2.0389466E-1,-1.6118392E-2,1.3065037E0,-6.826611E-2,7.7374107E-1,2.5294E-1],"split_indices":[6,8,3,4,2,4,8,4,5,9,4,0,4,3,2,0,0,0,0,0,0,0,0,0,0,0,0,0,0,0,0],"split_type":[0,0,0,0,0,0,0,0,0,0,0,0,0,0,0,0,0,0,0,0,0,0,0,0,0,0,0,0,0,0,0],"sum_hessian":[1.8518E4,1.7223E4,1.295E3,1.6951E4,2.72E2,8.11E2,4.84E2,1.6507E4,4.44E2,2.09E2,6.3E1,6.14E2,1.97E2,1.39E2,3.45E2,1.6428E4,7.9E1,7E0,4.37E2,1.14E2,9.5E1,5.6E1,7E0,5.35E2,7.9E1,1.59E2,3.8E1,1.1E1,1.28E2,1.86E2,1.59E2],"tree_param":{"num_deleted":"0","num_feature":"11","num_nodes":"31","size_leaf_vector":"1"}},{"base_weights":[4.569224E-3,-3.293472E-1,2.1916995E0,-4.0275243E-1,4.935732E0,6.2023187E-1,5.574203E0,1.1589123E0,-6.4205265E-1,6.555757E0,-1.2632733E1,1.3695471E1,1.3468172E-1,9.197157E0,-1.2377338E0,-5.2743386E-2,3.7119076E-1,-3.802172E-2,1.02770925E-1,-5.8721337E-3,6.155852E-1,-3.5874936E-1,-8.413603E-1,1.1008207E0,-2.0236163E-1,1.0150981E0,-5.2519366E-3,-2.0304835E-1,6.148143E-1,-1.2231556E-1,7.026115E-1],"categories":[],"categories_nodes":[],"categories_segments":[],"categories_sizes":[],"default_left":[0,0,0,0,0,0,0,0,0,0,0,0,0,0,0,0,0,0,0,0,0,0,0,0,0,0,0,0,0,0,0],"id":35,"left_children":[1,3,5,7,9,11,13,15,17,19,21,23,25,27,29,-1,-1,-1,-1,-1,-1,-1,-1,-1,-1,-1,-1,-1,-1,-1,-1],"loss_changes":[1.3525492E4,6.211634E3,1.3035452E4,5.922874E3,6.3727783E3,1.063855E4,1.9211904E4,2.9216191E4,4.389816E3,7.798794E3,3.1421973E2,8.947266E3,7.8195337E3,2.092296E4,5.042214E3,0E0,0E0,0E0,0E0,0E0,0E0,0E0,0E0,0E0,0E0,0E0,0E0,0E0,0E0,0E0,0E0],"parents":[2147483647,0,0,1,1,2,2,3,3,4,4,5,5,6,6,7,7,8,8,9,9,10,10,11,11,12,12,13,13,14,14],"right_children":[2,4,6,8,10,12,14,16,18,20,22,24,26,28,30,-1,-1,-1,-1,-1,-1,-1,-1,-1,-1,-1,-1,-1,-1,-1,-1],"split_conditions":[2.28E0,1.76E1,1.4E1,2.91E-2,5.45E0,-1.5E0,7.62E-2,2.79E-2,3.0765E2,2.2E-1,1.05E1,3.0475E2,4.1333333E-1,3.0367E2,1.185E1,-5.2743386E-2,3.7119076E-1,-3.802172E-2,1.02770925E-1,-5.8721337E-3,6.155852E-1,-3.5874936E-1,-8.413603E-1,1.1008207E0,-2.0236163E-1,1.0150981E0,-5.2519366E-3,-2.0304835E-1,6.148143E-1,-1.2231556E-1,7.026115E-1],"split_indices":[1,6,3,5,0,2,5,5,4,9,3,4,8,4,6,0,0,0,0,0,0,0,0,0,0,0,0,0,0,0,0],"split_type":[0,0,0,0,0,0,0,0,0,0,0,0,0,0,0,0,0,0,0,0,0,0,0,0,0,0,0,0,0,0,0],"sum_hessian":[1.8518E4,1.6066E4,2.452E3,1.5846E4,2.2E2,1.675E3,7.77E2,2.105E3,1.3741E4,2.02E2,1.8E1,5.9E1,1.616E3,5.07E2,2.7E2,1.556E3,5.49E2,1.3164E4,5.77E2,9.4E1,1.08E2,9E0,9E0,4E1,1.9E1,1.8E1,1.598E3,9.6E1,4.11E2,2.51E2,1.9E1],"tree_param":{"num_deleted":"0","num_feature":"11","num_nodes":"31","size_leaf_vector":"1"}},{"base_weights":[4.4861957E-3,-1.2875748E-1,5.0993533E0,-1.731597E-1,1.3889028E1,1.5758697E1,2.191576E0,7.9036146E-1,-7.475134E-1,-9.7004795E0,1.9740877E1,6.9662476E0,3.449972E1,-1.3525195E-1,1.27858715E1,1.614174E-2,5.7511973E-1,-3.057963E-2,-2.050242E-1,-1.1750897E-1,-8.329542E-1,-6.050491E-2,1.0615357E0,-8.107873E-2,9.235365E-1,2.0323513E0,-3.4125647E-1,1.470282E-1,-5.2735764E-1,1.2647518E0,-3.9565024E-1],"categories":[],"categories_nodes":[],"categories_segments":[],"categories_sizes":[],"default_left":[0,0,0,0,0,0,0,0,0,0,0,0,0,0,0,0,0,0,0,0,0,0,0,0,0,0,0,0,0,0,0],"id":36,"left_children":[1,3,5,7,9,11,13,15,17,19,21,23,25,27,29,-1,-1,-1,-1,-1,-1,-1,-1,-1,-1,-1,-1,-1,-1,-1,-1],"loss_changes":[1.2572441E4,1.1235858E4,1.4595104E4,9.957398E3,8.0599023E3,1.6402396E4,9.171939E3,3.3651133E4,5.1350303E3,5.746221E2,1.4615156E3,6.945843E3,8.406586E3,9.83069E3,1.7548178E4,0E0,0E0,0E0,0E0,0E0,0E0,0E0,0E0,0E0,0E0,0E0,0E0,0E0,0E0,0E0,0E0],"parents":[2147483647,0,0,1,1,2,2,3,3,4,4,5,5,6,6,7,7,8,8,9,9,10,10,11,11,12,12,13,13,14,14],"right_children":[2,4,6,8,10,12,14,16,18,20,22,24,26,28,30,-1,-1,-1,-1,-1,-1,-1,-1,-1,-1,-1,-1,-1,-1,-1,-1],"split_conditions":[1.176E1,2.1E1,1.235E1,4.52E-2,3.0377E2,1.15E1,3.0667E2,4.44E-2,3.0814E2,5.5E0,6E-2,2.8933334E0,1.5266666E0,1.449E1,3.078E2,1.614174E-2,5.7511973E-1,-3.057963E-2,-2.050242E-1,-1.1750897E-1,-8.329542E-1,-6.050491E-2,1.0615357E0,-8.107873E-2,9.235365E-1,2.0323513E0,-3.4125647E-1,1.470282E-1,-5.2735764E-1,1.2647518E0,-3.9565024E-1],"split_indices":[0,6,0,5,4,6,4,5,4,3,2,7,9,1,4,0,0,0,0,0,0,0,0,0,0,0,0,0,0,0,0],"split_type":[0,0,0,0,0,0,0,0,0,0,0,0,0,0,0,0,0,0,0,0,0,0,0,0,0,0,0,0,0,0,0],"sum_hessian":[1.8518E4,1.8047E4,4.71E2,1.7991E4,5.6E1,1E2,3.71E2,6.719E3,1.1272E4,1.1E1,4.5E1,6.9E1,3.1E1,3.05E2,6.6E1,6.439E3,2.8E2,1.0834E4,4.38E2,6E0,5E0,3E0,4.2E1,4E1,2.9E1,2.7E1,4E0,2.36E2,6.9E1,4.1E1,2.5E1],"tree_param":{"num_deleted":"0","num_feature":"11","num_nodes":"31","size_leaf_vector":"1"}},{"base_weights":[4.446948E-3,-3.0819824E-1,2.05804E0,-9.9558854E-1,2.0231038E-1,5.0700507E0,-2.1701778E-1,-2.3750627E0,-3.3496487E-1,3.8392284E0,-3.1978625E-1,-4.298777E0,7.032652E0,-1.0297667E0,5.1043653E0,-1.4569195E-1,-3.0285487E-2,-6.8319845E-3,-1.9205457E-1,-1.4048313E-1,3.9964488E-1,-2.8543277E-2,3.219805E-1,4.1858727E-1,-2.4629198E-1,7.2501194E-1,6.1186235E-2,-2.5684852E-2,-4.06445E-1,7.8854686E-1,-1.9614951E-1],"categories":[],"categories_nodes":[],"categories_segments":[],"categories_sizes":[],"default_left":[0,0,0,0,0,0,0,0,0,0,0,0,0,0,0,0,0,0,0,0,0,0,0,0,0,0,0,0,0,0,0],"id":37,"left_children":[1,3,5,7,9,11,13,15,17,19,21,23,25,27,29,-1,-1,-1,-1,-1,-1,-1,-1,-1,-1,-1,-1,-1,-1,-1,-1],"loss_changes":[1.1890685E4,5.6405176E3,1.6769162E4,6.2417E3,1.7515969E4,1.9392031E4,6.038559E3,2.112621E3,3.2210466E3,3.200328E4,1.3694541E4,1.4952112E3,3.776507E4,4.4325E3,1.7875691E4,0E0,0E0,0E0,0E0,0E0,0E0,0E0,0E0,0E0,0E0,0E0,0E0,0E0,0E0,0E0,0E0],"parents":[2147483647,0,0,1,1,2,2,3,3,4,4,5,5,6,6,7,7,8,8,9,9,10,10,11,11,12,12,13,13,14,14],"right_children":[2,4,6,8,10,12,14,16,18,20,22,24,26,28,30,-1,-1,-1,-1,-1,-1,-1,-1,-1,-1,-1,-1,-1,-1,-1,-1],"split_conditions":[2.05E0,5.2E0,5.02E-2,4.42E-2,2.91E-2,3.0377E2,3.0667E2,4.1E0,3.0765E2,2.73E-2,3.0765E2,-4E-1,3.047E2,1.141E1,3.0705E2,-1.4569195E-1,-3.0285487E-2,-6.8319845E-3,-1.9205457E-1,-1.4048313E-1,3.9964488E-1,-2.8543277E-2,3.219805E-1,4.1858727E-1,-2.4629198E-1,7.2501194E-1,6.1186235E-2,-2.5684852E-2,-4.06445E-1,7.8854686E-1,-1.9614951E-1],"split_indices":[8,6,5,5,5,4,4,6,4,5,4,2,4,1,4,0,0,0,0,0,0,0,0,0,0,0,0,0,0,0,0],"split_type":[0,0,0,0,0,0,0,0,0,0,0,0,0,0,0,0,0,0,0,0,0,0,0,0,0,0,0,0,0,0,0],"sum_hessian":[1.8518E4,1.6072E4,2.446E3,6.849E3,9.223E3,1.052E3,1.394E3,2.217E3,4.632E3,1.157E3,8.066E3,1.82E2,8.7E2,1.21E3,1.84E2,1.699E3,5.18E2,4.385E3,2.47E2,4.45E2,7.12E2,7.778E3,2.88E2,8E0,1.74E2,3.8E2,4.9E2,1.129E3,8.1E1,8.4E1,1E2],"tree_param":{"num_deleted":"0","num_feature":"11","num_nodes":"31","size_leaf_vector":"1"}},{"base_weights":[4.2945957E-3,-1.3612548E-1,4.2567387E0,-1.7733024E-1,1.2785764E1,6.208423E0,-2.9380784E0,6.932972E-1,-6.9852275E-1,-9.177768E0,1.8237429E1,4.7566094E0,3.529245E1,-7.711225E0,1.6844809E1,1.2239477E-2,5.4633504E-1,-2.8577624E-2,-1.9280867E-1,-1.1124958E-1,-7.8798556E-1,5.277936E-1,1.1399289E0,-3.8574394E-2,4.719598E-1,1.9133581E0,-6.7941386E-1,2.0033076E-1,-6.646294E-1,1.8205283E0,-5.6835574E-1],"categories":[],"categories_nodes":[],"categories_segments":[],"categories_sizes":[],"default_left":[0,0,0,0,0,0,0,0,0,0,0,0,0,0,0,0,0,0,0,0,0,0,0,0,0,0,0,0,0,0,0],"id":38,"left_children":[1,3,5,7,9,11,13,15,17,19,21,23,25,27,29,-1,-1,-1,-1,-1,-1,-1,-1,-1,-1,-1,-1,-1,-1,-1,-1],"loss_changes":[1.1058801E4,9.547913E3,8.331112E3,8.110164E3,6.9924346E3,1.9508783E4,1.2122075E4,3.0716588E4,4.480169E3,5.140882E2,1.3710312E3,1.1526462E4,3.7189219E3,6.789614E3,1.4213574E4,0E0,0E0,0E0,0E0,0E0,0E0,0E0,0E0,0E0,0E0,0E0,0E0,0E0,0E0,0E0,0E0],"parents":[2147483647,0,0,1,1,2,2,3,3,4,4,5,5,6,6,7,7,8,8,9,9,10,10,11,11,12,12,13,13,14,14],"right_children":[2,4,6,8,10,12,14,16,18,20,22,24,26,28,30,-1,-1,-1,-1,-1,-1,-1,-1,-1,-1,-1,-1,-1,-1,-1,-1],"split_conditions":[1.099E1,2.1E1,1.141E1,4.52E-2,3.0377E2,1.04E1,3.0667E2,4.44E-2,3.0814E2,5.5E0,1.24E0,7.9E-1,1.12E1,3.0432E2,3.078E2,1.2239477E-2,5.4633504E-1,-2.8577624E-2,-1.9280867E-1,-1.1124958E-1,-7.8798556E-1,5.277936E-1,1.1399289E0,-3.8574394E-2,4.719598E-1,1.9133581E0,-6.7941386E-1,2.0033076E-1,-6.646294E-1,1.8205283E0,-5.6835574E-1],"split_indices":[0,6,1,5,4,8,4,5,4,3,1,2,6,4,4,0,0,0,0,0,0,0,0,0,0,0,0,0,0,0,0],"split_type":[0,0,0,0,0,0,0,0,0,0,0,0,0,0,0,0,0,0,0,0,0,0,0,0,0,0,0,0,0,0,0],"sum_hessian":[1.8518E4,1.7927E4,5.91E2,1.7871E4,5.6E1,4.65E2,1.26E2,6.692E3,1.1179E4,1.1E1,4.5E1,4.44E2,2.1E1,1.02E2,2.4E1,6.412E3,2.8E2,1.0748E4,4.31E2,6E0,5E0,1.8E1,2.7E1,2.04E2,2.4E2,2E1,1E0,3.3E1,6.9E1,1.4E1,1E1],"tree_param":{"num_deleted":"0","num_feature":"11","num_nodes":"31","size_leaf_vector":"1"}},{"base_weights":[4.272114E-3,-2.9093537E-1,1.9378613E0,-5.303192E-1,1.0028456E0,5.213251E-1,4.986932E0,-1.6404616E0,-3.2546678E-1,4.580144E0,2.6904386E-1,1.2635674E1,7.149069E-2,8.1874895E0,-1.0310386E0,-1.5525235E-1,-5.9153495E-4,1.3615277E-1,-3.0349497E-2,9.231042E-2,6.993647E-1,1.9757809E-4,5.5238086E-1,1.0199594E0,-1.9556575E-1,9.6144485E-1,-7.809525E-3,-1.9191931E-1,5.4994756E-1,8.4761065E-1,-1.0014389E-1],"categories":[],"categories_nodes":[],"categories_segments":[],"categories_sizes":[],"default_left":[0,0,0,0,0,0,0,0,0,0,0,0,0,0,0,0,0,0,0,0,0,0,0,0,0,0,0,0,0,0,0],"id":39,"left_children":[1,3,5,7,9,11,13,15,17,19,21,23,25,27,29,-1,-1,-1,-1,-1,-1,-1,-1,-1,-1,-1,-1,-1,-1,-1,-1],"loss_changes":[1.05713955E4,4.976647E3,1.0592199E4,3.0829912E3,6.584963E3,9.132377E3,1.4993393E4,5.0376504E3,9.826665E3,1.0955993E4,5.951747E3,7.7875566E3,7.056004E3,1.7217848E4,4.770174E3,0E0,0E0,0E0,0E0,0E0,0E0,0E0,0E0,0E0,0E0,0E0,0E0,0E0,0E0,0E0,0E0],"parents":[2147483647,0,0,1,1,2,2,3,3,4,4,5,5,6,6,7,7,8,8,9,9,10,10,11,11,12,12,13,13,14,14],"right_children":[2,4,6,8,10,12,14,16,18,20,22,24,26,28,30,-1,-1,-1,-1,-1,-1,-1,-1,-1,-1,-1,-1,-1,-1,-1,-1],"split_conditions":[2.28E0,1.005E1,1.4E1,2.7E0,2.91E-2,-1.5E0,7.62E-2,4.57E-2,2.91E-2,8.67E0,3.0765E2,3.0475E2,4.1333333E-1,3.0367E2,-1.01E0,-1.5525235E-1,-5.9153495E-4,1.3615277E-1,-3.0349497E-2,9.231042E-2,6.993647E-1,1.9757809E-4,5.5238086E-1,1.0199594E0,-1.9556575E-1,9.6144485E-1,-7.809525E-3,-1.9191931E-1,5.4994756E-1,8.4761065E-1,-1.0014389E-1],"split_indices":[1,6,3,6,5,2,5,5,5,3,4,4,8,4,9,0,0,0,0,0,0,0,0,0,0,0,0,0,0,0,0],"split_type":[0,0,0,0,0,0,0,0,0,0,0,0,0,0,0,0,0,0,0,0,0,0,0,0,0,0,0,0,0,0,0],"sum_hessian":[1.8518E4,1.6066E4,2.452E3,1.3558E4,2.508E3,1.675E3,7.77E2,2.111E3,1.1447E4,4.26E2,2.082E3,5.9E1,1.616E3,5.07E2,2.7E2,1.111E3,1E3,9.67E2,1.048E4,3.31E2,9.5E1,2.033E3,4.9E1,4E1,1.9E1,1.8E1,1.598E3,9.6E1,4.11E2,1.3E1,2.57E2],"tree_param":{"num_deleted":"0","num_feature":"11","num_nodes":"31","size_leaf_vector":"1"}},{"base_weights":[4.2841285E-3,-2.7683654E-1,1.8692272E0,-9.1352195E-1,1.9159272E-1,3.5788958E0,-1.2650192E0,-2.1263149E0,-3.3617863E-1,1.7154683E0,-8.341643E-1,1.0906531E0,7.5459433E0,-2.0373816E0,5.179488E0,-1.5202709E-1,-6.25804E-2,-3.3855475E-2,6.6962965E-2,6.828964E-1,6.178471E-2,-4.387116E-2,3.7106228E-1,7.362507E-1,6.963222E-3,-1.775739E-1,5.023341E-1,1.0207169E0,-1.13567136E-1,1.2797047E0,7.4807346E-2],"categories":[],"categories_nodes":[],"categories_segments":[],"categories_sizes":[],"default_left":[0,0,0,0,0,0,0,0,0,0,0,0,0,0,0,0,0,0,0,0,0,0,0,0,0,0,0,0,0,0,0],"id":40,"left_children":[1,3,5,7,9,11,13,15,17,19,21,23,25,27,29,-1,-1,-1,-1,-1,-1,-1,-1,-1,-1,-1,-1,-1,-1,-1,-1],"loss_changes":[9.709549E3,4.800083E3,1.3004303E4,4.776036E3,1.4496299E4,1.5489205E4,4.2762666E3,1.7554912E3,2.6416035E3,2.1360574E4,1.9860266E3,1.2528492E4,1.6825496E4,4.070033E3,6.8795522E3,0E0,0E0,0E0,0E0,0E0,0E0,0E0,0E0,0E0,0E0,0E0,0E0,0E0,0E0,0E0,0E0],"parents":[2147483647,0,0,1,1,2,2,3,3,4,4,5,5,6,6,7,7,8,8,9,9,10,10,11,11,12,12,13,13,14,14],"right_children":[2,4,6,8,10,12,14,16,18,20,22,24,26,28,30,-1,-1,-1,-1,-1,-1,-1,-1,-1,-1,-1,-1,-1,-1,-1,-1],"split_conditions":[2.28E0,5.2E0,6.86E-2,4.42E-2,4.52E-2,1.143E1,1.055E1,2.7E0,9.7E-1,6E0,2.7666667E0,-1.36E0,3.0367E2,1.1E0,3.0457E2,-1.5202709E-1,-6.25804E-2,-3.3855475E-2,6.6962965E-2,6.828964E-1,6.178471E-2,-4.387116E-2,3.7106228E-1,7.362507E-1,6.963222E-3,-1.775739E-1,5.023341E-1,1.0207169E0,-1.13567136E-1,1.2797047E0,7.4807346E-2],"split_indices":[10,6,5,5,5,3,6,6,1,6,7,2,4,6,4,0,0,0,0,0,0,0,0,0,0,0,0,0,0,0,0],"split_type":[0,0,0,0,0,0,0,0,0,0,0,0,0,0,0,0,0,0,0,0,0,0,0,0,0,0,0,0,0,0,0],"sum_hessian":[1.8518E4,1.6093E4,2.425E3,6.821E3,9.272E3,1.569E3,8.56E2,2.199E3,4.622E3,3.73E3,5.542E3,9.65E2,6.04E2,7.65E2,9.1E1,1.074E3,1.125E3,3.841E3,7.81E2,1.43E2,3.587E3,5.514E3,2.8E1,6.2E1,9.03E2,1.11E2,4.93E2,7E0,7.58E2,1.3E1,7.8E1],"tree_param":{"num_deleted":"0","num_feature":"11","num_nodes":"31","size_leaf_vector":"1"}},{"base_weights":[4.2977943E-3,-1.8141285E-1,2.621649E0,-2.0792522E0,2.3471568E-2,1.4857199E0,1.0645582E1,-3.2492197E0,-8.7584925E-1,1.2065015E0,-6.478132E-1,6.616288E-1,6.857856E0,1.6382343E1,-1.1379217E1,3.7153867E-1,-1.692282E-1,-1.2651134E-1,-1.27347475E-2,3.642935E-2,5.1685035E-1,-3.4499645E-2,1.5837972E0,7.411027E-2,-4.9052262E-1,-1.854945E-1,8.9657515E-1,5.375367E-2,1.0597888E0,-7.154732E-1,5.6507837E-2],"categories":[],"categories_nodes":[],"categories_segments":[],"categories_sizes":[],"default_left":[0,0,0,0,0,0,0,0,0,0,0,0,0,0,0,0,0,0,0,0,0,0,0,0,0,0,0,0,0,0,0],"id":41,"left_children":[1,3,5,7,9,11,13,15,17,19,21,23,25,27,29,-1,-1,-1,-1,-1,-1,-1,-1,-1,-1,-1,-1,-1,-1,-1,-1],"loss_changes":[9.002006E3,6.724219E3,1.116782E4,2.3695366E3,1.2396668E4,4.7590547E3,1.939177E4,1.2595879E3,8.543385E2,2.4651174E4,1.3600004E4,8.0405386E3,1.6800885E4,8.892553E3,1.1891494E3,0E0,0E0,0E0,0E0,0E0,0E0,0E0,0E0,0E0,0E0,0E0,0E0,0E0,0E0,0E0,0E0],"parents":[2147483647,0,0,1,1,2,2,3,3,4,4,5,5,6,6,7,7,8,8,9,9,10,10,11,11,12,12,13,13,14,14],"right_children":[2,4,6,8,10,12,14,16,18,20,22,24,26,28,30,-1,-1,-1,-1,-1,-1,-1,-1,-1,-1,-1,-1,-1,-1,-1,-1],"split_conditions":[8.49E0,3.0373E2,1.185E1,4.28E-2,4.52E-2,3.0667E2,1.27E1,-1.5933334E0,-4.3333333E-2,4.44E-2,7.52E0,1.449E1,4.13E0,1.375E1,4.57E-2,3.7153867E-1,-1.692282E-1,-1.2651134E-1,-1.27347475E-2,3.642935E-2,5.1685035E-1,-3.4499645E-2,1.5837972E0,7.411027E-2,-4.9052262E-1,-1.854945E-1,8.9657515E-1,5.375367E-2,1.0597888E0,-7.154732E-1,5.6507837E-2],"split_indices":[0,4,6,5,5,4,0,9,9,5,1,1,1,3,5,0,0,0,0,0,0,0,0,0,0,0,0,0,0,0,0],"split_type":[0,0,0,0,0,0,0,0,0,0,0,0,0,0,0,0,0,0,0,0,0,0,0,0,0,0,0,0,0,0,0],"sum_hessian":[1.8518E4,1.7292E4,1.226E3,1.684E3,1.5608E4,1.075E3,1.51E2,8.53E2,8.31E2,5.65E3,9.958E3,9.33E2,1.42E2,1.2E2,3.1E1,1E1,8.43E2,2.26E2,6.05E2,5.37E3,2.8E2,9.946E3,1.2E1,8.66E2,6.7E1,7.3E1,6.9E1,2.9E1,9.1E1,2.5E1,6E0],"tree_param":{"num_deleted":"0","num_feature":"11","num_nodes":"31","size_leaf_vector":"1"}},{"base_weights":[4.240307E-3,-1.04465045E-1,4.1608295E0,-2.0581174E-1,4.088345E0,1.3887626E1,1.5087669E0,-1.12914175E-1,-3.841891E0,2.0470703E0,1.1794666E1,6.00221E0,3.0702982E1,3.284633E1,8.177825E-1,-1.2465335E-2,4.2487702E-1,-7.2109854E-1,-1.7297184E-1,-1.2038373E-1,2.4389441E-1,1.7486273E0,4.2090335E-1,-8.909138E-2,8.2201606E-1,1.8171434E0,-3.5104832E-1,-2.370431E-1,1.9446598E0,-1.2074149E-1,3.3399633E-1],"categories":[],"categories_nodes":[],"categories_segments":[],"categories_sizes":[],"default_left":[0,0,0,0,0,0,0,0,0,0,0,0,0,0,0,0,0,0,0,0,0,0,0,0,0,0,0,0,0,0,0],"id":42,"left_children":[1,3,5,7,9,11,13,15,17,19,21,23,25,27,29,-1,-1,-1,-1,-1,-1,-1,-1,-1,-1,-1,-1,-1,-1,-1,-1],"loss_changes":[8.368124E3,7.669931E3,1.2154793E4,5.9523145E3,6.677142E3,1.3207918E4,8.02834E3,2.0184215E4,1.7264761E3,4.274117E3,6.670954E3,5.7168394E3,7.0634395E3,2.0026641E3,6.932895E3,0E0,0E0,0E0,0E0,0E0,0E0,0E0,0E0,0E0,0E0,0E0,0E0,0E0,0E0,0E0,0E0],"parents":[2147483647,0,0,1,1,2,2,3,3,4,4,5,5,6,6,7,7,8,8,9,9,10,10,11,11,12,12,13,13,14,14],"right_children":[2,4,6,8,10,12,14,16,18,20,22,24,26,28,30,-1,-1,-1,-1,-1,-1,-1,-1,-1,-1,-1,-1,-1,-1,-1,-1],"split_conditions":[1.176E1,1.6E1,1.235E1,3.082E2,1.2433333E0,1.15E1,8.25E0,3.0765E2,4.64E-2,3.0458E2,8.1E-1,2.8933334E0,1.5266666E0,-5E-1,1.13E0,-1.2465335E-2,4.2487702E-1,-7.2109854E-1,-1.7297184E-1,-1.2038373E-1,2.4389441E-1,1.7486273E0,4.2090335E-1,-8.909138E-2,8.2201606E-1,1.8171434E0,-3.5104832E-1,-2.370431E-1,1.9446598E0,-1.2074149E-1,3.3399633E-1],"split_indices":[0,6,0,4,7,6,3,4,5,4,8,7,9,2,9,0,0,0,0,0,0,0,0,0,0,0,0,0,0,0,0],"split_type":[0,0,0,0,0,0,0,0,0,0,0,0,0,0,0,0,0,0,0,0,0,0,0,0,0,0,0,0,0,0,0],"sum_hessian":[1.8518E4,1.8047E4,4.71E2,1.7622E4,4.25E2,1E2,3.71E2,1.7184E4,4.38E2,3.37E2,8.8E1,6.9E1,3.1E1,7E0,3.64E2,1.6917E4,2.67E2,1.4E1,4.24E2,1.31E2,2.06E2,1E1,7.8E1,4E1,2.9E1,2.7E1,4E0,1E0,6E0,2.35E2,1.29E2],"tree_param":{"num_deleted":"0","num_feature":"11","num_nodes":"31","size_leaf_vector":"1"}},{"base_weights":[4.3485467E-3,-1.9987317E0,2.2078738E-1,-2.916506E0,-4.5297965E-1,1.7840254E0,-3.8928777E-1,-6.554362E-2,-3.33485E0,1.8284357E0,-1.555086E0,5.9704687E-2,9.772134E0,-4.1892843E0,1.4454359E-1,-4.3310836E-2,6.1093634E-1,-1.525662E-1,-2.5751793E-1,2.3844825E-1,3.854475E-2,-1.4712493E-1,-5.0739635E-2,-6.5520965E-2,3.8972765E-1,6.054243E-1,-1.5360278E-1,-1.9275667E-1,-7.383373E-1,3.0194458E-1,-1.7790733E-2],"categories":[],"categories_nodes":[],"categories_segments":[],"categories_sizes":[],"default_left":[0,0,0,0,0,0,0,0,0,0,0,0,0,0,0,0,0,0,0,0,0,0,0,0,0,0,0,0,0,0,0],"id":43,"left_children":[1,3,5,7,9,11,13,15,17,19,21,23,25,27,29,-1,-1,-1,-1,-1,-1,-1,-1,-1,-1,-1,-1,-1,-1,-1,-1],"loss_changes":[8.0292495E3,2.5607642E3,1.5940714E4,1.3510908E3,1.6975233E3,6.4627312E4,2.4389951E4,1.446594E3,4.9285254E2,6.8046405E2,3.3808655E2,4.0917336E4,2.5034305E4,5.177617E3,3.1096465E4,0E0,0E0,0E0,0E0,0E0,0E0,0E0,0E0,0E0,0E0,0E0,0E0,0E0,0E0,0E0,0E0],"parents":[2147483647,0,0,1,1,2,2,3,3,4,4,5,5,6,6,7,7,8,8,9,9,10,10,11,11,12,12,13,13,14,14],"right_children":[2,4,6,8,10,12,14,16,18,20,22,24,26,28,30,-1,-1,-1,-1,-1,-1,-1,-1,-1,-1,-1,-1,-1,-1,-1,-1],"split_conditions":[3.0356E2,6.42E-2,3.0466E2,-2.6E-1,7.95E-2,3.046E2,3.65E-2,-2.7E-1,3.13E0,2.1E0,-2.3333333E-2,1.375E1,4.03E-2,3.078E2,4.12E-2,-4.3310836E-2,6.1093634E-1,-1.525662E-1,-2.5751793E-1,2.3844825E-1,3.854475E-2,-1.4712493E-1,-5.0739635E-2,-6.5520965E-2,3.8972765E-1,6.054243E-1,-1.5360278E-1,-1.9275667E-1,-7.383373E-1,3.0194458E-1,-1.7790733E-2],"split_indices":[4,5,4,9,5,4,5,9,1,6,9,3,5,4,5,0,0,0,0,0,0,0,0,0,0,0,0,0,0,0,0],"split_type":[0,0,0,0,0,0,0,0,0,0,0,0,0,0,0,0,0,0,0,0,0,0,0,0,0,0,0,0,0,0,0],"sum_hessian":[1.8518E4,1.805E3,1.6713E4,1.132E3,6.73E2,4.691E3,1.2022E4,1.45E2,9.87E2,2.19E2,4.54E2,3.859E3,8.32E2,1.48E3,1.0542E4,1.37E2,8E0,8.56E2,1.31E2,5.7E1,1.62E2,1.26E2,3.28E2,3.279E3,5.8E2,7.04E2,1.28E2,1.436E3,4.4E1,8.24E2,9.718E3],"tree_param":{"num_deleted":"0","num_feature":"11","num_nodes":"31","size_leaf_vector":"1"}},{"base_weights":[4.150896E-3,-2.4533927E-1,1.6592584E0,-8.2256675E-1,1.7934434E-1,3.2100081E0,-1.183608E0,-2.004274E0,-2.6003626E-1,1.5276197E0,-7.282138E-1,1.4172302E0,7.7964687E0,-1.9033068E0,4.821532E0,-1.21628515E-1,-2.562401E-2,-2.9173104E-2,6.646506E-2,4.9614485E-2,5.5888087E-1,-3.993608E-2,1.8513487E-1,3.298407E-1,-1.4028214E-2,-1.3106675E-1,5.4296154E-1,1.2989916E0,-1.04188465E-1,1.1729931E0,7.2875254E-2],"categories":[],"categories_nodes":[],"categories_segments":[],"categories_sizes":[],"default_left":[0,0,0,0,0,0,0,0,0,0,0,0,0,0,0,0,0,0,0,0,0,0,0,0,0,0,0,0,0,0,0],"id":44,"left_children":[1,3,5,7,9,11,13,15,17,19,21,23,25,27,29,-1,-1,-1,-1,-1,-1,-1,-1,-1,-1,-1,-1,-1,-1,-1,-1],"loss_changes":[7.647514E3,3.9454155E3,1.0699002E4,4.534378E3,1.1347909E4,1.2898283E4,3.7130386E3,1.4043984E3,2.3771484E3,1.9263008E4,1.7346667E3,9.938922E3,1.4099561E4,3.9085396E3,5.7341924E3,0E0,0E0,0E0,0E0,0E0,0E0,0E0,0E0,0E0,0E0,0E0,0E0,0E0,0E0,0E0,0E0],"parents":[2147483647,0,0,1,1,2,2,3,3,4,4,5,5,6,6,7,7,8,8,9,9,10,10,11,11,12,12,13,13,14,14],"right_children":[2,4,6,8,10,12,14,16,18,20,22,24,26,28,30,-1,-1,-1,-1,-1,-1,-1,-1,-1,-1,-1,-1,-1,-1,-1,-1],"split_conditions":[2.28E0,5.2E0,6.86E-2,4.42E-2,4.52E-2,1.45E1,1.055E1,6.6E-1,9.7E-1,4.44E-2,2.23E0,-2.2E-1,3.0377E2,-1.51E0,3.0457E2,-1.21628515E-1,-2.562401E-2,-2.9173104E-2,6.646506E-2,4.9614485E-2,5.5888087E-1,-3.993608E-2,1.8513487E-1,3.298407E-1,-1.4028214E-2,-1.3106675E-1,5.4296154E-1,1.2989916E0,-1.04188465E-1,1.1729931E0,7.2875254E-2],"split_indices":[10,6,5,5,5,3,6,9,1,5,7,2,4,9,4,0,0,0,0,0,0,0,0,0,0,0,0,0,0,0,0],"split_type":[0,0,0,0,0,0,0,0,0,0,0,0,0,0,0,0,0,0,0,0,0,0,0,0,0,0,0,0,0,0,0],"sum_hessian":[1.8518E4,1.6093E4,2.425E3,6.821E3,9.272E3,1.569E3,8.56E2,2.199E3,4.622E3,3.73E3,5.542E3,1.129E3,4.4E2,7.65E2,9.1E1,1.708E3,4.91E2,3.841E3,7.81E2,3.535E3,1.95E2,5.456E3,8.6E1,2.78E2,8.51E2,1E2,3.4E2,4E0,7.61E2,1.3E1,7.8E1],"tree_param":{"num_deleted":"0","num_feature":"11","num_nodes":"31","size_leaf_vector":"1"}},{"base_weights":[4.149199E-3,-1.8791512E0,2.0764545E-1,-3.047941E0,-7.6513076E-1,1.6793345E0,-3.6670145E-1,5.964541E-1,-3.4633543E0,1.8447332E0,-1.1671956E0,5.1354993E-2,9.221137E0,-3.9822712E0,1.4122094E-1,9.5993036E-1,-3.5415303E-2,-1.8154693E-1,-1.0236671E-1,6.3563146E-2,1.8095394E0,-4.3477338E-2,-1.9613272E-1,-6.138986E-2,3.636321E-1,5.7124704E-1,-1.4471914E-1,-1.8316732E-1,-7.039057E-1,2.8545287E-1,-1.6571045E-2],"categories":[],"categories_nodes":[],"categories_segments":[],"categories_sizes":[],"default_left":[0,0,0,0,0,0,0,0,0,0,0,0,0,0,0,0,0,0,0,0,0,0,0,0,0,0,0,0,0,0,0],"id":45,"left_children":[1,3,5,7,9,11,13,15,17,19,21,23,25,27,29,-1,-1,-1,-1,-1,-1,-1,-1,-1,-1,-1,-1,-1,-1,-1,-1],"loss_changes":[7.0976963E3,2.3491802E3,1.4128292E4,1.3358389E3,9.738368E2,5.760743E4,2.2079945E4,2.222291E3,1.8027246E2,2.3963508E3,6.551765E2,3.5664234E4,2.2274344E4,4.7169766E3,2.774677E4,0E0,0E0,0E0,0E0,0E0,0E0,0E0,0E0,0E0,0E0,0E0,0E0,0E0,0E0,0E0,0E0],"parents":[2147483647,0,0,1,1,2,2,3,3,4,4,5,5,6,6,7,7,8,8,9,9,10,10,11,11,12,12,13,13,14,14],"right_children":[2,4,6,8,10,12,14,16,18,20,22,24,26,28,30,-1,-1,-1,-1,-1,-1,-1,-1,-1,-1,-1,-1,-1,-1,-1,-1],"split_conditions":[3.0356E2,4.36E-2,3.0466E2,-2.6E-1,2.5E0,3.046E2,3.65E-2,1.1E0,2E1,2.4E0,2.175E1,1.375E1,4.03E-2,3.078E2,4.12E-2,9.5993036E-1,-3.5415303E-2,-1.8154693E-1,-1.0236671E-1,6.3563146E-2,1.8095394E0,-4.3477338E-2,-1.9613272E-1,-6.138986E-2,3.636321E-1,5.7124704E-1,-1.4471914E-1,-1.8316732E-1,-7.039057E-1,2.8545287E-1,-1.6571045E-2],"split_indices":[4,5,4,9,6,4,5,6,3,6,3,3,5,4,5,0,0,0,0,0,0,0,0,0,0,0,0,0,0,0,0],"split_type":[0,0,0,0,0,0,0,0,0,0,0,0,0,0,0,0,0,0,0,0,0,0,0,0,0,0,0,0,0,0,0],"sum_hessian":[1.8518E4,1.805E3,1.6713E4,8.8E2,9.25E2,4.691E3,1.2022E4,9E1,7.9E2,1.23E2,8.02E2,3.859E3,8.32E2,1.48E3,1.0542E4,5E0,8.5E1,7.05E2,8.5E1,1.22E2,1E0,7.25E2,7.7E1,3.279E3,5.8E2,7.04E2,1.28E2,1.436E3,4.4E1,8.24E2,9.718E3],"tree_param":{"num_deleted":"0","num_feature":"11","num_nodes":"31","size_leaf_vector":"1"}},{"base_weights":[4.070507E-3,1.0113452E-1,-3.8152697E0,-2.9983783E-2,7.9976687E0,-1.1639316E1,-3.2993238E0,-4.4889998E-1,1.1422358E0,-1.0188338E1,1.1840598E1,-1.6205938E1,-6.6011815E0,-2.3793738E0,-5.1613393E0,-1.4531827E-3,-6.839141E-2,3.7878014E-2,6.2570626E-1,-6.3124514E-1,5.2980685E-1,1.1841701E0,3.013436E-1,-8.124585E-2,-8.6012805E-1,-1.732042E-1,-6.09128E-1,-1.23068035E-1,2.0592682E-1,-2.1731596E-1,-3.1013805E-1],"categories":[],"categories_nodes":[],"categories_segments":[],"categories_sizes":[],"default_left":[0,0,0,0,0,0,0,0,0,0,0,0,0,0,0,0,0,0,0,0,0,0,0,0,0,0,0,0,0,0,0],"id":46,"left_children":[1,3,5,7,9,11,13,15,17,19,21,23,25,27,29,-1,-1,-1,-1,-1,-1,-1,-1,-1,-1,-1,-1,-1,-1,-1,-1],"loss_changes":[6.8657583E3,1.870024E4,1.8144819E3,8.725207E3,2.0737463E4,5.3722485E2,7.2771875E2,5.050075E3,2.045437E4,2.7671963E3,1.6656863E4,1.7549219E2,2.204386E2,1.651659E2,9.356714E1,0E0,0E0,0E0,0E0,0E0,0E0,0E0,0E0,0E0,0E0,0E0,0E0,0E0,0E0,0E0,0E0],"parents":[2147483647,0,0,1,1,2,2,3,3,4,4,5,5,6,6,7,7,8,8,9,9,10,10,11,11,12,12,13,13,14,14],"right_children":[2,4,6,8,10,12,14,16,18,20,22,24,26,28,30,-1,-1,-1,-1,-1,-1,-1,-1,-1,-1,-1,-1,-1,-1,-1,-1],"split_conditions":[3.082E2,3.0765E2,5.2E-2,4.6E-1,3.65E-2,3.1038E2,8E-1,3.0548E2,3.0679E2,7.33E0,3.94E-2,-8.6E-1,3.13E0,5.0016665E0,2.86E0,-1.4531827E-3,-6.839141E-2,3.7878014E-2,6.2570626E-1,-6.3124514E-1,5.2980685E-1,1.1841701E0,3.013436E-1,-8.124585E-2,-8.6012805E-1,-1.732042E-1,-6.09128E-1,-1.23068035E-1,2.0592682E-1,-2.1731596E-1,-3.1013805E-1],"split_indices":[4,4,5,1,5,4,1,4,4,3,5,2,7,8,1,0,0,0,0,0,0,0,0,0,0,0,0,0,0,0,0],"split_type":[0,0,0,0,0,0,0,0,0,0,0,0,0,0,0,0,0,0,0,0,0,0,0,0,0,0,0,0,0,0,0],"sum_hessian":[1.8518E4,1.806E4,4.58E2,1.7766E4,2.94E2,2.7E1,4.31E2,1.3089E4,4.677E3,5.1E1,2.43E2,1.3E1,1.4E1,2.9E2,1.41E2,8.985E3,4.104E3,4.525E3,1.52E2,4.6E1,5E0,7.9E1,1.64E2,1E0,1.2E1,1E1,4E0,2.87E2,3E0,8.2E1,5.9E1],"tree_param":{"num_deleted":"0","num_feature":"11","num_nodes":"31","size_leaf_vector":"1"}},{"base_weights":[3.8567197E-3,-1.15648106E-1,2.9203265E0,-1.4839637E-1,1.0075687E1,4.278048E0,-3.5491714E0,1.1811105E0,-3.5414475E-1,-9.038096E0,1.4842855E1,3.306741E0,2.86281E1,-7.7388325E0,1.38541975E1,-1.2468882E-1,1.8781833E-1,-9.40262E-2,-7.765937E-3,-9.655521E-2,-7.911619E-1,-1.1285603E-1,8.044184E-1,5.8158793E-2,4.6213546E-1,-5.2230287E-1,1.7505764E0,1.897953E-1,-6.6154325E-1,1.5900172E0,-5.938646E-1],"categories":[],"categories_nodes":[],"categories_segments":[],"categories_sizes":[],"default_left":[0,0,0,0,0,0,0,0,0,0,0,0,0,0,0,0,0,0,0,0,0,0,0,0,0,0,0,0,0,0,0],"id":47,"left_children":[1,3,5,7,9,11,13,15,17,19,21,23,25,27,29,-1,-1,-1,-1,-1,-1,-1,-1,-1,-1,-1,-1,-1,-1,-1,-1],"loss_changes":[6.4548057E3,5.9392163E3,6.4185557E3,4.8517188E3,5.3279116E3,1.416711E4,9.367321E3,2.250476E4,4.6609175E3,5.48107E2,1.0160322E3,7.3819717E3,6.1025547E3,6.575185E3,1.1922229E4,0E0,0E0,0E0,0E0,0E0,0E0,0E0,0E0,0E0,0E0,0E0,0E0,0E0,0E0,0E0,0E0],"parents":[2147483647,0,0,1,1,2,2,3,3,4,4,5,5,6,6,7,7,8,8,9,9,10,10,11,11,12,12,13,13,14,14],"right_children":[2,4,6,8,10,12,14,16,18,20,22,24,26,28,30,-1,-1,-1,-1,-1,-1,-1,-1,-1,-1,-1,-1,-1,-1,-1,-1],"split_conditions":[1.047E1,2.1E1,1.141E1,2.91E-2,3.0377E2,1.04E1,3.0667E2,4.4E0,3.66E-2,5.5E0,6E-2,1.42E0,3.0392E2,3.0432E2,3.078E2,-1.2468882E-1,1.8781833E-1,-9.40262E-2,-7.765937E-3,-9.655521E-2,-7.911619E-1,-1.1285603E-1,8.044184E-1,5.8158793E-2,4.6213546E-1,-5.2230287E-1,1.7505764E0,1.897953E-1,-6.6154325E-1,1.5900172E0,-5.938646E-1],"split_indices":[0,6,1,5,4,8,4,6,5,3,2,2,4,4,4,0,0,0,0,0,0,0,0,0,0,0,0,0,0,0,0],"split_type":[0,0,0,0,0,0,0,0,0,0,0,0,0,0,0,0,0,0,0,0,0,0,0,0,0,0,0,0,0,0,0],"sum_hessian":[1.8518E4,1.779E4,7.28E2,1.7734E4,5.6E1,6.02E2,1.26E2,2.376E3,1.5358E4,1.1E1,4.5E1,5.8E2,2.2E1,1.02E2,2.4E1,9.79E2,1.397E3,1.769E3,1.3589E4,6E0,5E0,3E0,4.2E1,4.27E2,1.53E2,3E0,1.9E1,3.3E1,6.9E1,1.4E1,1E1],"tree_param":{"num_deleted":"0","num_feature":"11","num_nodes":"31","size_leaf_vector":"1"}},{"base_weights":[3.773951E-3,-1.789636E0,1.9755729E-1,-2.6334245E0,-3.6856496E-1,1.5708706E0,-3.3839747E-1,-2.92088E-2,-3.0155926E0,1.7903417E0,-1.4116219E0,5.4161202E-2,8.597195E0,-3.7302206E0,1.3809201E-1,-3.9904755E-2,5.881813E-1,-1.371883E-1,-2.37878E-1,2.2574937E-1,4.049261E-2,-1.3674621E-1,-4.482562E-2,-5.7492662E-2,3.4256288E-1,5.3307474E-1,-1.3755448E-1,-1.7213711E-1,-6.413737E-1,2.6380917E-1,-1.4903526E-2],"categories":[],"categories_nodes":[],"categories_segments":[],"categories_sizes":[],"default_left":[0,0,0,0,0,0,0,0,0,0,0,0,0,0,0,0,0,0,0,0,0,0,0,0,0,0,0,0,0,0,0],"id":48,"left_children":[1,3,5,7,9,11,13,15,17,19,21,23,25,27,29,-1,-1,-1,-1,-1,-1,-1,-1,-1,-1,-1,-1,-1,-1,-1,-1],"loss_changes":[6.436317E3,2.1645732E3,1.2302601E4,1.1275288E3,1.5202826E3,5.000167E4,1.9431703E4,1.3332216E3,4.5477637E2,5.8407056E2,3.076969E2,3.1597357E4,1.9543402E4,3.8290469E3,2.3628889E4,0E0,0E0,0E0,0E0,0E0,0E0,0E0,0E0,0E0,0E0,0E0,0E0,0E0,0E0,0E0,0E0],"parents":[2147483647,0,0,1,1,2,2,3,3,4,4,5,5,6,6,7,7,8,8,9,9,10,10,11,11,12,12,13,13,14,14],"right_children":[2,4,6,8,10,12,14,16,18,20,22,24,26,28,30,-1,-1,-1,-1,-1,-1,-1,-1,-1,-1,-1,-1,-1,-1,-1,-1],"split_conditions":[3.0356E2,6.42E-2,3.0466E2,-2.6E-1,7.95E-2,3.046E2,3.65E-2,-2.7E-1,3.13E0,2.1E0,-2.3333333E-2,1.375E1,4.03E-2,3.078E2,4.12E-2,-3.9904755E-2,5.881813E-1,-1.371883E-1,-2.37878E-1,2.2574937E-1,4.049261E-2,-1.3674621E-1,-4.482562E-2,-5.7492662E-2,3.4256288E-1,5.3307474E-1,-1.3755448E-1,-1.7213711E-1,-6.413737E-1,2.6380917E-1,-1.4903526E-2],"split_indices":[4,5,4,9,5,4,5,9,1,6,9,3,5,4,5,0,0,0,0,0,0,0,0,0,0,0,0,0,0,0,0],"split_type":[0,0,0,0,0,0,0,0,0,0,0,0,0,0,0,0,0,0,0,0,0,0,0,0,0,0,0,0,0,0,0],"sum_hessian":[1.8518E4,1.805E3,1.6713E4,1.132E3,6.73E2,4.691E3,1.2022E4,1.45E2,9.87E2,2.19E2,4.54E2,3.859E3,8.32E2,1.48E3,1.0542E4,1.37E2,8E0,8.56E2,1.31E2,5.7E1,1.62E2,1.26E2,3.28E2,3.279E3,5.8E2,7.04E2,1.28E2,1.436E3,4.4E1,8.24E2,9.718E3],"tree_param":{"num_deleted":"0","num_feature":"11","num_nodes":"31","size_leaf_vector":"1"}},{"base_weights":[3.6054756E-3,9.482709E-2,-3.5858438E0,-2.7841827E-2,7.4825015E0,-1.0821271E1,-3.1085804E0,-4.171968E-1,1.061659E0,-9.297332E0,1.1027865E1,-7.0799594E0,-7.979833E-1,-2.2386613E0,-4.8694105E0,-1.1198812E-3,-6.406628E-2,3.5093453E-2,5.848959E-1,-5.798529E-1,5.1333725E-1,1.1130595E0,2.7572843E-1,-6.587469E-1,-1.86114E-1,-1.1584079E-1,1.9740655E-1,-2.0569955E-1,-2.9166254E-1],"categories":[],"categories_nodes":[],"categories_segments":[],"categories_sizes":[],"default_left":[0,0,0,0,0,0,0,0,0,0,0,