{"learner":{"attributes":{"scikit_learn":"{\"_estimator_type\": \"regressor\"}"},"feature_names":["SSTA_DHW","TSA_DHW","SSTA","SSTA_Frequency","Temperature_Maximum","Turbidity","Depth_m","TSA_DHW_3mean","TSA_DHW_6mean","SSTA_3mean","TSA_DHW_lag1"],"feature_types":["float","float","float","float","float","float","float","float","float","float","float"],"gradient_booster":{"model":{"cats":{"enc":[],"feature_segments":[],"sorted_idx":[]},"gbtree_model_param":{"num_parallel_tree":"1","num_trees":"400"},"iteration_indptr":[0,1,2,3,4,5,6,7,8,9,10,11,12,13,14,15,16,17,18,19,20,21,22,23,24,25,26,27,28,29,30,31,32,33,34,35,36,37,38,39,40,41,42,43,44,45,46,47,48,49,50,51,52,53,54,55,56,57,58,59,60,61,62,63,64,65,66,67,68,69,70,71,72,73,74,75,76,77,78,79,80,81,82,83,84,85,86,87,88,89,90,91,92,93,94,95,96,97,98,99,100,101,102,103,104,105,106,107,108,109,110,111,112,113,114,115,116,117,118,119,120,121,122,123,124,125,126,127,128,129,130,131,132,133,134,135,136,137,138,139,140,141,142,143,144,145,146,147,148,149,150,151,152,153,154,155,156,157,158,159,160,161,162,163,164,165,166,167,168,169,170,171,172,173,174,175,176,177,178,179,180,181,182,183,184,185,186,187,188,189,190,191,192,193,194,195,196,197,198,199,200,201,202,203,204,205,206,207,208,209,210,211,212,213,214,215,216,217,218,219,220,221,222,223,224,225,226,227,228,229,230,231,232,233,234,235,236,237,238,239,240,241,242,243,244,245,246,247,248,249,250,251,252,253,254,255,256,257,258,259,260,261,262,263,264,265,266,267,268,269,270,271,272,273,274,275,276,277,278,279,280,281,282,283,284,285,286,287,288,289,290,291,292,293,294,295,296,297,298,299,300,301,302,303,304,305,306,307,308,309,310,311,312,313,314,315,316,317,318,319,320,321,322,323,324,325,326,327,328,329,330,331,332,333,334,335,336,337,338,339,340,341,342,343,344,345,346,347,348,349,350,351,352,353,354,355,356,357,358,359,360,361,362,363,364,365,366,367,368,369,370,371,372,373,374,375,376,377,378,379,380,381,382,383,384,385,386,387,388,389,390,391,392,393,394,395,396,397,398,399,400],"tree_info":[0,0,0,0,0,0,0,0,0,0,0,0,0,0,0,0,0,0,0,0,0,0,0,0,0,0,0,0,0,0,0,0,0,0,0,0,0,0,0,0,0,0,0,0,0,0,0,0,0,0,0,0,0,0,0,0,0,0,0,0,0,0,0,0,0,0,0,0,0,0,0,0,0,0,0,0,0,0,0,0,0,0,0,0,0,0,0,0,0,0,0,0,0,0,0,0,0,0,0,0,0,0,0,0,0,0,0,0,0,0,0,0,0,0,0,0,0,0,0,0,0,0,0,0,0,0,0,0,0,0,0,0,0,0,0,0,0,0,0,0,0,0,0,0,0,0,0,0,0,0,0,0,0,0,0,0,0,0,0,0,0,0,0,0,0,0,0,0,0,0,0,0,0,0,0,0,0,0,0,0,0,0,0,0,0,0,0,0,0,0,0,0,0,0,0,0,0,0,0,0,0,0,0,0,0,0,0,0,0,0,0,0,0,0,0,0,0,0,0,0,0,0,0,0,0,0,0,0,0,0,0,0,0,0,0,0,0,0,0,0,0,0,0,0,0,0,0,0,0,0,0,0,0,0,0,0,0,0,0,0,0,0,0,0,0,0,0,0,0,0,0,0,0,0,0,0,0,0,0,0,0,0,0,0,0,0,0,0,0,0,0,0,0,0,0,0,0,0,0,0,0,0,0,0,0,0,0,0,0,0,0,0,0,0,0,0,0,0,0,0,0,0,0,0,0,0,0,0,0,0,0,0,0,0,0,0,0,0,0,0,0,0,0,0,0,0,0,0,0,0,0,0,0,0,0,0,0,0,0,0,0,0,0,0,0,0,0,0,0,0,0,0,0,0,0,0,0,0,0,0,0,0,0,0,0,0,0,0,0,0,0,0,0,0,0,0,0,0,0,0],"trees":[{"base_weights":[-8.8874636E-8,-1.348395E0,1.088077E1,-1.8861951E0,1.087197E1,9.038702E0,4.8325024E1,8.4814143E-1,-3.3583453E0,-3.0617478E-1,1.6935799E1,6.1272793E0,2.4010769E1,5.6428173E1,1.3463558E0,-8.137839E-3,1.1737874E0,-1.8609054E-1,-8.5361116E-2,-1.0126275E-1,9.022631E-1,1.1090664E0,5.9430398E-2,1.6278025E0,2.5897434E-1,1.9328394E0,3.0621275E-1,1.0085701E0,3.760105E0,1.3091359E-1,-4.989483E-2],"categories":[],"categories_nodes":[],"categories_segments":[],"categories_sizes":[],"default_left":[0,0,0,0,0,0,0,0,0,0,0,0,0,0,0,0,0,0,0,0,0,0,0,0,0,0,0,0,0,0,0],"id":0,"left_children":[1,3,5,7,9,11,13,15,17,19,21,23,25,27,29,-1,-1,-1,-1,-1,-1,-1,-1,-1,-1,-1,-1,-1,-1,-1,-1],"loss_changes":[2.702504E5,1.07730875E5,1.3965114E5,6.3196887E4,4.6842805E4,8.4286766E4,3.608814E4,1.2569758E5,6.1179297E3,7.734158E3,3.697946E4,4.0485883E4,8.2282625E4,5.361833E4,4.7338135E1,0E0,0E0,0E0,0E0,0E0,0E0,0E0,0E0,0E0,0E0,0E0,0E0,0E0,0E0,0E0,0E0],"parents":[2147483647,0,0,1,1,2,2,3,3,4,4,5,5,6,6,7,7,8,8,9,9,10,10,11,11,12,12,13,13,14,14],"right_children":[2,4,6,8,10,12,14,16,18,20,22,24,26,28,30,-1,-1,-1,-1,-1,-1,-1,-1,-1,-1,-1,-1,-1,-1,-1,-1],"split_conditions":[2.73E0,1.43E1,1.495E1,4.57E-2,3.0439E2,1.168E1,1.286E1,3.0765E2,1E0,1.557E1,4.57E-2,-1.49E0,5.69E-2,1.05E1,1.444E1,-8.137839E-3,1.1737874E0,-1.8609054E-1,-8.5361116E-2,-1.0126275E-1,9.022631E-1,1.1090664E0,5.9430398E-2,1.6278025E0,2.5897434E-1,1.9328394E0,3.0621275E-1,1.0085701E0,3.760105E0,1.3091359E-1,-4.989483E-2],"split_indices":[1,6,6,5,4,0,0,4,1,3,5,2,5,3,0,0,0,0,0,0,0,0,0,0,0,0,0,0,0,0,0],"split_type":[0,0,0,0,0,0,0,0,0,0,0,0,0,0,0,0,0,0,0,0,0,0,0,0,0,0,0,0,0,0,0],"sum_hessian":[1.8418E4,1.6388E4,2.03E3,1.5698E4,6.9E2,1.936E3,9.4E1,5.494E3,1.0204E4,2.43E2,4.47E2,1.622E3,3.14E2,8E1,1.4E1,5.26E3,2.34E2,8.362E3,1.842E3,2.23E2,2E1,3.35E2,1.12E2,5.5E1,1.567E3,1.72E2,1.42E2,2.8E1,5.2E1,9E0,5E0],"tree_param":{"num_deleted":"0","num_feature":"11","num_nodes":"31","size_leaf_vector":"1"}},{"base_weights":[6.427076E-4,-1.2808005E0,1.0341151E1,-1.7918284E0,1.0331223E1,8.588898E0,4.5959824E1,8.059465E-1,-3.1904547E0,-2.8758338E-1,1.6091618E1,5.8220778E0,2.2817339E1,5.3665638E1,1.2844392E0,-7.7310237E-3,1.1153477E0,-1.7678712E-1,-8.1095375E-2,-9.622222E-2,8.5929817E-1,9.972653E-1,-1.8273255E-1,1.5478659E0,2.4603389E-1,1.836756E0,2.9100916E-1,9.5988053E-1,3.575647E0,1.2502247E-1,-4.7815878E-2],"categories":[],"categories_nodes":[],"categories_segments":[],"categories_sizes":[],"default_left":[0,0,0,0,0,0,0,0,0,0,0,0,0,0,0,0,0,0,0,0,0,0,0,0,0,0,0,0,0,0,0],"id":1,"left_children":[1,3,5,7,9,11,13,15,17,19,21,23,25,27,29,-1,-1,-1,-1,-1,-1,-1,-1,-1,-1,-1,-1,-1,-1,-1,-1],"loss_changes":[2.4407925E5,9.727194E4,1.2636595E5,5.7042E4,4.227208E4,7.612205E4,3.2635781E4,1.1349256E5,5.521297E3,7.0119053E3,3.4163867E4,3.661984E4,7.430347E4,4.8455203E4,4.3262974E1,0E0,0E0,0E0,0E0,0E0,0E0,0E0,0E0,0E0,0E0,0E0,0E0,0E0,0E0,0E0,0E0],"parents":[2147483647,0,0,1,1,2,2,3,3,4,4,5,5,6,6,7,7,8,8,9,9,10,10,11,11,12,12,13,13,14,14],"right_children":[2,4,6,8,10,12,14,16,18,20,22,24,26,28,30,-1,-1,-1,-1,-1,-1,-1,-1,-1,-1,-1,-1,-1,-1,-1,-1],"split_conditions":[2.73E0,1.43E1,1.495E1,4.57E-2,3.0439E2,1.168E1,1.286E1,3.0765E2,1E0,1.557E1,5.26E-2,-1.49E0,5.69E-2,1.05E1,1.444E1,-7.7310237E-3,1.1153477E0,-1.7678712E-1,-8.1095375E-2,-9.622222E-2,8.5929817E-1,9.972653E-1,-1.8273255E-1,1.5478659E0,2.4603389E-1,1.836756E0,2.9100916E-1,9.5988053E-1,3.575647E0,1.2502247E-1,-4.7815878E-2],"split_indices":[1,6,6,5,4,0,0,4,1,3,5,2,5,3,0,0,0,0,0,0,0,0,0,0,0,0,0,0,0,0,0],"split_type":[0,0,0,0,0,0,0,0,0,0,0,0,0,0,0,0,0,0,0,0,0,0,0,0,0,0,0,0,0,0,0],"sum_hessian":[1.8418E4,1.6388E4,2.03E3,1.5698E4,6.9E2,1.936E3,9.4E1,5.494E3,1.0204E4,2.43E2,4.47E2,1.622E3,3.14E2,8E1,1.4E1,5.26E3,2.34E2,8.362E3,1.842E3,2.23E2,2E1,3.74E2,7.3E1,5.5E1,1.567E3,1.72E2,1.42E2,2.8E1,5.2E1,9E0,5E0],"tree_param":{"num_deleted":"0","num_feature":"11","num_nodes":"31","size_leaf_vector":"1"}},{"base_weights":[1.205539E-3,-1.2166126E0,9.828296E0,1.816623E0,-2.986615E0,8.161477E0,4.3710384E1,9.827659E-1,2.1877014E1,-3.312557E0,-1.497067E0,1.2896732E1,6.172059E-1,5.1038345E1,1.2253643E0,1.5092864E-2,9.829772E-1,-1.830872E-1,1.5371648E0,-1.6675271E-1,9.1301787E-1,2.396966E0,-7.880416E-2,4.551153E-1,1.5280358E0,-5.1739287E-2,2.513795E-1,9.135415E-1,3.4002378E0,1.1939646E-1,-4.5823555E-2],"categories":[],"categories_nodes":[],"categories_segments":[],"categories_sizes":[],"default_left":[0,0,0,0,0,0,0,0,0,0,0,0,0,0,0,0,0,0,0,0,0,0,0,0,0,0,0,0,0,0,0],"id":2,"left_children":[1,3,5,7,9,11,13,15,17,19,21,23,25,27,29,-1,-1,-1,-1,-1,-1,-1,-1,-1,-1,-1,-1,-1,-1,-1,-1],"loss_changes":[2.2044331E5,8.799525E4,1.1434455E5,1.0101258E5,5.0200312E3,6.918954E4,2.9513688E4,7.375371E4,5.468315E4,4.181836E3,7.341228E3,7.948122E4,5.455069E3,4.3789203E4,3.9538803E1,0E0,0E0,0E0,0E0,0E0,0E0,0E0,0E0,0E0,0E0,0E0,0E0,0E0,0E0,0E0,0E0],"parents":[2147483647,0,0,1,1,2,2,3,3,4,4,5,5,6,6,7,7,8,8,9,9,10,10,11,11,12,12,13,13,14,14],"right_children":[2,4,6,8,10,12,14,16,18,20,22,24,26,28,30,-1,-1,-1,-1,-1,-1,-1,-1,-1,-1,-1,-1,-1,-1,-1,-1],"split_conditions":[2.73E0,4.57E-2,1.495E1,3.0765E2,1E0,6.84E-2,1.286E1,1.74E1,3.32E-2,2.567E1,1.01E0,1.168E1,1.346E-1,1.05E1,1.444E1,1.5092864E-2,9.829772E-1,-1.830872E-1,1.5371648E0,-1.6675271E-1,9.1301787E-1,2.396966E0,-7.880416E-2,4.551153E-1,1.5280358E0,-5.1739287E-2,2.513795E-1,9.135415E-1,3.4002378E0,1.1939646E-1,-4.5823555E-2],"split_indices":[1,5,6,4,1,5,0,6,5,0,0,0,5,3,0,0,0,0,0,0,0,0,0,0,0,0,0,0,0,0,0],"split_type":[0,0,0,0,0,0,0,0,0,0,0,0,0,0,0,0,0,0,0,0,0,0,0,0,0,0,0,0,0,0,0],"sum_hessian":[1.8418E4,1.6388E4,2.03E3,6.039E3,1.0349E4,1.936E3,9.4E1,5.799E3,2.4E2,8.49E3,1.859E3,1.189E3,7.47E2,8E1,1.4E1,5.596E3,2.03E2,6.2E1,1.78E2,8.482E3,8E0,2E0,1.857E3,9.8E2,2.09E2,5.44E2,2.03E2,2.8E1,5.2E1,9E0,5E0],"tree_param":{"num_deleted":"0","num_feature":"11","num_nodes":"31","size_leaf_vector":"1"}},{"base_weights":[1.7960916E-3,-1.1222936E0,9.673186E0,-1.6536137E0,8.323062E0,7.9445744E0,4.1694912E1,8.9173454E-1,-2.6833656E0,4.0942497E0,1.8485846E1,1.2301517E1,7.6843566E-1,1.1348223E1,5.1383728E1,-8.526425E-3,1.0002112E0,-1.5292053E-1,-4.5426685E-2,-5.8041524E-2,4.9805045E-1,1.8256857E0,5.235458E-1,-3.3718476E-1,7.697367E-1,-4.7182646E-2,2.6679945E-1,4.0489484E-2,1.9165684E0,3.1861886E-1,2.9570854E0],"categories":[],"categories_nodes":[],"categories_segments":[],"categories_sizes":[],"default_left":[0,0,0,0,0,0,0,0,0,0,0,0,0,0,0,0,0,0,0,0,0,0,0,0,0,0,0,0,0,0,0],"id":3,"left_children":[1,3,5,7,9,11,13,15,17,19,21,23,25,27,29,-1,-1,-1,-1,-1,-1,-1,-1,-1,-1,-1,-1,-1,-1,-1,-1],"loss_changes":[2.0025319E5,8.282918E4,1.0583609E5,4.09541E4,3.7700668E4,5.692596E4,2.8231172E4,9.138493E4,7.401828E3,1.9188004E4,3.6896617E4,6.684995E4,5.3930537E3,7.077961E3,2.5463703E4,0E0,0E0,0E0,0E0,0E0,0E0,0E0,0E0,0E0,0E0,0E0,0E0,0E0,0E0,0E0,0E0],"parents":[2147483647,0,0,1,1,2,2,3,3,4,4,5,5,6,6,7,7,8,8,9,9,10,10,11,11,12,12,13,13,14,14],"right_children":[2,4,6,8,10,12,14,16,18,20,22,24,26,28,30,-1,-1,-1,-1,-1,-1,-1,-1,-1,-1,-1,-1,-1,-1,-1,-1],"split_conditions":[2.7266667E0,1.32E1,1.495E1,4.13E-2,7.33E0,6.84E-2,3.45E-2,3.0765E2,1.07E0,3.2E-1,8.75E0,3.036E2,1.346E-1,3.0377E2,9E0,-8.526425E-3,1.0002112E0,-1.5292053E-1,-4.5426685E-2,-5.8041524E-2,4.9805045E-1,1.8256857E0,5.235458E-1,-3.3718476E-1,7.697367E-1,-4.7182646E-2,2.6679945E-1,4.0489484E-2,1.9165684E0,3.1861886E-1,2.9570854E0],"split_indices":[7,6,6,5,3,5,5,4,1,2,3,4,5,4,3,0,0,0,0,0,0,0,0,0,0,0,0,0,0,0,0],"split_type":[0,0,0,0,0,0,0,0,0,0,0,0,0,0,0,0,0,0,0,0,0,0,0,0,0,0,0,0,0,0,0],"sum_hessian":[1.8418E4,1.6501E4,1.917E3,1.5623E4,8.78E2,1.82E3,9.7E1,4.5E3,1.1123E4,6.21E2,2.57E2,1.132E3,6.88E2,2.4E1,7.3E1,4.264E3,2.36E2,9.182E3,1.941E3,3.28E2,2.93E2,7.8E1,1.79E2,1.58E2,9.74E2,5.01E2,1.87E2,1.8E1,6E0,1.1E1,6.2E1],"tree_param":{"num_deleted":"0","num_feature":"11","num_nodes":"31","size_leaf_vector":"1"}},{"base_weights":[2.2203869E-3,-1.1051627E0,8.938163E0,-1.5532184E0,9.075925E0,6.8034725E0,3.0719234E1,6.794692E-1,-2.7552826E0,-8.2695055E-1,1.4449197E1,4.602315E0,1.940137E1,1.5043261E1,4.572052E1,-7.2542015E-3,9.568023E-1,-1.5237828E-1,-7.137464E-2,-1.1154091E-1,7.957606E-1,8.9861804E-1,-1.7999677E-1,7.54978E-1,1.297231E-1,1.6393734E0,2.431461E-1,3.5137004E-1,1.5036281E0,7.0684895E-2,2.716668E0],"categories":[],"categories_nodes":[],"categories_segments":[],"categories_sizes":[],"default_left":[0,0,0,0,0,0,0,0,0,0,0,0,0,0,0,0,0,0,0,0,0,0,0,0,0,0,0,0,0,0,0],"id":4,"left_children":[1,3,5,7,9,11,13,15,17,19,21,23,25,27,29,-1,-1,-1,-1,-1,-1,-1,-1,-1,-1,-1,-1,-1,-1,-1,-1],"loss_changes":[1.822753E5,7.477571E4,9.422406E4,4.2135375E4,3.6780645E4,5.123886E4,4.1876125E4,8.362805E4,3.9561094E3,5.7704263E3,2.8553055E4,3.3199133E4,5.3359164E4,1.0631219E4,3.5031094E4,0E0,0E0,0E0,0E0,0E0,0E0,0E0,0E0,0E0,0E0,0E0,0E0,0E0,0E0,0E0,0E0],"parents":[2147483647,0,0,1,1,2,2,3,3,4,4,5,5,6,6,7,7,8,8,9,9,10,10,11,11,12,12,13,13,14,14],"right_children":[2,4,6,8,10,12,14,16,18,20,22,24,26,28,30,-1,-1,-1,-1,-1,-1,-1,-1,-1,-1,-1,-1,-1,-1,-1,-1],"split_conditions":[2.73E0,1.43E1,1.25E1,4.57E-2,3.0439E2,1.184E1,1.375E1,3.0765E2,1E0,2.77E0,5.26E-2,-5.3E-1,5.69E-2,1.08E0,3.0371E2,-7.2542015E-3,9.568023E-1,-1.5237828E-1,-7.137464E-2,-1.1154091E-1,7.957606E-1,8.9861804E-1,-1.7999677E-1,7.54978E-1,1.297231E-1,1.6393734E0,2.431461E-1,3.5137004E-1,1.5036281E0,7.0684895E-2,2.716668E0],"split_indices":[1,6,6,5,4,0,3,4,1,8,5,2,5,2,4,0,0,0,0,0,0,0,0,0,0,0,0,0,0,0,0],"split_type":[0,0,0,0,0,0,0,0,0,0,0,0,0,0,0,0,0,0,0,0,0,0,0,0,0,0,0,0,0,0,0],"sum_hessian":[1.8418E4,1.6388E4,2.03E3,1.5698E4,6.9E2,1.85E3,1.8E2,5.494E3,1.0204E4,2.43E2,4.47E2,1.576E3,2.74E2,8.9E1,9.1E1,5.26E3,2.34E2,8.362E3,1.842E3,2.25E2,1.8E1,3.74E2,7.3E1,2.52E2,1.324E3,1.42E2,1.32E2,5.9E1,3E1,1.5E1,7.6E1],"tree_param":{"num_deleted":"0","num_feature":"11","num_nodes":"31","size_leaf_vector":"1"}},{"base_weights":[2.627066E-3,-1.0179915E0,8.783776E0,-1.4996735E0,7.544941E0,7.2159176E0,3.782753E1,7.9927343E-1,-2.4297402E0,3.5791738E0,1.7076578E1,4.853757E0,1.9081043E1,9.967706E0,4.6728447E1,-8.087777E-3,9.045183E-1,-1.3121437E-1,1.9255614E-2,-1.0451738E-2,5.2755624E-1,1.6943531E0,4.801886E-1,1.1117573E0,1.7343415E-1,1.5534761E0,2.1097992E-1,-2.6149812E-4,1.7806572E0,2.664266E-1,2.6936214E0],"categories":[],"categories_nodes":[],"categories_segments":[],"categories_sizes":[],"default_left":[0,0,0,0,0,0,0,0,0,0,0,0,0,0,0,0,0,0,0,0,0,0,0,0,0,0,0,0,0,0,0],"id":5,"left_children":[1,3,5,7,9,11,13,15,17,19,21,23,25,27,29,-1,-1,-1,-1,-1,-1,-1,-1,-1,-1,-1,-1,-1,-1,-1,-1],"loss_changes":[1.650838E5,6.807563E4,8.706606E4,3.340876E4,3.3165305E4,5.0945164E4,2.3836078E4,7.479713E4,6.092758E3,1.6429973E4,3.208489E4,3.651613E4,5.3675047E4,6.3941943E3,2.1599188E4,0E0,0E0,0E0,0E0,0E0,0E0,0E0,0E0,0E0,0E0,0E0,0E0,0E0,0E0,0E0,0E0],"parents":[2147483647,0,0,1,1,2,2,3,3,4,4,5,5,6,6,7,7,8,8,9,9,10,10,11,11,12,12,13,13,14,14],"right_children":[2,4,6,8,10,12,14,16,18,20,22,24,26,28,30,-1,-1,-1,-1,-1,-1,-1,-1,-1,-1,-1,-1,-1,-1,-1,-1],"split_conditions":[2.7266667E0,1.32E1,1.495E1,4.13E-2,7.33E0,1.168E1,3.45E-2,3.0765E2,2.11E0,5.1E-1,8.75E0,2.9E-2,5.69E-2,3.0377E2,9E0,-8.087777E-3,9.045183E-1,-1.3121437E-1,1.9255614E-2,-1.0451738E-2,5.2755624E-1,1.6943531E0,4.801886E-1,1.1117573E0,1.7343415E-1,1.5534761E0,2.1097992E-1,-2.6149812E-4,1.7806572E0,2.664266E-1,2.6936214E0],"split_indices":[7,6,6,5,3,0,5,4,1,9,3,5,5,4,3,0,0,0,0,0,0,0,0,0,0,0,0,0,0,0,0],"split_type":[0,0,0,0,0,0,0,0,0,0,0,0,0,0,0,0,0,0,0,0,0,0,0,0,0,0,0,0,0,0,0],"sum_hessian":[1.8418E4,1.6501E4,1.917E3,1.5623E4,8.78E2,1.82E3,9.7E1,4.5E3,1.1123E4,6.21E2,2.57E2,1.519E3,3.01E2,2.4E1,7.3E1,4.264E3,2.36E2,1.0404E4,7.19E2,4.03E2,2.18E2,7.8E1,1.79E2,1.11E2,1.408E3,1.66E2,1.35E2,1.8E1,6E0,1.1E1,6.2E1],"tree_param":{"num_deleted":"0","num_feature":"11","num_nodes":"31","size_leaf_vector":"1"}},{"base_weights":[3.1072018E-3,-1.0023329E0,8.116427E0,-1.4457321E0,7.4506145E0,6.162139E0,2.805716E1,8.695649E-1,-2.3876157E0,3.60249E0,1.6578999E1,1.0049612E1,1.10629134E-1,1.3726598E1,4.1771217E1,-1.7794342E-3,8.693418E-1,-1.2019272E-1,8.918399E-1,-1.5875213E-2,5.430936E-1,1.4263285E0,2.7678576E-1,-3.6118695E-1,6.334142E-1,-3.380157E-2,4.6707997E-1,4.2758542E-1,1.697553E0,6.404378E-2,2.4821155E0],"categories":[],"categories_nodes":[],"categories_segments":[],"categories_sizes":[],"default_left":[0,0,0,0,0,0,0,0,0,0,0,0,0,0,0,0,0,0,0,0,0,0,0,0,0,0,0,0,0,0,0],"id":6,"left_children":[1,3,5,7,9,11,13,15,17,19,21,23,25,27,29,-1,-1,-1,-1,-1,-1,-1,-1,-1,-1,-1,-1,-1,-1,-1,-1],"loss_changes":[1.5026036E5,6.1437242E4,7.897506E4,3.3962746E4,2.8639164E4,4.354382E4,3.499858E4,6.7338414E4,3.678461E3,1.6394531E4,3.1771664E4,5.1069367E4,5.271005E3,9.129006E3,2.9257125E4,0E0,0E0,0E0,0E0,0E0,0E0,0E0,0E0,0E0,0E0,0E0,0E0,0E0,0E0,0E0,0E0],"parents":[2147483647,0,0,1,1,2,2,3,3,4,4,5,5,6,6,7,7,8,8,9,9,10,10,11,11,12,12,13,13,14,14],"right_children":[2,4,6,8,10,12,14,16,18,20,22,24,26,28,30,-1,-1,-1,-1,-1,-1,-1,-1,-1,-1,-1,-1,-1,-1,-1,-1],"split_conditions":[2.73E0,1.37E1,1.25E1,4.13E-2,7.33E0,6.84E-2,1.375E1,3.0765E2,2.567E1,5.1E-1,1.04E0,3.036E2,1.1E1,1.51E0,3.0371E2,-1.7794342E-3,8.693418E-1,-1.2019272E-1,8.918399E-1,-1.5875213E-2,5.430936E-1,1.4263285E0,2.7678576E-1,-3.6118695E-1,6.334142E-1,-3.380157E-2,4.6707997E-1,4.2758542E-1,1.697553E0,6.404378E-2,2.4821155E0],"split_indices":[1,6,6,5,3,5,3,4,0,9,0,4,6,2,4,0,0,0,0,0,0,0,0,0,0,0,0,0,0,0,0],"split_type":[0,0,0,0,0,0,0,0,0,0,0,0,0,0,0,0,0,0,0,0,0,0,0,0,0,0,0,0,0,0,0],"sum_hessian":[1.8418E4,1.6388E4,2.03E3,1.5572E4,8.16E2,1.85E3,1.8E2,4.503E3,1.1069E4,5.75E2,2.41E2,1.126E3,7.24E2,8.9E1,9.1E1,4.27E3,2.33E2,1.1061E4,8E0,3.74E2,2.01E2,1.15E2,1.26E2,1.48E2,9.78E2,6.68E2,5.6E1,7.2E1,1.7E1,1.5E1,7.6E1],"tree_param":{"num_deleted":"0","num_feature":"11","num_nodes":"31","size_leaf_vector":"1"}},{"base_weights":[3.4537727E-3,-9.5979553E-1,7.7335157E0,-1.1729138E0,1.414216E1,1.4809439E1,2.3681583E0,8.026975E-1,-2.283759E0,4.6181574E0,3.695927E1,-6.1225266E0,1.8879171E1,3.340391E-1,9.119588E0,5.769217E-3,8.34799E-1,-1.2304187E-1,1.06117E-1,8.509936E-1,-2.9918391E-2,1.4297807E-1,2.217361E0,-3.4858862E-1,-8.4225135E-3,4.9691916E-1,1.9148983E0,-1.5344226E-1,1.10444E-1,2.2602187E-1,1.4112633E0],"categories":[],"categories_nodes":[],"categories_segments":[],"categories_sizes":[],"default_left":[0,0,0,0,0,0,0,0,0,0,0,0,0,0,0,0,0,0,0,0,0,0,0,0,0,0,0,0,0,0,0],"id":7,"left_children":[1,3,5,7,9,11,13,15,17,19,21,23,25,27,29,-1,-1,-1,-1,-1,-1,-1,-1,-1,-1,-1,-1,-1,-1,-1,-1],"loss_changes":[1.3715488E5,5.273245E4,7.7451195E4,3.5448996E4,4.9376055E4,7.508059E4,1.5954947E4,6.3508242E4,8.071953E3,1.0490588E4,1.6752281E4,7.269575E2,1.2757681E5,5.7103794E3,2.3509404E4,0E0,0E0,0E0,0E0,0E0,0E0,0E0,0E0,0E0,0E0,0E0,0E0,0E0,0E0,0E0,0E0],"parents":[2147483647,0,0,1,1,2,2,3,3,4,4,5,5,6,6,7,7,8,8,9,9,10,10,11,11,12,12,13,13,14,14],"right_children":[2,4,6,8,10,12,14,16,18,20,22,24,26,28,30,-1,-1,-1,-1,-1,-1,-1,-1,-1,-1,-1,-1,-1,-1,-1,-1],"split_conditions":[2.73E0,1.74E1,5.02E-2,4.57E-2,3.0526E2,3.0371E2,6.95E0,3.0765E2,2.12E0,2.86E-2,-1E-2,3.0354E2,1.2E1,8.25E0,3.0664E2,5.769217E-3,8.34799E-1,-1.2304187E-1,1.06117E-1,8.509936E-1,-2.9918391E-2,1.4297807E-1,2.217361E0,-3.4858862E-1,-8.4225135E-3,4.9691916E-1,1.9148983E0,-1.5344226E-1,1.10444E-1,2.2602187E-1,1.4112633E0],"split_indices":[10,6,5,5,4,4,1,4,7,5,9,4,3,3,4,0,0,0,0,0,0,0,0,0,0,0,0,0,0,0,0],"split_type":[0,0,0,0,0,0,0,0,0,0,0,0,0,0,0,0,0,0,0,0,0,0,0,0,0,0,0,0,0,0,0],"sum_hessian":[1.8418E4,1.6378E4,2.04E3,1.6151E4,2.27E2,8.79E2,1.161E3,5.813E3,1.0338E4,1.61E2,6.6E1,1.43E2,7.36E2,8.93E2,2.68E2,5.573E3,2.4E2,9.939E3,3.99E2,4.7E1,1.14E2,1.2E1,5.4E1,1.25E2,1.8E1,5.05E2,2.31E2,3.17E2,5.76E2,2.17E2,5.1E1],"tree_param":{"num_deleted":"0","num_feature":"11","num_nodes":"31","size_leaf_vector":"1"}},{"base_weights":[3.696545E-3,-9.105759E-1,7.3813467E0,-1.318935E0,6.8743525E0,5.571405E0,2.5849974E1,7.6756483E-1,-2.1677403E0,3.2544816E0,1.5461838E1,3.5578685E0,1.5969528E1,1.2852465E1,3.8283947E1,1.6666165E-2,1.4980985E0,-1.091632E-1,8.576711E-1,-7.348074E-2,4.197347E-1,1.3250512E0,2.6285267E-1,1.320548E0,1.3661174E-1,1.3085821E0,2.1397021E-1,2.9013225E-1,1.3041341E0,5.9882548E-2,2.2746499E0],"categories":[],"categories_nodes":[],"categories_segments":[],"categories_sizes":[],"default_left":[0,0,0,0,0,0,0,0,0,0,0,0,0,0,0,0,0,0,0,0,0,0,0,0,0,0,0,0,0,0,0],"id":8,"left_children":[1,3,5,7,9,11,13,15,17,19,21,23,25,27,29,-1,-1,-1,-1,-1,-1,-1,-1,-1,-1,-1,-1,-1,-1,-1,-1],"loss_changes":[1.2424624E5,5.2110453E4,6.77465E4,2.7581951E4,2.534661E4,3.8697574E4,2.8759477E4,5.7089125E4,3.3577344E3,1.3999262E4,2.7122598E4,2.9211416E4,3.5667188E4,8.243012E3,2.454236E4,0E0,0E0,0E0,0E0,0E0,0E0,0E0,0E0,0E0,0E0,0E0,0E0,0E0,0E0,0E0,0E0],"parents":[2147483647,0,0,1,1,2,2,3,3,4,4,5,5,6,6,7,7,8,8,9,9,10,10,11,11,12,12,13,13,14,14],"right_children":[2,4,6,8,10,12,14,16,18,20,22,24,26,28,30,-1,-1,-1,-1,-1,-1,-1,-1,-1,-1,-1,-1,-1,-1,-1,-1],"split_conditions":[2.73E0,1.37E1,1.25E1,4.13E-2,7.33E0,1.168E1,1.375E1,3.0814E2,2.567E1,3.2E-1,1.04E0,-1.49E0,5.69E-2,1.08E0,3.0371E2,1.6666165E-2,1.4980985E0,-1.091632E-1,8.576711E-1,-7.348074E-2,4.197347E-1,1.3250512E0,2.6285267E-1,1.320548E0,1.3661174E-1,1.3085821E0,2.1397021E-1,2.9013225E-1,1.3041341E0,5.9882548E-2,2.2746499E0],"split_indices":[1,6,6,5,3,0,3,4,0,2,0,2,5,2,4,0,0,0,0,0,0,0,0,0,0,0,0,0,0,0,0],"split_type":[0,0,0,0,0,0,0,0,0,0,0,0,0,0,0,0,0,0,0,0,0,0,0,0,0,0,0,0,0,0,0],"sum_hessian":[1.8418E4,1.6388E4,2.03E3,1.5572E4,8.16E2,1.85E3,1.8E2,4.503E3,1.1069E4,5.75E2,2.41E2,1.551E3,2.99E2,8.9E1,9.1E1,4.438E3,6.5E1,1.1061E4,8E0,3E2,2.75E2,1.15E2,1.26E2,5.3E1,1.498E3,1.59E2,1.4E2,5.9E1,3E1,1.5E1,7.6E1],"tree_param":{"num_deleted":"0","num_feature":"11","num_nodes":"31","size_leaf_vector":"1"}},{"base_weights":[4.114794E-3,-8.71921E-1,7.0342894E0,-1.312198E0,5.359967E0,1.354732E1,2.0958195E0,2.0852464E-1,-2.1055539E0,2.2853165E0,1.2664729E1,-6.0842257E0,1.7364681E1,2.1430549E-1,8.34109E0,-6.348648E-3,1.3687665E0,-1.14839636E-1,3.8182024E-2,5.419257E-2,7.799328E-1,1.4118208E0,3.4105664E-1,-3.4500787E-1,-1.765441E-2,4.564998E-1,1.7624985E0,-1.5043871E-1,9.9512935E-2,9.730069E-1,5.5176374E-2],"categories":[],"categories_nodes":[],"categories_segments":[],"categories_sizes":[],"default_left":[0,0,0,0,0,0,0,0,0,0,0,0,0,0,0,0,0,0,0,0,0,0,0,0,0,0,0,0,0,0,0],"id":9,"left_children":[1,3,5,7,9,11,13,15,17,19,21,23,25,27,29,-1,-1,-1,-1,-1,-1,-1,-1,-1,-1,-1,-1,-1,-1,-1,-1],"loss_changes":[1.13442945E5,4.494704E4,6.561916E4,1.8458287E4,2.4249873E4,6.6053484E4,1.3652368E4,4.781761E4,5.5184023E3,1.2171676E4,2.8925688E4,6.709385E2,1.0822336E5,5.1232783E3,2.162625E4,0E0,0E0,0E0,0E0,0E0,0E0,0E0,0E0,0E0,0E0,0E0,0E0,0E0,0E0,0E0,0E0],"parents":[2147483647,0,0,1,1,2,2,3,3,4,4,5,5,6,6,7,7,8,8,9,9,10,10,11,11,12,12,13,13,14,14],"right_children":[2,4,6,8,10,12,14,16,18,20,22,24,26,28,30,-1,-1,-1,-1,-1,-1,-1,-1,-1,-1,-1,-1,-1,-1,-1,-1],"split_conditions":[2.73E0,1.25E1,5.02E-2,4.57E-2,7.33E0,3.0371E2,6.95E0,3.0814E2,2.11E0,4.16E0,8.75E0,3.0354E2,1.2E1,8.25E0,6.64E-2,-6.348648E-3,1.3687665E0,-1.14839636E-1,3.8182024E-2,5.419257E-2,7.799328E-1,1.4118208E0,3.4105664E-1,-3.4500787E-1,-1.765441E-2,4.564998E-1,1.7624985E0,-1.5043871E-1,9.9512935E-2,9.730069E-1,5.5176374E-2],"split_indices":[10,6,5,5,3,4,1,4,1,0,3,4,3,3,5,0,0,0,0,0,0,0,0,0,0,0,0,0,0,0,0],"split_type":[0,0,0,0,0,0,0,0,0,0,0,0,0,0,0,0,0,0,0,0,0,0,0,0,0,0,0,0,0,0,0],"sum_hessian":[1.8418E4,1.6378E4,2.04E3,1.5298E4,1.08E3,8.79E2,1.161E3,5.245E3,1.0053E4,7.61E2,3.19E2,1.43E2,7.36E2,8.93E2,2.68E2,5.182E3,6.3E1,9.425E3,6.28E2,6.99E2,6.2E1,8.6E1,2.33E2,1.25E2,1.8E1,5.05E2,2.31E2,3.17E2,5.76E2,1.05E2,1.63E2],"tree_param":{"num_deleted":"0","num_feature":"11","num_nodes":"31","size_leaf_vector":"1"}},{"base_weights":[4.2730463E-3,-7.686947E-1,7.216758E0,-1.1586928E0,6.576179E0,5.9107685E0,3.2918533E1,7.1773875E-1,-1.9158634E0,2.8735301E0,1.48567295E1,3.8088572E0,1.5536609E1,3.972654E1,-1.9544566E0,-4.7832425E-3,7.587267E-1,-1.0107255E-1,6.2474098E-2,-2.6002327E-2,4.5975828E-1,1.9654974E0,5.920721E-1,1.4901661E0,1.4998583E-1,-3.1141853E-1,1.0292257E0,7.6765215E-1,2.4402854E0,-2.8995466E-1,-1.4608296E-3],"categories":[],"categories_nodes":[],"categories_segments":[],"categories_sizes":[],"default_left":[0,0,0,0,0,0,0,0,0,0,0,0,0,0,0,0,0,0,0,0,0,0,0,0,0,0,0,0,0,0,0],"id":10,"left_children":[1,3,5,7,9,11,13,15,17,19,21,23,25,27,29,-1,-1,-1,-1,-1,-1,-1,-1,-1,-1,-1,-1,-1,-1,-1,-1],"loss_changes":[1.02691805E5,4.7664086E4,5.9654023E4,2.244826E4,2.5681027E4,3.429589E4,2.0495375E4,5.342354E4,3.7648477E3,1.2468949E4,1.8631484E4,2.9251875E4,3.352793E4,1.5183648E4,1.1085828E2,0E0,0E0,0E0,0E0,0E0,0E0,0E0,0E0,0E0,0E0,0E0,0E0,0E0,0E0,0E0,0E0],"parents":[2147483647,0,0,1,1,2,2,3,3,4,4,5,5,6,6,7,7,8,8,9,9,10,10,11,11,12,12,13,13,14,14],"right_children":[2,4,6,8,10,12,14,16,18,20,22,24,26,28,30,-1,-1,-1,-1,-1,-1,-1,-1,-1,-1,-1,-1,-1,-1,-1,-1],"split_conditions":[3.1E0,1.37E1,1.495E1,4.13E-2,7.33E0,1.168E1,1.286E1,3.0765E2,2.46E0,5.1E-1,7.86E0,-1.49E0,3.0354E2,1.05E1,1.357E1,-4.7832425E-3,7.587267E-1,-1.0107255E-1,6.2474098E-2,-2.6002327E-2,4.5975828E-1,1.9654974E0,5.920721E-1,1.4901661E0,1.4998583E-1,-3.1141853E-1,1.0292257E0,7.6765215E-1,2.4402854E0,-2.8995466E-1,-1.4608296E-3],"split_indices":[1,6,6,5,3,0,0,4,1,9,3,2,4,3,0,0,0,0,0,0,0,0,0,0,0,0,0,0,0,0,0],"split_type":[0,0,0,0,0,0,0,0,0,0,0,0,0,0,0,0,0,0,0,0,0,0,0,0,0,0,0,0,0,0,0],"sum_hessian":[1.8418E4,1.6636E4,1.782E3,1.5798E4,8.38E2,1.697E3,8.5E1,4.542E3,1.1256E4,5.8E2,2.58E2,1.394E3,3.03E2,7.1E1,1.4E1,4.301E3,2.41E2,1.0893E4,3.63E2,3.78E2,2.02E2,2.7E1,2.31E2,4.1E1,1.353E3,5.7E1,2.46E2,2E1,5.1E1,4E0,1E1],"tree_param":{"num_deleted":"0","num_feature":"11","num_nodes":"31","size_leaf_vector":"1"}},{"base_weights":[4.546885E-3,-7.924156E-1,6.400159E0,-9.7586334E-1,1.2206881E1,1.2461802E1,1.8040783E0,2.4786506E0,-1.4664701E0,3.5252945E0,3.3015987E1,3.0011625E0,1.9513784E1,9.115969E-2,7.49012E0,-1.862018E-1,5.4188937E-1,-8.535595E-2,1.7619894E-1,7.6113784E-1,-6.938896E-2,7.700987E-2,1.9927715E0,-1.3096547E-1,3.8648266E-1,-2.8243706E-1,1.3276595E0,-1.477535E-1,8.849298E-2,8.946177E-1,3.605271E-2],"categories":[],"categories_nodes":[],"categories_segments":[],"categories_sizes":[],"default_left":[0,0,0,0,0,0,0,0,0,0,0,0,0,0,0,0,0,0,0,0,0,0,0,0,0,0,0,0,0,0,0],"id":11,"left_children":[1,3,5,7,9,11,13,15,17,19,21,23,25,27,29,-1,-1,-1,-1,-1,-1,-1,-1,-1,-1,-1,-1,-1,-1,-1,-1],"loss_changes":[9.3887875E4,3.907077E4,5.683936E4,2.7378172E4,4.1073195E4,5.8651734E4,1.1316881E4,1.0420522E5,1.69922E4,9.331346E3,1.4362156E4,1.0039529E4,8.9423125E4,4.576883E3,1.8928305E4,0E0,0E0,0E0,0E0,0E0,0E0,0E0,0E0,0E0,0E0,0E0,0E0,0E0,0E0,0E0,0E0],"parents":[2147483647,0,0,1,1,2,2,3,3,4,4,5,5,6,6,7,7,8,8,9,9,10,10,11,11,12,12,13,13,14,14],"right_children":[2,4,6,8,10,12,14,16,18,20,22,24,26,28,30,-1,-1,-1,-1,-1,-1,-1,-1,-1,-1,-1,-1,-1,-1,-1,-1],"split_conditions":[2.73E0,1.74E1,5.02E-2,2.9E-2,3.0526E2,8.5E0,6.95E0,2.73E-2,3.0765E2,2.86E-2,-1E-2,3.66E-2,3.0373E2,8.25E0,6.64E-2,-1.862018E-1,5.4188937E-1,-8.535595E-2,1.7619894E-1,7.6113784E-1,-6.938896E-2,7.700987E-2,1.9927715E0,-1.3096547E-1,3.8648266E-1,-2.8243706E-1,1.3276595E0,-1.477535E-1,8.849298E-2,8.946177E-1,3.605271E-2],"split_indices":[10,6,5,5,4,3,1,5,4,5,9,5,4,3,5,0,0,0,0,0,0,0,0,0,0,0,0,0,0,0,0],"split_type":[0,0,0,0,0,0,0,0,0,0,0,0,0,0,0,0,0,0,0,0,0,0,0,0,0,0,0,0,0,0,0],"sum_hessian":[1.8418E4,1.6378E4,2.04E3,1.6151E4,2.27E2,8.79E2,1.161E3,2.008E3,1.4143E4,1.61E2,6.6E1,3.76E2,5.03E2,8.93E2,2.68E2,1.153E3,8.55E2,1.3493E4,6.5E2,4.7E1,1.14E2,1.2E1,5.4E1,1.72E2,2.04E2,1.1E2,3.93E2,3.17E2,5.76E2,1.05E2,1.63E2],"tree_param":{"num_deleted":"0","num_feature":"11","num_nodes":"31","size_leaf_vector":"1"}},{"base_weights":[4.6114763E-3,-6.9870645E-1,6.5672E0,-1.0552088E0,6.0153337E0,5.35268E0,3.0470537E1,4.5579767E-1,-1.8536583E0,2.5568078E0,1.3750423E1,-5.693407E0,6.9239097E0,3.6820763E1,-2.0419123E0,-9.149916E-3,7.1190906E-1,-1.0779162E-1,-3.0114476E-2,-7.424034E-2,3.498865E-1,1.1350397E0,3.2224566E-1,-3.5878032E-1,-5.557102E-2,8.890793E-1,1.7641853E-1,7.211544E-1,2.2578943E0,-3.3146283E-1,1.1443621E-2],"categories":[],"categories_nodes":[],"categories_segments":[],"categories_sizes":[],"default_left":[0,0,0,0,0,0,0,0,0,0,0,0,0,0,0,0,0,0,0,0,0,0,0,0,0,0,0,0,0,0,0],"id":12,"left_children":[1,3,5,7,9,11,13,15,17,19,21,23,25,27,29,-1,-1,-1,-1,-1,-1,-1,-1,-1,-1,-1,-1,-1,-1,-1,-1],"loss_changes":[8.501907E4,3.982819E4,5.1599305E4,1.9061744E4,2.240978E4,2.95098E4,1.7830867E4,4.8099574E4,3.9074414E3,1.0438468E4,1.6788938E4,1.4318057E3,5.4759477E4,1.2793391E4,1.5777031E2,0E0,0E0,0E0,0E0,0E0,0E0,0E0,0E0,0E0,0E0,0E0,0E0,0E0,0E0,0E0,0E0],"parents":[2147483647,0,0,1,1,2,2,3,3,4,4,5,5,6,6,7,7,8,8,9,9,10,10,11,11,12,12,13,13,14,14],"right_children":[2,4,6,8,10,12,14,16,18,20,22,24,26,28,30,-1,-1,-1,-1,-1,-1,-1,-1,-1,-1,-1,-1,-1,-1,-1,-1],"split_conditions":[3.1E0,1.37E1,1.495E1,4.57E-2,7.33E0,3.036E2,1.286E1,3.0765E2,1E0,3.2E-1,1.04E0,3.0307E2,3.0467E2,1.05E1,1.357E1,-9.149916E-3,7.1190906E-1,-1.0779162E-1,-3.0114476E-2,-7.424034E-2,3.498865E-1,1.1350397E0,3.2224566E-1,-3.5878032E-1,-5.557102E-2,8.890793E-1,1.7641853E-1,7.211544E-1,2.2578943E0,-3.3146283E-1,1.1443621E-2],"split_indices":[1,6,6,5,3,4,0,4,1,2,0,4,4,3,0,0,0,0,0,0,0,0,0,0,0,0,0,0,0,0,0],"split_type":[0,0,0,0,0,0,0,0,0,0,0,0,0,0,0,0,0,0,0,0,0,0,0,0,0,0,0,0,0,0,0],"sum_hessian":[1.8418E4,1.6636E4,1.782E3,1.5798E4,8.38E2,1.697E3,8.5E1,5.462E3,1.0336E4,5.8E2,2.58E2,2.11E2,1.486E3,7.1E1,1.4E1,5.221E3,2.41E2,8.325E3,2.011E3,3.04E2,2.76E2,1.15E2,1.43E2,1.59E2,5.2E1,3.53E2,1.133E3,2E1,5.1E1,4E0,1E1],"tree_param":{"num_deleted":"0","num_feature":"11","num_nodes":"31","size_leaf_vector":"1"}},{"base_weights":[4.6853367E-3,-7.2086704E-1,5.827232E0,-8.894357E-1,1.1224057E1,4.25774E0,2.1365093E1,2.293008E0,-1.3414041E0,3.0566769E0,3.0804527E1,7.499434E0,-6.921876E-1,3.814099E0,2.827844E1,-1.7811254E-1,5.091992E-1,-7.804466E-2,1.6051255E-1,7.0737475E-1,-7.9955705E-2,7.543113E-1,2.1960335E0,2.3016138E-2,6.0233945E-1,-7.437464E-2,4.0598342E-1,3.4889433E-1,-3.3503804E-1,-2.8970052E-2,1.5960425E0],"categories":[],"categories_nodes":[],"categories_segments":[],"categories_sizes":[],"default_left":[0,0,0,0,0,0,0,0,0,0,0,0,0,0,0,0,0,0,0,0,0,0,0,0,0,0,0,0,0,0,0],"id":13,"left_children":[1,3,5,7,9,11,13,15,17,19,21,23,25,27,29,-1,-1,-1,-1,-1,-1,-1,-1,-1,-1,-1,-1,-1,-1,-1,-1],"loss_changes":[7.781641E4,3.2989758E4,4.9681977E4,2.3235527E4,3.636786E4,2.9770805E4,2.2581984E4,9.2859516E4,1.4135416E4,8.387741E3,1.3150355E4,3.5876918E4,5.1630415E3,1.8431632E3,1.4103531E4,0E0,0E0,0E0,0E0,0E0,0E0,0E0,0E0,0E0,0E0,0E0,0E0,0E0,0E0,0E0,0E0],"parents":[2147483647,0,0,1,1,2,2,3,3,4,4,5,5,6,6,7,7,8,8,9,9,10,10,11,11,12,12,13,13,14,14],"right_children":[2,4,6,8,10,12,14,16,18,20,22,24,26,28,30,-1,-1,-1,-1,-1,-1,-1,-1,-1,-1,-1,-1,-1,-1,-1,-1],"split_conditions":[2.73E0,1.74E1,1.25E1,2.9E-2,3.0526E2,6.71E-2,8.25E0,2.73E-2,3.0765E2,2.86E-2,3E0,8.25E0,1.1E1,5.36E0,3.0371E2,-1.7811254E-1,5.091992E-1,-7.804466E-2,1.6051255E-1,7.0737475E-1,-7.9955705E-2,7.543113E-1,2.1960335E0,2.3016138E-2,6.0233945E-1,-7.437464E-2,4.0598342E-1,3.4889433E-1,-3.3503804E-1,-2.8970052E-2,1.5960425E0],"split_indices":[10,6,6,5,4,5,3,5,4,5,3,3,6,1,4,0,0,0,0,0,0,0,0,0,0,0,0,0,0,0,0],"split_type":[0,0,0,0,0,0,0,0,0,0,0,0,0,0,0,0,0,0,0,0,0,0,0,0,0,0,0,0,0,0,0],"sum_hessian":[1.8418E4,1.6378E4,2.04E3,1.6151E4,2.27E2,1.854E3,1.86E2,2.008E3,1.4143E4,1.61E2,6.6E1,1.12E3,7.34E2,5.3E1,1.33E2,1.153E3,8.55E2,1.3493E4,6.5E2,4.7E1,1.14E2,3.1E1,3.5E1,4.4E2,6.8E2,6.74E2,6E1,4.1E1,1.2E1,1.5E1,1.18E2],"tree_param":{"num_deleted":"0","num_feature":"11","num_nodes":"31","size_leaf_vector":"1"}},{"base_weights":[4.8056394E-3,-7.349099E-1,5.254345E0,-1.109401E0,4.542252E0,4.372757E0,2.4793573E1,1.9232233E-1,-1.793408E0,1.8052353E0,1.09801655E1,2.7759428E0,1.3773047E1,2.9754782E1,-2.492289E0,-5.658745E-3,1.2340802E0,-9.050971E-2,8.412014E-1,3.8788382E-2,7.418646E-1,1.0405091E0,1.4881833E-1,1.0229741E0,1.1032479E-1,1.1547341E0,1.23924665E-1,4.760008E-1,2.05144E0,-3.5474572E-1,1.2240286E-2],"categories":[],"categories_nodes":[],"categories_segments":[],"categories_sizes":[],"default_left":[0,0,0,0,0,0,0,0,0,0,0,0,0,0,0,0,0,0,0,0,0,0,0,0,0,0,0,0,0,0,0],"id":14,"left_children":[1,3,5,7,9,11,13,15,17,19,21,23,25,27,29,-1,-1,-1,-1,-1,-1,-1,-1,-1,-1,-1,-1,-1,-1,-1,-1],"loss_changes":[7.15279E4,3.1911602E4,3.907971E4,1.3423832E4,1.88343E4,3.2654672E4,1.33405E4,3.886122E4,3.119045E3,1.0077385E4,2.5036172E4,1.8714965E4,3.3212406E4,1.854396E4,2.0330205E2,0E0,0E0,0E0,0E0,0E0,0E0,0E0,0E0,0E0,0E0,0E0,0E0,0E0,0E0,0E0,0E0],"parents":[2147483647,0,0,1,1,2,2,3,3,4,4,5,5,6,6,7,7,8,8,9,9,10,10,11,11,12,12,13,13,14,14],"right_children":[2,4,6,8,10,12,14,16,18,20,22,24,26,28,30,-1,-1,-1,-1,-1,-1,-1,-1,-1,-1,-1,-1,-1,-1,-1,-1],"split_conditions":[2.46E0,1.25E1,1.495E1,4.57E-2,7.33E0,1.168E1,1.286E1,3.0814E2,2.567E1,4.16E0,1.04E0,-1.49E0,5.69E-2,1.05E1,1.357E1,-5.658745E-3,1.2340802E0,-9.050971E-2,8.412014E-1,3.8788382E-2,7.418646E-1,1.0405091E0,1.4881833E-1,1.0229741E0,1.1032479E-1,1.1547341E0,1.23924665E-1,4.760008E-1,2.05144E0,-3.5474572E-1,1.2240286E-2],"split_indices":[1,6,6,5,3,0,0,4,0,0,0,2,5,3,0,0,0,0,0,0,0,0,0,0,0,0,0,0,0,0,0],"split_type":[0,0,0,0,0,0,0,0,0,0,0,0,0,0,0,0,0,0,0,0,0,0,0,0,0,0,0,0,0,0,0],"sum_hessian":[1.8418E4,1.6144E4,2.274E3,1.5075E4,1.069E3,2.177E3,9.7E1,5.193E3,9.882E3,7.51E2,3.18E2,1.862E3,3.15E2,8.2E1,1.5E1,5.13E3,6.3E1,9.874E3,8E0,6.97E2,5.4E1,1.42E2,1.76E2,5.7E1,1.805E3,1.72E2,1.43E2,3E1,5.2E1,5E0,1E1],"tree_param":{"num_deleted":"0","num_feature":"11","num_nodes":"31","size_leaf_vector":"1"}},{"base_weights":[5.029312E-3,-6.979198E-1,4.9936485E0,-8.6243856E-1,1.0444019E1,4.1552267E0,2.3576189E1,2.3234239E0,-1.3174998E0,3.0989897E0,2.8815153E1,2.637754E0,1.3088442E1,2.8297493E1,-2.3890812E0,-1.6608919E-1,4.930446E-1,-7.710276E-2,1.680403E-1,6.6193634E-1,-4.579083E-2,-3.0904738E-2,1.7624096E0,3.4867713E-1,2.163232E-2,1.0973312E0,1.1777147E-1,4.529685E-1,1.9508032E0,-3.3996466E-1,1.1683903E-2],"categories":[],"categories_nodes":[],"categories_segments":[],"categories_sizes":[],"default_left":[0,0,0,0,0,0,0,0,0,0,0,0,0,0,0,0,0,0,0,0,0,0,0,0,0,0,0,0,0,0,0],"id":15,"left_children":[1,3,5,7,9,11,13,15,17,19,21,23,25,27,29,-1,-1,-1,-1,-1,-1,-1,-1,-1,-1,-1,-1,-1,-1,-1,-1],"loss_changes":[6.4594227E4,2.9603727E4,3.534655E4,2.3070234E4,3.1620783E4,2.9490246E4,1.2081414E4,8.466584E4,1.463183E4,6.8919595E3,1.2707918E4,1.7808902E4,2.9991996E4,1.6761562E4,1.8665962E2,0E0,0E0,0E0,0E0,0E0,0E0,0E0,0E0,0E0,0E0,0E0,0E0,0E0,0E0,0E0,0E0],"parents":[2147483647,0,0,1,1,2,2,3,3,4,4,5,5,6,6,7,7,8,8,9,9,10,10,11,11,12,12,13,13,14,14],"right_children":[2,4,6,8,10,12,14,16,18,20,22,24,26,28,30,-1,-1,-1,-1,-1,-1,-1,-1,-1,-1,-1,-1,-1,-1,-1,-1],"split_conditions":[2.46E0,1.74E1,1.495E1,2.9E-2,3.0526E2,1.168E1,1.286E1,2.73E-2,3.0765E2,2.86E-2,-1E-2,4.57E-2,5.69E-2,1.05E1,1.357E1,-1.6608919E-1,4.930446E-1,-7.710276E-2,1.680403E-1,6.6193634E-1,-4.579083E-2,-3.0904738E-2,1.7624096E0,3.4867713E-1,2.163232E-2,1.0973312E0,1.1777147E-1,4.529685E-1,1.9508032E0,-3.3996466E-1,1.1683903E-2],"split_indices":[1,6,6,5,4,0,0,5,4,5,9,5,5,3,0,0,0,0,0,0,0,0,0,0,0,0,0,0,0,0,0],"split_type":[0,0,0,0,0,0,0,0,0,0,0,0,0,0,0,0,0,0,0,0,0,0,0,0,0,0,0,0,0,0,0],"sum_hessian":[1.8418E4,1.6144E4,2.274E3,1.591E4,2.34E2,2.177E3,9.7E1,1.988E3,1.3922E4,1.68E2,6.6E1,1.862E3,3.15E2,8.2E1,1.5E1,1.137E3,8.51E2,1.3285E4,6.37E2,4.7E1,1.21E2,1.2E1,5.4E1,6.27E2,1.235E3,1.72E2,1.43E2,3E1,5.2E1,5E0,1E1],"tree_param":{"num_deleted":"0","num_feature":"11","num_nodes":"31","size_leaf_vector":"1"}},{"base_weights":[5.1266933E-3,-6.0483843E-1,5.2531137E0,-9.410734E-1,4.1502023E0,3.8814597E0,1.863961E1,2.4126957E-1,-1.5578907E0,1.5887748E0,1.0227682E1,-6.055814E0,5.3980904E0,1.0538006E0,2.3566177E1,-1.4350909E-1,1.2816073E-1,-9.192442E-2,-2.0394923E-2,3.0765949E-2,6.430601E-1,1.126684E0,2.7254495E-1,-3.6082044E-1,-7.988793E-2,7.898109E-1,1.0601232E-1,7.3304105E-1,-1.6847773E-1,-5.971963E-2,1.3398389E0],"categories":[],"categories_nodes":[],"categories_segments":[],"categories_sizes":[],"default_left":[0,0,0,0,0,0,0,0,0,0,0,0,0,0,0,0,0,0,0,0,0,0,0,0,0,0,0,0,0,0,0],"id":16,"left_children":[1,3,5,7,9,11,13,15,17,19,21,23,25,27,29,-1,-1,-1,-1,-1,-1,-1,-1,-1,-1,-1,-1,-1,-1,-1,-1],"loss_changes":[5.896404E4,2.6387484E4,3.5145277E4,1.1240913E4,1.6951809E4,2.6271604E4,1.5396672E4,3.8189465E4,3.2677285E3,8.419512E3,1.8864105E4,1.1836631E3,5.1466586E4,2.4569478E3,1.11508125E4,0E0,0E0,0E0,0E0,0E0,0E0,0E0,0E0,0E0,0E0,0E0,0E0,0E0,0E0,0E0,0E0],"parents":[2147483647,0,0,1,1,2,2,3,3,4,4,5,5,6,6,7,7,8,8,9,9,10,10,11,11,12,12,13,13,14,14],"right_children":[2,4,6,8,10,12,14,16,18,20,22,24,26,28,30,-1,-1,-1,-1,-1,-1,-1,-1,-1,-1,-1,-1,-1,-1,-1,-1],"split_conditions":[2.7266667E0,1.25E1,1.25E1,4.57E-2,7.33E0,3.036E2,7.86E0,5.1E0,1E0,4.16E0,8.75E0,3.0314E2,3.0467E2,3.0432E2,3.0371E2,-1.4350909E-1,1.2816073E-1,-9.192442E-2,-2.0394923E-2,3.0765949E-2,6.430601E-1,1.126684E0,2.7254495E-1,-3.6082044E-1,-7.988793E-2,7.898109E-1,1.0601232E-1,7.3304105E-1,-1.6847773E-1,-5.971963E-2,1.3398389E0],"split_indices":[7,6,6,5,3,4,3,6,1,0,3,4,4,4,4,0,0,0,0,0,0,0,0,0,0,0,0,0,0,0,0],"split_type":[0,0,0,0,0,0,0,0,0,0,0,0,0,0,0,0,0,0,0,0,0,0,0,0,0,0,0,0,0,0,0],"sum_hessian":[1.8418E4,1.6501E4,1.917E3,1.5412E4,1.089E3,1.74E3,1.77E2,5.284E3,1.0128E4,7.67E2,3.22E2,2.3E2,1.51E3,3.9E1,1.38E2,2.258E3,3.026E3,8.141E3,1.987E3,7.07E2,6E1,8.9E1,2.33E2,1.82E2,4.8E1,3.61E2,1.149E3,9E0,3E1,1.6E1,1.22E2],"tree_param":{"num_deleted":"0","num_feature":"11","num_nodes":"31","size_leaf_vector":"1"}},{"base_weights":[5.100764E-3,-3.9549887E-1,7.404755E0,1.3577864E0,-1.4034126E0,-4.4707856E0,9.507737E0,-2.635421E0,3.673471E0,-1.5095754E0,5.6824436E0,-6.8549657E0,1.4258127E0,2.0131628E1,4.7328153E0,-1.440095E-1,3.442349E-1,-7.2247826E-2,3.1996575E-1,-8.706863E-2,1.1915765E-2,3.0544026E-2,7.726204E-1,-2.7664202E-1,-5.5778104E-1,1.68951E0,-9.650853E-2,1.3261961E0,6.1973125E-2,4.925088E-1,-4.618981E-2],"categories":[],"categories_nodes":[],"categories_segments":[],"categories_sizes":[],"default_left":[0,0,0,0,0,0,0,0,0,0,0,0,0,0,0,0,0,0,0,0,0,0,0,0,0,0,0,0,0,0,0],"id":17,"left_children":[1,3,5,7,9,11,13,15,17,19,21,23,25,27,29,-1,-1,-1,-1,-1,-1,-1,-1,-1,-1,-1,-1,-1,-1,-1,-1],"loss_changes":[5.4602348E4,3.0881268E4,2.366796E4,5.899635E4,8.355586E3,2.0201472E3,4.0690227E4,5.4772207E3,5.6347566E4,4.4299863E3,8.1165947E3,5.182505E2,4.627023E3,3.0037422E4,1.6103588E4,0E0,0E0,0E0,0E0,0E0,0E0,0E0,0E0,0E0,0E0,0E0,0E0,0E0,0E0,0E0,0E0],"parents":[2147483647,0,0,1,1,2,2,3,3,4,4,5,5,6,6,7,7,8,8,9,9,10,10,11,11,12,12,13,13,14,14],"right_children":[2,4,6,8,10,12,14,16,18,20,22,24,26,28,30,-1,-1,-1,-1,-1,-1,-1,-1,-1,-1,-1,-1,-1,-1,-1,-1],"split_conditions":[4.3233333E0,4.57E-2,3.036E2,5.1E0,1.184E1,3.0314E2,3.0467E2,3.0742E2,3.0435E2,1.5E1,2.72E0,1.124E1,3.032E2,6.44E-2,6.2E0,-1.440095E-1,3.442349E-1,-7.2247826E-2,3.1996575E-1,-8.706863E-2,1.1915765E-2,3.0544026E-2,7.726204E-1,-2.7664202E-1,-5.5778104E-1,1.68951E0,-9.650853E-2,1.3261961E0,6.1973125E-2,4.925088E-1,-4.618981E-2],"split_indices":[8,5,4,6,0,4,4,4,4,3,1,0,4,5,6,0,0,0,0,0,0,0,0,0,0,0,0,0,0,0,0],"split_type":[0,0,0,0,0,0,0,0,0,0,0,0,0,0,0,0,0,0,0,0,0,0,0,0,0,0,0,0,0,0,0],"sum_hessian":[1.8418E4,1.7473E4,9.45E2,6.378E3,1.1095E4,1.42E2,8.03E2,2.341E3,4.037E3,1.0932E4,1.63E2,1.01E2,4.1E1,2.48E2,5.55E2,2.283E3,5.8E1,1.403E3,2.634E3,9.652E3,1.28E3,1.08E2,5.5E1,7.9E1,2.2E1,3E0,3.8E1,1.85E2,6.3E1,2.91E2,2.64E2],"tree_param":{"num_deleted":"0","num_feature":"11","num_nodes":"31","size_leaf_vector":"1"}},{"base_weights":[5.0503593E-3,-6.143144E-1,4.400496E0,-7.627748E-1,9.440019E0,7.13067E0,-3.3424795E-1,2.1321828E0,-1.1762854E0,2.5867856E0,2.6585636E1,2.702967E0,1.3848644E1,1.271121E1,-7.3697007E-1,-1.5368567E-1,4.541548E-1,-6.9283925E-2,1.5930264E-1,6.088786E-1,-6.039209E-2,-5.968953E-2,1.6334155E0,9.79743E-1,3.8974557E-2,-2.504356E-1,8.971519E-1,8.159074E-2,1.61133E0,-7.898616E-2,2.8068075E-1],"categories":[],"categories_nodes":[],"categories_segments":[],"categories_sizes":[],"default_left":[0,0,0,0,0,0,0,0,0,0,0,0,0,0,0,0,0,0,0,0,0,0,0,0,0,0,0,0,0,0,0],"id":18,"left_children":[1,3,5,7,9,11,13,15,17,19,21,23,25,27,29,-1,-1,-1,-1,-1,-1,-1,-1,-1,-1,-1,-1,-1,-1,-1,-1],"loss_changes":[5.01463E4,2.4106367E4,2.9410566E4,1.9049496E4,2.7544412E4,4.2884883E4,4.3856953E3,7.200134E4,1.2722279E4,6.165203E3,1.1360195E4,2.8284516E4,4.4330875E4,5.35288E3,4.338616E3,0E0,0E0,0E0,0E0,0E0,0E0,0E0,0E0,0E0,0E0,0E0,0E0,0E0,0E0,0E0,0E0],"parents":[2147483647,0,0,1,1,2,2,3,3,4,4,5,5,6,6,7,7,8,8,9,9,10,10,11,11,12,12,13,13,14,14],"right_children":[2,4,6,8,10,12,14,16,18,20,22,24,26,28,30,-1,-1,-1,-1,-1,-1,-1,-1,-1,-1,-1,-1,-1,-1,-1,-1],"split_conditions":[2.46E0,1.74E1,6.84E-2,2.9E-2,3.0526E2,1.2E1,2.5E0,2.73E-2,3.0765E2,2.86E-2,-1E-2,-1.16E0,3.036E2,1.375E1,1.1E1,-1.5368567E-1,4.541548E-1,-6.9283925E-2,1.5930264E-1,6.088786E-1,-6.039209E-2,-5.968953E-2,1.6334155E0,9.79743E-1,3.8974557E-2,-2.504356E-1,8.971519E-1,8.159074E-2,1.61133E0,-7.898616E-2,2.8068075E-1],"split_indices":[1,6,5,5,4,3,1,5,4,5,9,2,4,3,6,0,0,0,0,0,0,0,0,0,0,0,0,0,0,0,0],"split_type":[0,0,0,0,0,0,0,0,0,0,0,0,0,0,0,0,0,0,0,0,0,0,0,0,0,0,0,0,0,0,0],"sum_hessian":[1.8418E4,1.6144E4,2.274E3,1.591E4,2.34E2,1.442E3,8.32E2,1.988E3,1.3922E4,1.68E2,6.6E1,8.7E2,5.72E2,2.4E1,8.08E2,1.137E3,8.51E2,1.3285E4,6.37E2,4.7E1,1.21E2,1.2E1,5.4E1,8.8E1,7.82E2,1.02E2,4.7E2,1.6E1,8E0,7.14E2,9.4E1],"tree_param":{"num_deleted":"0","num_feature":"11","num_nodes":"31","size_leaf_vector":"1"}},{"base_weights":[5.1275417E-3,-3.6346504E-1,6.813565E0,-6.9767934E-1,4.359254E0,1.6047878E0,1.0969613E1,5.430429E-1,-1.3411229E0,1.2749404E0,1.0925638E1,6.052026E0,-3.386865E0,1.6911028E1,8.79932E-1,-1.2448063E-1,1.3698722E-1,-7.1396135E-2,2.7462804E-1,3.5512075E-1,-1.4117591E-2,7.456375E-1,-4.9467557E-3,6.321278E-1,-2.3770776E-2,4.642491E-1,-2.8456232E-1,-1.6271065E-1,1.0739465E0,-6.90598E-2,8.571116E-1],"categories":[],"categories_nodes":[],"categories_segments":[],"categories_sizes":[],"default_left":[0,0,0,0,0,0,0,0,0,0,0,0,0,0,0,0,0,0,0,0,0,0,0,0,0,0,0,0,0,0,0],"id":19,"left_children":[1,3,5,7,9,11,13,15,17,19,21,23,25,27,29,-1,-1,-1,-1,-1,-1,-1,-1,-1,-1,-1,-1,-1,-1,-1,-1],"loss_changes":[4.6225684E4,2.7584006E4,2.0461336E4,1.3029551E4,2.3378041E4,9.366306E3,3.1517227E4,3.7139914E4,6.3825605E3,7.1440938E3,1.6221309E4,9.599315E3,5.863795E3,3.0559242E4,7.2308203E3,0E0,0E0,0E0,0E0,0E0,0E0,0E0,0E0,0E0,0E0,0E0,0E0,0E0,0E0,0E0,0E0],"parents":[2147483647,0,0,1,1,2,2,3,3,4,4,5,5,6,6,7,7,8,8,9,9,10,10,11,11,12,12,13,13,14,14],"right_children":[2,4,6,8,10,12,14,16,18,20,22,24,26,28,30,-1,-1,-1,-1,-1,-1,-1,-1,-1,-1,-1,-1,-1,-1,-1,-1],"split_conditions":[4.3233333E0,1.25E1,1.2E1,4.57E-2,7.33E0,7.3E0,6.64E-2,5.1E0,1.224E1,2.86E-2,5.32E-2,5.34E0,4.38E0,3.0371E2,1.02E1,-1.2448063E-1,1.3698722E-1,-7.1396135E-2,2.7462804E-1,3.5512075E-1,-1.4117591E-2,7.456375E-1,-4.9467557E-3,6.321278E-1,-2.3770776E-2,4.642491E-1,-2.8456232E-1,-1.6271065E-1,1.0739465E0,-6.90598E-2,8.571116E-1],"split_indices":[8,6,3,5,3,6,5,6,0,5,5,10,1,4,6,0,0,0,0,0,0,0,0,0,0,0,0,0,0,0,0],"split_type":[0,0,0,0,0,0,0,0,0,0,0,0,0,0,0,0,0,0,0,0,0,0,0,0,0,0,0,0,0,0,0],"sum_hessian":[1.8418E4,1.7473E4,9.45E2,1.6319E4,1.154E3,4.2E2,5.25E2,5.573E3,1.0746E4,7.86E2,3.68E2,2.22E2,1.98E2,3.3E2,1.95E2,2.341E3,3.232E3,1.0612E4,1.34E2,1.65E2,6.21E2,2.7E2,9.8E1,1.1E2,1.12E2,3E1,1.68E2,6.1E1,2.69E2,1.72E2,2.3E1],"tree_param":{"num_deleted":"0","num_feature":"11","num_nodes":"31","size_leaf_vector":"1"}},{"base_weights":[5.076653E-3,-5.3431636E-1,4.3336964E0,-6.640093E-1,8.655747E0,8.924533E0,8.532575E-1,1.7962857E0,-1.0134202E0,1.843217E0,2.4998646E1,-5.737845E0,1.1824918E1,-5.290288E-1,5.4440036E0,-1.4997025E-1,4.129703E-1,-5.955529E-2,1.3356107E-1,5.600556E-1,-1.03935756E-1,-6.804213E-2,1.5387275E0,-3.261007E-1,-3.7979964E-2,1.15368485E-1,9.9389744E-1,-1.5479665E-1,4.4328853E-2,9.555479E-2,1.0075173E0],"categories":[],"categories_nodes":[],"categories_segments":[],"categories_sizes":[],"default_left":[0,0,0,0,0,0,0,0,0,0,0,0,0,0,0,0,0,0,0,0,0,0,0,0,0,0,0,0,0,0,0],"id":20,"left_children":[1,3,5,7,9,11,13,15,17,19,21,23,25,27,29,-1,-1,-1,-1,-1,-1,-1,-1,-1,-1,-1,-1,-1,-1,-1,-1],"loss_changes":[4.3007492E4,1.9527654E4,3.2603746E4,1.3886953E4,2.5338639E4,3.7491195E4,7.3766123E3,6.229398E4,9.263364E3,5.9688506E3,1.0242621E4,5.64999E2,5.628829E4,3.2512947E3,1.3937696E4,0E0,0E0,0E0,0E0,0E0,0E0,0E0,0E0,0E0,0E0,0E0,0E0,0E0,0E0,0E0,0E0],"parents":[2147483647,0,0,1,1,2,2,3,3,4,4,5,5,6,6,7,7,8,8,9,9,10,10,11,11,12,12,13,13,14,14],"right_children":[2,4,6,8,10,12,14,16,18,20,22,24,26,28,30,-1,-1,-1,-1,-1,-1,-1,-1,-1,-1,-1,-1,-1,-1,-1,-1],"split_conditions":[2.73E0,1.74E1,5.02E-2,2.9E-2,3.0526E2,3.0373E2,6.95E0,2.73E-2,3.0765E2,2.86E-2,-1E-2,3.0354E2,8.25E0,8.25E0,3.0664E2,-1.4997025E-1,4.129703E-1,-5.955529E-2,1.3356107E-1,5.600556E-1,-1.03935756E-1,-6.804213E-2,1.5387275E0,-3.261007E-1,-3.7979964E-2,1.15368485E-1,9.9389744E-1,-1.5479665E-1,4.4328853E-2,9.555479E-2,1.0075173E0],"split_indices":[10,6,5,5,4,4,1,5,4,5,9,4,3,3,4,0,0,0,0,0,0,0,0,0,0,0,0,0,0,0,0],"split_type":[0,0,0,0,0,0,0,0,0,0,0,0,0,0,0,0,0,0,0,0,0,0,0,0,0,0,0,0,0,0,0],"sum_hessian":[1.8418E4,1.6378E4,2.04E3,1.6151E4,2.27E2,8.79E2,1.161E3,2.008E3,1.4143E4,1.61E2,6.6E1,1.45E2,7.34E2,8.93E2,2.68E2,1.153E3,8.55E2,1.3493E4,6.5E2,4.7E1,1.14E2,1.2E1,5.4E1,1.25E2,2E1,3.37E2,3.97E2,3.17E2,5.76E2,2.17E2,5.1E1],"tree_param":{"num_deleted":"0","num_feature":"11","num_nodes":"31","size_leaf_vector":"1"}},{"base_weights":[5.040011E-3,-5.4438275E-1,3.9041283E0,-6.743076E-1,8.254674E0,2.9000237E0,1.4422438E1,1.8769757E0,-1.0387282E0,2.0545197E0,2.3770664E1,-6.5241017E0,3.8026545E0,2.594124E0,2.0183687E1,-1.3839576E-1,4.039432E-1,-6.1414447E-2,1.4551981E-1,-1.1529446E-1,4.447169E-1,5.089582E-1,1.7595853E0,-2.613163E-1,-6.222051E-1,4.523556E-1,7.545239E-2,1.054789E0,-2.3917459E-1,1.0375607E-1,1.159179E0],"categories":[],"categories_nodes":[],"categories_segments":[],"categories_sizes":[],"default_left":[0,0,0,0,0,0,0,0,0,0,0,0,0,0,0,0,0,0,0,0,0,0,0,0,0,0,0,0,0,0,0],"id":21,"left_children":[1,3,5,7,9,11,13,15,17,19,21,23,25,27,29,-1,-1,-1,-1,-1,-1,-1,-1,-1,-1,-1,-1,-1,-1,-1,-1],"loss_changes":[3.9460188E4,1.846279E4,2.3985547E4,1.4795047E4,2.2558523E4,1.7701328E4,1.3440523E4,5.731967E4,1.04263125E4,5.060834E3,1.0042125E4,1.3332383E3,2.2804836E4,9.109786E3,7.1769453E3,0E0,0E0,0E0,0E0,0E0,0E0,0E0,0E0,0E0,0E0,0E0,0E0,0E0,0E0,0E0,0E0],"parents":[2147483647,0,0,1,1,2,2,3,3,4,4,5,5,6,6,7,7,8,8,9,9,10,10,11,11,12,12,13,13,14,14],"right_children":[2,4,6,8,10,12,14,16,18,20,22,24,26,28,30,-1,-1,-1,-1,-1,-1,-1,-1,-1,-1,-1,-1,-1,-1,-1,-1],"split_conditions":[2.46E0,1.74E1,1.25E1,2.9E-2,3.0526E2,3.0314E2,6.1E0,2.73E-2,3.0765E2,3.0458E2,3E0,1.168E1,4.65E-2,3.0432E2,3.32E-2,-1.3839576E-1,4.039432E-1,-6.1414447E-2,1.4551981E-1,-1.1529446E-1,4.447169E-1,5.089582E-1,1.7595853E0,-2.613163E-1,-6.222051E-1,4.523556E-1,7.545239E-2,1.054789E0,-2.3917459E-1,1.0375607E-1,1.159179E0],"split_indices":[1,6,6,5,4,4,0,5,4,4,3,0,5,4,5,0,0,0,0,0,0,0,0,0,0,0,0,0,0,0,0],"split_type":[0,0,0,0,0,0,0,0,0,0,0,0,0,0,0,0,0,0,0,0,0,0,0,0,0,0,0,0,0,0,0],"sum_hessian":[1.8418E4,1.6144E4,2.274E3,1.591E4,2.34E2,2.077E3,1.97E2,1.988E3,1.3922E4,1.68E2,6.6E1,1.81E2,1.896E3,6.5E1,1.32E2,1.137E3,8.51E2,1.3285E4,6.37E2,1.03E2,6.5E1,3.1E1,3.5E1,1.5E2,3.1E1,5.76E2,1.32E3,1.8E1,4.7E1,1.9E1,1.13E2],"tree_param":{"num_deleted":"0","num_feature":"11","num_nodes":"31","size_leaf_vector":"1"}},{"base_weights":[5.0415494E-3,-3.2069084E-1,6.0217886E0,-6.170146E-1,3.8666027E0,-6.627465E-2,9.163491E0,4.819772E-1,-1.1869563E0,1.0603907E0,9.841188E0,6.710867E0,-3.179798E0,1.37828245E1,1.7652026E0,-1.17395714E-1,1.2659071E-1,-6.340372E-2,2.5994596E-1,3.129778E-1,-1.6443629E-2,1.9769277E-1,8.354787E-1,2.4059236E-1,2.129474E0,-2.514782E-1,1.1966252E-1,-3.1650043E-1,8.874962E-1,2.32423E0,1.5134023E-3],"categories":[],"categories_nodes":[],"categories_segments":[],"categories_sizes":[],"default_left":[0,0,0,0,0,0,0,0,0,0,0,0,0,0,0,0,0,0,0,0,0,0,0,0,0,0,0,0,0,0,0],"id":22,"left_children":[1,3,5,7,9,11,13,15,17,19,21,23,25,27,29,-1,-1,-1,-1,-1,-1,-1,-1,-1,-1,-1,-1,-1,-1,-1,-1],"loss_changes":[3.610039E4,2.1684025E4,1.809464E4,1.0222788E4,1.9354242E4,6.8368936E3,2.1300973E4,3.2339695E4,5.5736465E3,5.686567E3,1.4854992E4,6.7447534E3,2.3005981E3,3.0751555E4,1.8696633E4,0E0,0E0,0E0,0E0,0E0,0E0,0E0,0E0,0E0,0E0,0E0,0E0,0E0,0E0,0E0,0E0],"parents":[2147483647,0,0,1,1,2,2,3,3,4,4,5,5,6,6,7,7,8,8,9,9,10,10,11,11,12,12,13,13,14,14],"right_children":[2,4,6,8,10,12,14,16,18,20,22,24,26,28,30,-1,-1,-1,-1,-1,-1,-1,-1,-1,-1,-1,-1,-1,-1,-1,-1],"split_conditions":[4.3233333E0,1.25E1,6.13E0,4.57E-2,7.33E0,-2.3E-1,6.71E-2,5.1E0,1.224E1,2.86E-2,3.9333335E-1,1.15E1,5.76E0,3.036E2,4.39E0,-1.17395714E-1,1.2659071E-1,-6.340372E-2,2.5994596E-1,3.129778E-1,-1.6443629E-2,1.9769277E-1,8.354787E-1,2.4059236E-1,2.129474E0,-2.514782E-1,1.1966252E-1,-3.1650043E-1,8.874962E-1,2.32423E0,1.5134023E-3],"split_indices":[8,6,0,5,3,2,5,6,0,5,7,6,10,4,1,0,0,0,0,0,0,0,0,0,0,0,0,0,0,0,0],"split_type":[0,0,0,0,0,0,0,0,0,0,0,0,0,0,0,0,0,0,0,0,0,0,0,0,0,0,0,0,0,0,0],"sum_hessian":[1.8418E4,1.7473E4,9.45E2,1.6319E4,1.154E3,3.22E2,6.23E2,5.573E3,1.0746E4,7.86E2,3.68E2,1.01E2,2.21E2,3.83E2,2.4E2,2.341E3,3.232E3,1.0612E4,1.34E2,1.65E2,6.21E2,1.99E2,1.69E2,9.7E1,4E0,1.66E2,5.5E1,6.3E1,3.2E2,8E0,2.32E2],"tree_param":{"num_deleted":"0","num_feature":"11","num_nodes":"31","size_leaf_vector":"1"}},{"base_weights":[5.1515587E-3,-5.352595E-1,3.3395426E0,-6.6123843E-1,8.629706E0,-4.562412E0,4.410051E0,1.6602256E0,-1.0020208E0,2.3370135E0,2.2495102E1,-5.6838675E0,-1.706927E0,1.3025031E1,1.5560567E0,-1.3411514E-1,3.7326083E-1,-5.8652855E-2,1.310563E-1,-1.165659E-1,4.6502802E-1,-1.2388841E-1,1.399439E0,-2.3309408E-1,-5.1536983E-1,7.4254763E-1,-1.6606E-1,9.616311E-3,8.9934796E-1,-3.4085892E-2,2.210841E-1],"categories":[],"categories_nodes":[],"categories_segments":[],"categories_sizes":[],"default_left":[0,0,0,0,0,0,0,0,0,0,0,0,0,0,0,0,0,0,0,0,0,0,0,0,0,0,0,0,0,0,0],"id":23,"left_children":[1,3,5,7,9,11,13,15,17,19,21,23,25,27,29,-1,-1,-1,-1,-1,-1,-1,-1,-1,-1,-1,-1,-1,-1,-1,-1],"loss_changes":[3.3191754E4,1.8307152E4,2.175157E4,1.2372315E4,1.870632E4,9.734043E2,5.5620355E4,5.0487117E4,8.453155E3,4.865396E3,9.261273E3,9.914888E2,2.4014695E3,3.584553E4,1.0910887E4,0E0,0E0,0E0,0E0,0E0,0E0,0E0,0E0,0E0,0E0,0E0,0E0,0E0,0E0,0E0,0E0],"parents":[2147483647,0,0,1,1,2,2,3,3,4,4,5,5,6,6,7,7,8,8,9,9,10,10,11,11,12,12,13,13,14,14],"right_children":[2,4,6,8,10,12,14,16,18,20,22,24,26,28,30,-1,-1,-1,-1,-1,-1,-1,-1,-1,-1,-1,-1,-1,-1,-1,-1],"split_conditions":[2.0733333E0,1.74E1,3.036E2,2.9E-2,3.0526E2,3.0307E2,3.0467E2,2.73E-2,3.0765E2,3.0458E2,-1E-2,1.168E1,3.032E2,8.25E0,6.1E0,-1.3411514E-1,3.7326083E-1,-5.8652855E-2,1.310563E-1,-1.165659E-1,4.6502802E-1,-1.2388841E-1,1.399439E0,-2.3309408E-1,-5.1536983E-1,7.4254763E-1,-1.6606E-1,9.616311E-3,8.9934796E-1,-3.4085892E-2,2.210841E-1],"split_indices":[7,6,4,5,4,4,4,5,4,4,9,0,4,3,0,0,0,0,0,0,0,0,0,0,0,0,0,0,0,0,0],"split_type":[0,0,0,0,0,0,0,0,0,0,0,0,0,0,0,0,0,0,0,0,0,0,0,0,0,0,0,0,0,0,0],"sum_hessian":[1.8418E4,1.585E4,2.568E3,1.5636E4,2.14E2,3.06E2,2.262E3,2.001E3,1.3635E4,1.48E2,6.6E1,2.19E2,8.7E1,5.62E2,1.7E3,1.145E3,8.56E2,1.3021E4,6.14E2,8.9E1,5.9E1,1.2E1,5.4E1,1.81E2,3.8E1,7E0,8E1,1.57E2,4.05E2,9.55E2,7.45E2],"tree_param":{"num_deleted":"0","num_feature":"11","num_nodes":"31","size_leaf_vector":"1"}},{"base_weights":[5.049282E-3,-4.7613043E-1,3.4198365E0,-5.9038424E-1,7.2616105E0,5.691163E0,-5.1887167E-1,1.6578469E0,-9.1151774E-1,1.6176906E0,2.1389385E1,1.9380182E0,1.1386273E1,1.2259228E1,-9.131036E-1,-1.2460581E-1,3.5994634E-1,-5.4141935E-2,1.328788E-1,4.9584833E-1,-8.304291E-2,4.3159786E-1,1.6067585E0,8.3676356E-1,1.2680376E-2,-2.1233709E-1,7.390391E-1,8.568918E-2,1.5408132E0,-9.289975E-3,-3.5941097E-1],"categories":[],"categories_nodes":[],"categories_segments":[],"categories_sizes":[],"default_left":[0,0,0,0,0,0,0,0,0,0,0,0,0,0,0,0,0,0,0,0,0,0,0,0,0,0,0,0,0,0,0],"id":24,"left_children":[1,3,5,7,9,11,13,15,17,19,21,23,25,27,29,-1,-1,-1,-1,-1,-1,-1,-1,-1,-1,-1,-1,-1,-1,-1,-1],"loss_changes":[3.0266373E4,1.4277543E4,2.035531E4,1.1488973E4,1.8703367E4,3.0821438E4,4.2074604E3,4.5755547E4,8.516243E3,4.61489E3,8.907541E3,2.1705129E4,3.0469836E4,4.839491E3,3.6908735E3,0E0,0E0,0E0,0E0,0E0,0E0,0E0,0E0,0E0,0E0,0E0,0E0,0E0,0E0,0E0,0E0],"parents":[2147483647,0,0,1,1,2,2,3,3,4,4,5,5,6,6,7,7,8,8,9,9,10,10,11,11,12,12,13,13,14,14],"right_children":[2,4,6,8,10,12,14,16,18,20,22,24,26,28,30,-1,-1,-1,-1,-1,-1,-1,-1,-1,-1,-1,-1,-1,-1,-1,-1],"split_conditions":[2.46E0,1.74E1,6.84E-2,2.9E-2,3.0526E2,1.2E1,2.5E0,2.73E-2,3.0765E2,2.86E-2,3E0,-1.16E0,3.036E2,1.375E1,3.0814E2,-1.2460581E-1,3.5994634E-1,-5.4141935E-2,1.328788E-1,4.9584833E-1,-8.304291E-2,4.3159786E-1,1.6067585E0,8.3676356E-1,1.2680376E-2,-2.1233709E-1,7.390391E-1,8.568918E-2,1.5408132E0,-9.289975E-3,-3.5941097E-1],"split_indices":[1,6,5,5,4,3,1,5,4,5,3,2,4,3,4,0,0,0,0,0,0,0,0,0,0,0,0,0,0,0,0],"split_type":[0,0,0,0,0,0,0,0,0,0,0,0,0,0,0,0,0,0,0,0,0,0,0,0,0,0,0,0,0,0,0],"sum_hessian":[1.8418E4,1.6144E4,2.274E3,1.591E4,2.34E2,1.442E3,8.32E2,1.988E3,1.3922E4,1.68E2,6.6E1,8.7E2,5.72E2,2.4E1,8.08E2,1.137E3,8.51E2,1.3285E4,6.37E2,4.7E1,1.21E2,3.1E1,3.5E1,8.8E1,7.82E2,1.02E2,4.7E2,1.6E1,8E0,7.25E2,8.3E1],"tree_param":{"num_deleted":"0","num_feature":"11","num_nodes":"31","size_leaf_vector":"1"}},{"base_weights":[5.0899866E-3,-2.8197035E-1,5.3075075E0,-5.467812E-1,3.4600163E0,7.078259E0,-3.7051315E0,-2.7442417E0,-2.878825E-1,2.539753E0,2.0512032E1,1.7474943E0,1.2052842E1,-6.169618E0,1.680859E1,-1.9358113E-1,-5.092572E-2,6.362527E-2,-5.1575948E-2,1.0661068E-1,1.4970433E0,3.7515557E-1,1.6855404E0,3.129787E-1,-1.583219E-1,-4.3239962E-2,7.772849E-1,1.0910326E0,-3.6839646E-1,-3.1592318E-1,2.1808167E0],"categories":[],"categories_nodes":[],"categories_segments":[],"categories_sizes":[],"default_left":[0,0,0,0,0,0,0,0,0,0,0,0,0,0,0,0,0,0,0,0,0,0,0,0,0,0,0,0,0,0,0],"id":25,"left_children":[1,3,5,7,9,11,13,15,17,19,21,23,25,27,29,-1,-1,-1,-1,-1,-1,-1,-1,-1,-1,-1,-1,-1,-1,-1,-1],"loss_changes":[2.803731E4,1.7317201E4,1.5123574E4,9.283977E3,1.8072562E4,2.0954938E4,7.990406E3,3.3424062E3,1.6943746E4,1.2186394E4,9.877471E3,8.511718E3,1.84673E4,4.8565205E3,1.0815317E4,0E0,0E0,0E0,0E0,0E0,0E0,0E0,0E0,0E0,0E0,0E0,0E0,0E0,0E0,0E0,0E0],"parents":[2147483647,0,0,1,1,2,2,3,3,4,4,5,5,6,6,7,7,8,8,9,9,10,10,11,11,12,12,13,13,14,14],"right_children":[2,4,6,8,10,12,14,16,18,20,22,24,26,28,30,-1,-1,-1,-1,-1,-1,-1,-1,-1,-1,-1,-1,-1,-1,-1,-1],"split_conditions":[4.3233333E0,1.25E1,1.67E0,3.036E2,1.6E1,1.2E1,3.0679E2,6.41E-2,4.57E-2,3.0711E2,1.1E0,7.3E0,5.28E0,3.49E-2,1.56E1,-1.9358113E-1,-5.092572E-2,6.362527E-2,-5.1575948E-2,1.0661068E-1,1.4970433E0,3.7515557E-1,1.6855404E0,3.129787E-1,-1.583219E-1,-4.3239962E-2,7.772849E-1,1.0910326E0,-3.6839646E-1,-3.1592318E-1,2.1808167E0],"split_indices":[8,6,2,4,3,3,4,5,5,4,10,6,0,5,0,0,0,0,0,0,0,0,0,0,0,0,0,0,0,0,0],"split_type":[0,0,0,0,0,0,0,0,0,0,0,0,0,0,0,0,0,0,0,0,0,0,0,0,0,0,0,0,0,0,0],"sum_hessian":[1.8418E4,1.7473E4,9.45E2,1.6319E4,1.154E3,7.9E2,1.55E2,1.719E3,1.46E4,1.096E3,5.8E1,3.82E2,4.08E2,1.39E2,1.6E1,1.039E3,6.8E2,4.712E3,9.888E3,1.081E3,1.5E1,3E1,2.8E1,1.99E2,1.83E2,8.7E1,3.21E2,5E0,1.34E2,9E0,7E0],"tree_param":{"num_deleted":"0","num_feature":"11","num_nodes":"31","size_leaf_vector":"1"}},{"base_weights":[5.2105077E-3,-4.7277302E-1,2.954417E0,-5.8487463E-1,7.682604E0,-4.26445E0,3.9324274E0,1.4570472E0,-8.846211E-1,-2.4175377E0,1.4836018E1,-5.24149E0,-1.6509864E0,1.1817796E1,1.3202025E0,-1.220166E-1,3.3335057E-1,-5.1892556E-2,1.180653E-1,-2.0993225E-1,1.160887E0,-2.8173158E-1,9.610263E-1,-2.1404994E-1,-4.7643566E-1,1.2513154E0,-1.6386752E-1,7.741857E-3,8.1637377E-1,-3.4354594E-1,9.95554E-2],"categories":[],"categories_nodes":[],"categories_segments":[],"categories_sizes":[],"default_left":[0,0,0,0,0,0,0,0,0,0,0,0,0,0,0,0,0,0,0,0,0,0,0,0,0,0,0,0,0,0,0],"id":26,"left_children":[1,3,5,7,9,11,13,15,17,19,21,23,25,27,29,-1,-1,-1,-1,-1,-1,-1,-1,-1,-1,-1,-1,-1,-1,-1,-1],"loss_changes":[2.5966146E4,1.4495969E4,1.815424E4,9.572054E3,1.5569722E4,7.752578E2,4.6598477E4,4.066729E4,6.784634E3,4.2068096E3,1.1417275E4,8.774863E2,3.7699138E3,2.9609133E4,9.361474E3,0E0,0E0,0E0,0E0,0E0,0E0,0E0,0E0,0E0,0E0,0E0,0E0,0E0,0E0,0E0,0E0],"parents":[2147483647,0,0,1,1,2,2,3,3,4,4,5,5,6,6,7,7,8,8,9,9,10,10,11,11,12,12,13,13,14,14],"right_children":[2,4,6,8,10,12,14,16,18,20,22,24,26,28,30,-1,-1,-1,-1,-1,-1,-1,-1,-1,-1,-1,-1,-1,-1,-1,-1],"split_conditions":[2.0733333E0,1.74E1,3.036E2,2.9E-2,3.0458E2,3.0314E2,3.0467E2,2.73E-2,3.0765E2,1.94E0,-1E-2,1.168E1,3.032E2,8.25E0,3.63E-2,-1.220166E-1,3.3335057E-1,-5.1892556E-2,1.180653E-1,-2.0993225E-1,1.160887E0,-2.8173158E-1,9.610263E-1,-2.1404994E-1,-4.7643566E-1,1.2513154E0,-1.6386752E-1,7.741857E-3,8.1637377E-1,-3.4354594E-1,9.95554E-2],"split_indices":[7,6,4,5,4,4,4,5,4,8,9,0,4,3,5,0,0,0,0,0,0,0,0,0,0,0,0,0,0,0,0],"split_type":[0,0,0,0,0,0,0,0,0,0,0,0,0,0,0,0,0,0,0,0,0,0,0,0,0,0,0,0,0,0,0],"sum_hessian":[1.8418E4,1.585E4,2.568E3,1.5636E4,2.14E2,3.06E2,2.262E3,2.001E3,1.3635E4,8.9E1,1.25E2,2.22E2,8.4E1,5.62E2,1.7E3,1.145E3,8.56E2,1.3021E4,6.14E2,8.4E1,5E0,2.2E1,1.03E2,1.83E2,3.9E1,4E0,8E1,1.57E2,4.05E2,1.28E2,1.572E3],"tree_param":{"num_deleted":"0","num_feature":"11","num_nodes":"31","size_leaf_vector":"1"}},{"base_weights":[5.106654E-3,-4.2003146E-1,3.0221834E0,-5.208989E-1,6.411124E0,5.1309757E0,-6.344909E-1,1.4625329E0,-8.042089E-1,1.175695E0,1.952122E1,1.7604314E0,1.0245484E1,1.1765865E1,-1.0169067E0,-4.7343083E-2,4.6585098E-1,-4.7888782E-2,1.1974978E-1,4.434927E-1,-9.305761E-2,3.7062943E-1,1.4871095E0,2.2121525E0,6.0781777E-2,3.1029555E-1,1.0501897E0,8.501418E-2,1.4735657E0,-1.1580235E-1,1.1518897E-1],"categories":[],"categories_nodes":[],"categories_segments":[],"categories_sizes":[],"default_left":[0,0,0,0,0,0,0,0,0,0,0,0,0,0,0,0,0,0,0,0,0,0,0,0,0,0,0,0,0,0,0],"id":27,"left_children":[1,3,5,7,9,11,13,15,17,19,21,23,25,27,29,-1,-1,-1,-1,-1,-1,-1,-1,-1,-1,-1,-1,-1,-1,-1,-1],"loss_changes":[2.3626846E4,1.1127908E4,1.754616E4,8.941982E3,1.6106739E4,2.4857375E4,3.962128E3,3.7649766E4,6.842546E3,3.9653599E3,8.071584E3,2.0104947E4,2.4771645E4,4.405282E3,3.495391E3,0E0,0E0,0E0,0E0,0E0,0E0,0E0,0E0,0E0,0E0,0E0,0E0,0E0,0E0,0E0,0E0],"parents":[2147483647,0,0,1,1,2,2,3,3,4,4,5,5,6,6,7,7,8,8,9,9,10,10,11,11,12,12,13,13,14,14],"right_children":[2,4,6,8,10,12,14,16,18,20,22,24,26,28,30,-1,-1,-1,-1,-1,-1,-1,-1,-1,-1,-1,-1,-1,-1,-1,-1],"split_conditions":[2.46E0,1.74E1,6.84E-2,2.9E-2,3.0526E2,1.2E1,2.5E0,2.79E-2,3.0765E2,2.86E-2,3E0,2.47E0,6.96E0,1.375E1,1.346E-1,-4.7343083E-2,4.6585098E-1,-4.7888782E-2,1.1974978E-1,4.434927E-1,-9.305761E-2,3.7062943E-1,1.4871095E0,2.2121525E0,6.0781777E-2,3.1029555E-1,1.0501897E0,8.501418E-2,1.4735657E0,-1.1580235E-1,1.1518897E-1],"split_indices":[1,6,5,5,4,3,1,5,4,5,3,1,8,3,5,0,0,0,0,0,0,0,0,0,0,0,0,0,0,0,0],"split_type":[0,0,0,0,0,0,0,0,0,0,0,0,0,0,0,0,0,0,0,0,0,0,0,0,0,0,0,0,0,0,0],"sum_hessian":[1.8418E4,1.6144E4,2.274E3,1.591E4,2.34E2,1.442E3,8.32E2,1.988E3,1.3922E4,1.68E2,6.6E1,8.7E2,5.72E2,2.4E1,8.08E2,1.522E3,4.66E2,1.3285E4,6.37E2,4.7E1,1.21E2,3.1E1,3.5E1,1E1,8.6E2,4.17E2,1.55E2,1.6E1,8E0,5.81E2,2.27E2],"tree_param":{"num_deleted":"0","num_feature":"11","num_nodes":"31","size_leaf_vector":"1"}},{"base_weights":[5.279687E-3,-3.7787652E-1,3.0801008E0,-4.682568E-1,6.0265107E0,6.876556E0,2.0233788E-1,-3.541631E-1,-4.783219E0,8.003769E-1,1.8572886E1,-4.9709563E0,9.220584E0,8.264586E-1,-8.602823E0,-2.2730889E-2,1.0457214E0,-8.8477415E-1,-2.2433329E-1,4.2178002E-1,-1.1967295E-1,1.1271513E0,-4.7586128E-1,-1.9221506E-1,-4.4322658E-1,7.5858873E-1,9.5619755E-3,-2.7663747E-2,8.2400894E-1,-3.3460537E-1,-1.3376985E0],"categories":[],"categories_nodes":[],"categories_segments":[],"categories_sizes":[],"default_left":[0,0,0,0,0,0,0,0,0,0,0,0,0,0,0,0,0,0,0,0,0,0,0,0,0,0,0,0,0,0,0],"id":28,"left_children":[1,3,5,7,9,11,13,15,17,19,21,23,25,27,29,-1,-1,-1,-1,-1,-1,-1,-1,-1,-1,-1,-1,-1,-1,-1,-1],"loss_changes":[2.1701264E4,9.483484E3,2.2297146E4,7.9500977E3,1.4934875E4,2.4484223E4,6.392862E3,3.3632066E4,1.51354E3,3.9706658E3,7.686494E3,6.063828E2,3.9492582E4,2.3464502E4,2.4914497E3,0E0,0E0,0E0,0E0,0E0,0E0,0E0,0E0,0E0,0E0,0E0,0E0,0E0,0E0,0E0,0E0],"parents":[2147483647,0,0,1,1,2,2,3,3,4,4,5,5,6,6,7,7,8,8,9,9,10,10,11,11,12,12,13,13,14,14],"right_children":[2,4,6,8,10,12,14,16,18,20,22,24,26,28,30,-1,-1,-1,-1,-1,-1,-1,-1,-1,-1,-1,-1,-1,-1,-1,-1],"split_conditions":[2.73E0,1.74E1,5.02E-2,3.082E2,3.0526E2,3.0373E2,3.0814E2,3.0814E2,3.32E-2,2.86E-2,1.9E1,1.168E1,3.0493E2,3.0679E2,1.374E1,-2.2730889E-2,1.0457214E0,-8.8477415E-1,-2.2433329E-1,4.2178002E-1,-1.1967295E-1,1.1271513E0,-4.7586128E-1,-1.9221506E-1,-4.4322658E-1,7.5858873E-1,9.5619755E-3,-2.7663747E-2,8.2400894E-1,-3.3460537E-1,-1.3376985E0],"split_indices":[10,6,5,4,4,4,4,4,5,5,6,0,4,4,1,0,0,0,0,0,0,0,0,0,0,0,0,0,0,0,0],"split_type":[0,0,0,0,0,0,0,0,0,0,0,0,0,0,0,0,0,0,0,0,0,0,0,0,0,0,0,0,0,0,0],"sum_hessian":[1.8418E4,1.6378E4,2.04E3,1.6151E4,2.27E2,8.79E2,1.161E3,1.5736E4,4.15E2,1.61E2,6.6E1,1.45E2,7.34E2,1.085E3,7.6E1,1.5663E4,7.3E1,8E0,4.07E2,4.7E1,1.14E2,5.8E1,8E0,1.14E2,3.1E1,4.42E2,2.92E2,9.98E2,8.7E1,7E1,6E0],"tree_param":{"num_deleted":"0","num_feature":"11","num_nodes":"31","size_leaf_vector":"1"}},{"base_weights":[5.0224434E-3,-2.8131232E-1,3.8814986E0,-4.0124387E-1,6.503411E0,6.4035946E-1,9.489244E0,-2.7056274E-1,-4.8211627E0,1.0135368E1,-6.9342995E0,-2.209252E0,2.4614139E0,1.2738174E1,-1.0822043E0,-2.2217711E-2,4.1294017E-1,-8.454509E-1,-2.2912411E-1,-1.4029264E-1,8.6765206E-1,-4.549323E-1,4.6767303E-1,-1.371917E-1,1.0813978E0,1.821966E-1,-2.0731036E-1,1.1103692E-1,8.341899E-1,-2.0282148E-1,2.7035162E-1],"categories":[],"categories_nodes":[],"categories_segments":[],"categories_sizes":[],"default_left":[0,0,0,0,0,0,0,0,0,0,0,0,0,0,0,0,0,0,0,0,0,0,0,0,0,0,0,0,0,0,0],"id":29,"left_children":[1,3,5,7,9,11,13,15,17,19,21,23,25,27,29,-1,-1,-1,-1,-1,-1,-1,-1,-1,-1,-1,-1,-1,-1,-1,-1],"loss_changes":[2.0445625E4,1.3960046E4,2.3022266E4,9.734721E3,1.46142295E4,4.177633E3,1.5950277E4,2.4273879E4,1.3189199E3,2.199898E4,2.3412554E3,4.0606255E3,3.8516028E3,1.46946875E4,2.1449827E3,0E0,0E0,0E0,0E0,0E0,0E0,0E0,0E0,0E0,0E0,0E0,0E0,0E0,0E0,0E0,0E0],"parents":[2147483647,0,0,1,1,2,2,3,3,4,4,5,5,6,6,7,7,8,8,9,9,10,10,11,11,12,12,13,13,14,14],"right_children":[2,4,6,8,10,12,14,16,18,20,22,24,26,28,30,-1,-1,-1,-1,-1,-1,-1,-1,-1,-1,-1,-1,-1,-1,-1,-1],"split_conditions":[1.25E1,6.96E0,7.33E0,3.082E2,1.56E0,2.1E-1,5.32E-2,3.0765E2,3.32E-2,4.5333335E-1,3.0622E2,3.0711E2,3.0538E2,1.1333334E-1,1.5666667E0,-2.2217711E-2,4.1294017E-1,-8.454509E-1,-2.2912411E-1,-1.4029264E-1,8.6765206E-1,-4.549323E-1,4.6767303E-1,-1.371917E-1,1.0813978E0,1.821966E-1,-2.0731036E-1,1.1103692E-1,8.341899E-1,-2.0282148E-1,2.7035162E-1],"split_indices":[6,8,3,4,2,0,5,4,5,9,4,4,4,8,8,0,0,0,0,0,0,0,0,0,0,0,0,0,0,0,0],"split_type":[0,0,0,0,0,0,0,0,0,0,0,0,0,0,0,0,0,0,0,0,0,0,0,0,0,0,0,0,0,0,0],"sum_hessian":[1.8418E4,1.7152E4,1.266E3,1.6855E4,2.97E2,8.03E2,4.63E2,1.6372E4,4.83E2,2.34E2,6.3E1,3.13E2,4.9E2,3.54E2,1.09E2,1.6046E4,3.26E2,8E0,4.75E2,8.4E1,1.5E2,5.6E1,7E0,3.07E2,6E0,4.16E2,7.4E1,9.7E1,2.57E2,7.5E1,3.4E1],"tree_param":{"num_deleted":"0","num_feature":"11","num_nodes":"31","size_leaf_vector":"1"}},{"base_weights":[4.8792497E-3,-4.0273416E-1,2.519895E0,-4.9691138E-1,6.44867E0,-4.061365E0,3.4115994E0,1.2999762E0,-7.60689E-1,-2.4616635E0,1.2762013E1,-5.1050115E0,-1.9447746E0,1.0451823E1,1.0794079E0,-1.12762466E-1,3.026294E-1,-4.493744E-2,1.08191095E-1,-2.0702612E-1,1.0866226E0,-3.223749E-1,8.44378E-1,-2.0617919E-1,-4.7988626E-1,-1.4468983E-1,2.4239878E-1,-1.2810297E-2,7.296622E-1,-3.425235E-1,8.645212E-2],"categories":[],"categories_nodes":[],"categories_segments":[],"categories_sizes":[],"default_left":[0,0,0,0,0,0,0,0,0,0,0,0,0,0,0,0,0,0,0,0,0,0,0,0,0,0,0,0,0,0,0],"id":30,"left_children":[1,3,5,7,9,11,13,15,17,19,21,23,25,27,29,-1,-1,-1,-1,-1,-1,-1,-1,-1,-1,-1,-1,-1,-1,-1,-1],"loss_changes":[1.888333E4,1.0231001E4,1.509013E4,7.4125957E3,1.2126026E4,6.682261E2,3.714525E4,3.3840656E4,5.5075767E3,3.7456494E3,1.0094348E4,8.643237E2,6.7801526E2,2.4970793E4,8.774581E3,0E0,0E0,0E0,0E0,0E0,0E0,0E0,0E0,0E0,0E0,0E0,0E0,0E0,0E0,0E0,0E0],"parents":[2147483647,0,0,1,1,2,2,3,3,4,4,5,5,6,6,7,7,8,8,9,9,10,10,11,11,12,12,13,13,14,14],"right_children":[2,4,6,8,10,12,14,16,18,20,22,24,26,28,30,-1,-1,-1,-1,-1,-1,-1,-1,-1,-1,-1,-1,-1,-1,-1,-1],"split_conditions":[2.0733333E0,1.74E1,3.036E2,2.9E-2,3.0458E2,3.03E2,3.0467E2,2.73E-2,3.0765E2,1.94E0,-1E-2,1.168E1,9.15E-2,8.25E0,3.63E-2,-1.12762466E-1,3.026294E-1,-4.493744E-2,1.08191095E-1,-2.0702612E-1,1.0866226E0,-3.223749E-1,8.44378E-1,-2.0617919E-1,-4.7988626E-1,-1.4468983E-1,2.4239878E-1,-1.2810297E-2,7.296622E-1,-3.425235E-1,8.645212E-2],"split_indices":[7,6,4,5,4,4,4,5,4,8,9,0,5,3,5,0,0,0,0,0,0,0,0,0,0,0,0,0,0,0,0],"split_type":[0,0,0,0,0,0,0,0,0,0,0,0,0,0,0,0,0,0,0,0,0,0,0,0,0,0,0,0,0,0,0],"sum_hessian":[1.8418E4,1.585E4,2.568E3,1.5636E4,2.14E2,3.06E2,2.262E3,2.001E3,1.3635E4,8.9E1,1.25E2,2.04E2,1.02E2,5.62E2,1.7E3,1.145E3,8.56E2,1.3021E4,6.14E2,8.4E1,5E0,2.2E1,1.03E2,1.69E2,3.5E1,9E1,1.2E1,1.57E2,4.05E2,1.28E2,1.572E3],"tree_param":{"num_deleted":"0","num_feature":"11","num_nodes":"31","size_leaf_vector":"1"}},{"base_weights":[4.718188E-3,-3.5990518E-1,2.59234E0,5.786466E-1,-9.087403E-1,4.460061E0,-6.462118E-1,5.224448E-2,1.09043255E1,-7.6272196E-1,-4.0522614E0,1.4142389E0,9.08214E0,1.1288329E1,-1.0142183E0,-2.2491902E-2,5.833077E-1,1.3362043E-1,1.22369E0,-3.8917135E-2,8.1040144E-1,-7.584215E-2,-2.0892265E-1,2.1121023E0,4.454934E-2,-1.9738851E-1,5.9561425E-1,8.398963E-2,1.4091765E0,-5.6896746E-2,1.6301807E0],"categories":[],"categories_nodes":[],"categories_segments":[],"categories_sizes":[],"default_left":[0,0,0,0,0,0,0,0,0,0,0,0,0,0,0,0,0,0,0,0,0,0,0,0,0,0,0,0,0,0,0],"id":31,"left_children":[1,3,5,7,9,11,13,15,17,19,21,23,25,27,29,-1,-1,-1,-1,-1,-1,-1,-1,-1,-1,-1,-1,-1,-1,-1,-1],"loss_changes":[1.7379396E4,8.3169795E3,1.37637E4,3.2383896E4,4.6733193E3,2.0301752E4,3.669976E3,3.3067812E4,3.2216707E4,2.5938496E3,1.3827832E2,1.8569744E4,2.117729E4,4.0111106E3,3.4017993E3,0E0,0E0,0E0,0E0,0E0,0E0,0E0,0E0,0E0,0E0,0E0,0E0,0E0,0E0,0E0,0E0],"parents":[2147483647,0,0,1,1,2,2,3,3,4,4,5,5,6,6,7,7,8,8,9,9,10,10,11,11,12,12,13,13,14,14],"right_children":[2,4,6,8,10,12,14,16,18,20,22,24,26,28,30,-1,-1,-1,-1,-1,-1,-1,-1,-1,-1,-1,-1,-1,-1,-1,-1],"split_conditions":[2.46E0,4.57E-2,6.84E-2,4.44E-2,3.0765E2,1.2E1,2.5E0,3.0765E2,4.25E0,2.567E1,8E-1,2.47E0,3.036E2,1.375E1,1.6E1,-2.2491902E-2,5.833077E-1,1.3362043E-1,1.22369E0,-3.8917135E-2,8.1040144E-1,-7.584215E-2,-2.0892265E-1,2.1121023E0,4.454934E-2,-1.9738851E-1,5.9561425E-1,8.398963E-2,1.4091765E0,-5.6896746E-2,1.6301807E0],"split_indices":[1,5,5,5,4,3,1,4,3,0,3,1,4,3,6,0,0,0,0,0,0,0,0,0,0,0,0,0,0,0,0],"split_type":[0,0,0,0,0,0,0,0,0,0,0,0,0,0,0,0,0,0,0,0,0,0,0,0,0,0,0,0,0,0,0],"sum_hessian":[1.8418E4,1.6144E4,2.274E3,5.957E3,1.0187E4,1.442E3,8.32E2,5.669E3,2.88E2,9.736E3,4.51E2,8.7E2,5.72E2,2.4E1,8.08E2,5.435E3,2.34E2,1.8E2,1.08E2,9.728E3,8E0,2.2E1,4.29E2,1E1,8.6E2,1.02E2,4.7E2,1.6E1,8E0,8.06E2,2E0],"tree_param":{"num_deleted":"0","num_feature":"11","num_nodes":"31","size_leaf_vector":"1"}},{"base_weights":[4.9179867E-3,-2.5406444E-1,3.5110905E0,-3.6041397E-1,5.762317E0,5.5992854E-1,8.617175E0,-2.373431E-1,-4.5229735E0,9.1764555E0,-6.8640075E0,-2.0509422E0,2.2284691E0,2.357129E0,1.330922E1,-1.614016E-2,7.204706E-1,-8.3860856E-1,-2.1409345E-1,-1.5383066E-1,8.0065536E-1,-4.468561E-1,4.3824694E-1,-1.2752376E-1,1.0110753E0,3.860224E-1,4.8830133E-2,1.288854E0,-1.218669E-2,8.2435054E-1,4.380359E-2],"categories":[],"categories_nodes":[],"categories_segments":[],"categories_sizes":[],"default_left":[0,0,0,0,0,0,0,0,0,0,0,0,0,0,0,0,0,0,0,0,0,0,0,0,0,0,0,0,0,0,0],"id":32,"left_children":[1,3,5,7,9,11,13,15,17,19,21,23,25,27,29,-1,-1,-1,-1,-1,-1,-1,-1,-1,-1,-1,-1,-1,-1,-1,-1],"loss_changes":[1.6726027E4,1.0977242E4,1.9087451E4,8.634082E3,1.2909175E4,3.507071E3,1.3597426E4,2.049894E4,1.3575986E3,1.9735207E4,2.151972E3,3.545083E3,3.368195E3,1.2188699E4,1.0455695E4,0E0,0E0,0E0,0E0,0E0,0E0,0E0,0E0,0E0,0E0,0E0,0E0,0E0,0E0,0E0,0E0],"parents":[2147483647,0,0,1,1,2,2,3,3,4,4,5,5,6,6,7,7,8,8,9,9,10,10,11,11,12,12,13,13,14,14],"right_children":[2,4,6,8,10,12,14,16,18,20,22,24,26,28,30,-1,-1,-1,-1,-1,-1,-1,-1,-1,-1,-1,-1,-1,-1,-1,-1],"split_conditions":[1.25E1,6.96E0,7.33E0,3.082E2,1.56E0,2.1E-1,3.9333335E-1,3.0814E2,3.32E-2,4.5333335E-1,3.0622E2,3.0711E2,2.8E-2,7.86E0,5.02E-2,-1.614016E-2,7.204706E-1,-8.3860856E-1,-2.1409345E-1,-1.5383066E-1,8.0065536E-1,-4.468561E-1,4.3824694E-1,-1.2752376E-1,1.0110753E0,3.860224E-1,4.8830133E-2,1.288854E0,-1.218669E-2,8.2435054E-1,4.380359E-2],"split_indices":[6,8,3,4,2,0,7,4,5,9,4,4,5,3,5,0,0,0,0,0,0,0,0,0,0,0,0,0,0,0,0],"split_type":[0,0,0,0,0,0,0,0,0,0,0,0,0,0,0,0,0,0,0,0,0,0,0,0,0,0,0,0,0,0,0],"sum_hessian":[1.8418E4,1.7152E4,1.266E3,1.6855E4,2.97E2,8.03E2,4.63E2,1.6372E4,4.83E2,2.34E2,6.3E1,3.13E2,4.9E2,1.99E2,2.64E2,1.6278E4,9.4E1,8E0,4.75E2,8.4E1,1.5E2,5.6E1,7E0,3.07E2,6E0,9E1,4E2,1.9E1,1.8E2,2.1E2,5.4E1],"tree_param":{"num_deleted":"0","num_feature":"11","num_nodes":"31","size_leaf_vector":"1"}},{"base_weights":[4.8758183E-3,-2.4134433E-1,3.3382692E0,-3.4241396E-1,5.476343E0,5.335719E-1,8.190938E0,-2.3695405E0,-1.0020763E-1,8.720386E0,-6.5209413E0,-1.9455812E0,2.1179314E0,4.5976055E-1,1.1633614E1,-1.7172511E-1,-3.3645928E-2,6.1240364E-2,-3.68681E-2,-1.4622961E-1,7.6088774E-1,-4.249053E-1,4.1907358E-1,-1.2116828E-1,9.677434E-1,1.6013286E-1,-1.970691E-1,-2.4100101E-1,7.9292935E-1,7.3533076E-1,-1.1788885E-2],"categories":[],"categories_nodes":[],"categories_segments":[],"categories_sizes":[],"default_left":[0,0,0,0,0,0,0,0,0,0,0,0,0,0,0,0,0,0,0,0,0,0,0,0,0,0,0,0,0,0,0],"id":33,"left_children":[1,3,5,7,9,11,13,15,17,19,21,23,25,27,29,-1,-1,-1,-1,-1,-1,-1,-1,-1,-1,-1,-1,-1,-1,-1,-1],"loss_changes":[1.5118176E4,9.914329E3,1.723984E4,8.27577E3,1.1654933E4,3.162128E3,1.2344441E4,3.2481895E3,1.2713455E4,1.7825008E4,1.956956E3,3.2424883E3,3.2398147E3,1.1783988E4,1.1711836E4,0E0,0E0,0E0,0E0,0E0,0E0,0E0,0E0,0E0,0E0,0E0,0E0,0E0,0E0,0E0,0E0],"parents":[2147483647,0,0,1,1,2,2,3,3,4,4,5,5,6,6,7,7,8,8,9,9,10,10,11,11,12,12,13,13,14,14],"right_children":[2,4,6,8,10,12,14,16,18,20,22,24,26,28,30,-1,-1,-1,-1,-1,-1,-1,-1,-1,-1,-1,-1,-1,-1,-1,-1],"split_conditions":[1.25E1,6.96E0,7.33E0,3.036E2,1.56E0,2.1E-1,1.1333334E-1,6.41E-2,4.57E-2,4.5333335E-1,3.0622E2,3.0711E2,3.0538E2,3.0536E2,5.02E-2,-1.7172511E-1,-3.3645928E-2,6.1240364E-2,-3.68681E-2,-1.4622961E-1,7.6088774E-1,-4.249053E-1,4.1907358E-1,-1.2116828E-1,9.677434E-1,1.6013286E-1,-1.970691E-1,-2.4100101E-1,7.9292935E-1,7.3533076E-1,-1.1788885E-2],"split_indices":[6,8,3,4,2,0,8,5,5,9,4,4,4,4,5,0,0,0,0,0,0,0,0,0,0,0,0,0,0,0,0],"split_type":[0,0,0,0,0,0,0,0,0,0,0,0,0,0,0,0,0,0,0,0,0,0,0,0,0,0,0,0,0,0,0],"sum_hessian":[1.8418E4,1.7152E4,1.266E3,1.6855E4,2.97E2,8.03E2,4.63E2,1.798E3,1.5057E4,2.34E2,6.3E1,3.13E2,4.9E2,1.43E2,3.2E2,1.104E3,6.94E2,4.889E3,1.0168E4,8.4E1,1.5E2,5.6E1,7E0,3.07E2,6E0,4.16E2,7.4E1,1.07E2,3.6E1,2.54E2,6.6E1],"tree_param":{"num_deleted":"0","num_feature":"11","num_nodes":"31","size_leaf_vector":"1"}},{"base_weights":[4.768477E-3,-3.5055158E-1,2.2060854E0,-1.1221426E0,2.154044E-1,5.5438023E0,8.048013E-2,-2.4926202E0,-5.0003445E-1,4.3226304E0,-3.399971E-1,-4.260074E0,8.168579E0,-6.8449E-1,4.965806E0,-1.3272324E-1,2.469642E-1,-5.0471343E-2,5.968194E-2,-1.3018088E-1,4.5708305E-1,-3.1963427E-2,3.6104405E-1,3.0515113E-1,-2.4578264E-1,7.639965E-1,1.2996915E-1,5.3366804E-3,-3.2131684E-1,7.9388255E-1,-2.5530156E-1],"categories":[],"categories_nodes":[],"categories_segments":[],"categories_sizes":[],"default_left":[0,0,0,0,0,0,0,0,0,0,0,0,0,0,0,0,0,0,0,0,0,0,0,0,0,0,0,0,0,0,0],"id":34,"left_children":[1,3,5,7,9,11,13,15,17,19,21,23,25,27,29,-1,-1,-1,-1,-1,-1,-1,-1,-1,-1,-1,-1,-1,-1,-1,-1],"loss_changes":[1.4407601E4,6.92609E3,1.8161906E4,5.720454E3,2.0874082E4,2.566485E4,5.852005E3,2.533004E3,3.984495E3,3.64056E4,1.824468E4,1.4634978E3,3.1089422E4,6.1520225E3,2.3380367E4,0E0,0E0,0E0,0E0,0E0,0E0,0E0,0E0,0E0,0E0,0E0,0E0,0E0,0E0,0E0,0E0],"parents":[2147483647,0,0,1,1,2,2,3,3,4,4,5,5,6,6,7,7,8,8,9,9,10,10,11,11,12,12,13,13,14,14],"right_children":[2,4,6,8,10,12,14,16,18,20,22,24,26,28,30,-1,-1,-1,-1,-1,-1,-1,-1,-1,-1,-1,-1,-1,-1,-1,-1],"split_conditions":[2.0183334E0,5.1E0,4.89E-2,4.35E-2,2.9E-2,3.0377E2,3.0679E2,3.0742E2,4.7333333E-1,2.73E-2,3.0765E2,-4E-1,3.0467E2,1.73E0,3.0742E2,-1.3272324E-1,2.469642E-1,-5.0471343E-2,5.968194E-2,-1.3018088E-1,4.5708305E-1,-3.1963427E-2,3.6104405E-1,3.0515113E-1,-2.4578264E-1,7.639965E-1,1.2996915E-1,5.3366804E-3,-3.2131684E-1,7.9388255E-1,-2.5530156E-1],"split_indices":[8,6,5,5,5,4,4,4,8,5,4,2,4,2,4,0,0,0,0,0,0,0,0,0,0,0,0,0,0,0,0],"split_type":[0,0,0,0,0,0,0,0,0,0,0,0,0,0,0,0,0,0,0,0,0,0,0,0,0,0,0,0,0,0,0],"sum_hessian":[1.8418E4,1.5859E4,2.559E3,6.71E3,9.149E3,9.95E2,1.564E3,2.094E3,4.616E3,1.089E3,8.06E3,2.1E2,7.85E2,1.353E3,2.11E2,2.05E3,4.4E1,3.549E3,1.067E3,4.47E2,6.42E2,7.754E3,3.06E2,1.2E1,1.98E2,3.44E2,4.41E2,1.19E3,1.63E2,1.01E2,1.1E2],"tree_param":{"num_deleted":"0","num_feature":"11","num_nodes":"31","size_leaf_vector":"1"}},{"base_weights":[4.6361894E-3,-3.1331927E-1,2.2610698E0,-1.0761844E0,2.3965083E-1,2.1078276E1,2.0002258E0,-1.4695626E0,2.8968704E-1,4.180481E0,-2.7804366E-1,-2.4771929E0,3.6085793E1,4.9926993E-1,5.2445474E0,-1.06416576E-1,-2.989558E-2,6.1143917E-1,2.0380605E-3,-1.1822499E-1,4.360397E-1,-2.833282E-2,3.6200008E-1,-2.1108976E-1,-4.295461E-2,1.1751214E0,2.3727965E0,7.4718624E-1,-1.3513992E-3,1.0631418E0,1.6736759E-1],"categories":[],"categories_nodes":[],"categories_segments":[],"categories_sizes":[],"default_left":[0,0,0,0,0,0,0,0,0,0,0,0,0,0,0,0,0,0,0,0,0,0,0,0,0,0,0,0,0,0,0],"id":35,"left_children":[1,3,5,7,9,11,13,15,17,19,21,23,25,27,29,-1,-1,-1,-1,-1,-1,-1,-1,-1,-1,-1,-1,-1,-1,-1,-1],"loss_changes":[1.3215335E4,6.81089E3,1.112434E4,3.6460347E3,1.909897E4,1.1048173E4,1.0929595E4,3.0237012E3,4.510921E3,3.2322197E4,1.7959227E4,3.3071335E1,1.6030859E3,1.1677208E4,2.1505604E4,0E0,0E0,0E0,0E0,0E0,0E0,0E0,0E0,0E0,0E0,0E0,0E0,0E0,0E0,0E0,0E0],"parents":[2147483647,0,0,1,1,2,2,3,3,4,4,5,5,6,6,7,7,8,8,9,9,10,10,11,11,12,12,13,13,14,14],"right_children":[2,4,6,8,10,12,14,16,18,20,22,24,26,28,30,-1,-1,-1,-1,-1,-1,-1,-1,-1,-1,-1,-1,-1,-1,-1,-1],"split_conditions":[2.46E0,5.1E0,2.47E0,5.7666665E-1,2.9E-2,5.04E0,1.45E1,6.45E-2,6.1E-1,2.73E-2,3.0765E2,2.66E0,6E0,-1.49E0,3.53E-2,-1.06416576E-1,-2.989558E-2,6.1143917E-1,2.0380605E-3,-1.1822499E-1,4.360397E-1,-2.833282E-2,3.6200008E-1,-2.1108976E-1,-4.295461E-2,1.1751214E0,2.3727965E0,7.4718624E-1,-1.3513992E-3,1.0631418E0,1.6736759E-1],"split_indices":[1,6,1,8,5,0,3,5,8,5,4,0,6,2,5,0,0,0,0,0,0,0,0,0,0,0,0,0,0,0,0],"split_type":[0,0,0,0,0,0,0,0,0,0,0,0,0,0,0,0,0,0,0,0,0,0,0,0,0,0,0,0,0,0,0],"sum_hessian":[1.8418E4,1.6144E4,2.274E3,6.784E3,9.36E3,3E1,2.244E3,5.267E3,1.517E3,1.086E3,8.274E3,1.2E1,1.8E1,1.535E3,7.09E2,2.999E3,2.268E3,3E1,1.487E3,4.45E2,6.41E2,7.969E3,3.05E2,5E0,7E0,1E1,8E0,5.3E1,1.482E3,7.4E1,6.35E2],"tree_param":{"num_deleted":"0","num_feature":"11","num_nodes":"31","size_leaf_vector":"1"}},{"base_weights":[4.7517447E-3,-3.2008687E-1,2.0172267E0,-2.1642092E-1,-4.2956405E0,5.1257586E0,3.760027E-2,-3.016452E-1,1.799972E1,-8.2648593E-1,-4.0060143E0,-4.1587925E0,7.611655E0,-1.2482436E0,2.8114216E0,-6.03216E-2,6.9985874E-3,1.2596592E0,-2.490146E-1,-1.7305322E-1,-2.833627E-1,-1.6123357E-1,-5.827008E-1,7.1293825E-1,1.2030398E-1,7.282536E-1,-7.206836E-2,3.1368654E-2,6.0119003E-1],"categories":[],"categories_nodes":[],"categories_segments":[],"categories_sizes":[],"default_left":[0,0,0,0,0,0,0,0,0,0,0,0,0,0,0,0,0,0,0,0,0,0,0,0,0,0,0,0,0],"id":36,"left_children":[1,3,5,7,9,11,13,15,17,-1,19,21,23,25,27,-1,-1,-1,-1,-1,-1,-1,-1,-1,-1,-1,-1,-1,-1],"loss_changes":[1.204169E4,6.535444E3,1.5753361E4,2.4003312E4,1.3617358E3,2.3019766E4,5.585397E3,6.14834E3,1.2027496E4,0E0,3.379756E2,1.4397249E3,2.716289E4,3.2886938E3,9.972117E3,0E0,0E0,0E0,0E0,0E0,0E0,0E0,0E0,0E0,0E0,0E0,0E0,0E0,0E0],"parents":[2147483647,0,0,1,1,2,2,3,3,4,4,5,5,6,6,7,7,8,8,10,10,11,11,12,12,13,13,14,14],"right_children":[2,4,6,8,10,12,14,16,18,-1,20,22,24,26,28,-1,-1,-1,-1,-1,-1,-1,-1,-1,-1,-1,-1,-1,-1],"split_conditions":[2.0183334E0,3.082E2,4.89E-2,3.0814E2,3.32E-2,3.0377E2,7.53E0,3.046E2,7.33E0,-8.2648593E-1,8E-1,2.1E1,3.0467E2,1.7E0,3.0664E2,-6.03216E-2,6.9985874E-3,1.2596592E0,-2.490146E-1,-1.7305322E-1,-2.833627E-1,-1.6123357E-1,-5.827008E-1,7.1293825E-1,1.2030398E-1,7.282536E-1,-7.206836E-2,3.1368654E-2,6.0119003E-1],"split_indices":[8,4,5,4,5,4,0,4,3,0,1,6,4,6,4,0,0,0,0,0,0,0,0,0,0,0,0,0,0],"split_type":[0,0,0,0,0,0,0,0,0,0,0,0,0,0,0,0,0,0,0,0,0,0,0,0,0,0,0,0,0],"sum_hessian":[1.8418E4,1.5859E4,2.559E3,1.5457E4,4.02E2,9.95E2,1.564E3,1.5386E4,7.1E1,8E0,3.94E2,2.1E2,7.85E2,1.069E3,4.95E2,5.046E3,1.034E4,5.4E1,1.7E1,2.99E2,9.5E1,1.88E2,2.2E1,3.44E2,4.41E2,1.2E1,1.057E3,4.01E2,9.4E1],"tree_param":{"num_deleted":"0","num_feature":"11","num_nodes":"29","size_leaf_vector":"1"}},{"base_weights":[4.571343E-3,-2.1295106E-1,2.949447E0,-8.368605E-2,-4.6085825E0,4.0136486E-1,7.358301E0,-3.1531155E-1,4.061245E0,-4.286E0,-1.3127245E0,-1.8154821E0,1.8182459E0,1.9276086E0,1.142917E1,-1.3328644E-2,-5.95886E-1,1.5111521E-1,1.725811E0,-7.8975314E-1,-2.0296936E-1,-1.12505436E-1,8.7837213E-1,1.4052315E-1,-1.8613623E-1,1.1953738E0,-2.558778E-2,7.064309E-1,4.3265056E-2],"categories":[],"categories_nodes":[],"categories_segments":[],"categories_sizes":[],"default_left":[0,0,0,0,0,0,0,0,0,0,0,0,0,0,0,0,0,0,0,0,0,0,0,0,0,0,0,0,0],"id":37,"left_children":[1,3,5,7,9,11,13,15,17,19,-1,21,23,25,27,-1,-1,-1,-1,-1,-1,-1,-1,-1,-1,-1,-1,-1,-1],"loss_changes":[1.1799404E4,9.745974E3,1.4230679E4,1.5999916E4,3.3089414E3,2.5286716E3,1.0235916E4,8.921886E3,2.7802977E4,1.1982012E3,0E0,2.6847695E3,2.7099048E3,1.0735613E4,7.5446797E3,0E0,0E0,0E0,0E0,0E0,0E0,0E0,0E0,0E0,0E0,0E0,0E0,0E0,0E0],"parents":[2147483647,0,0,1,1,2,2,3,3,4,4,5,5,6,6,7,7,8,8,9,9,11,11,12,12,13,13,14,14],"right_children":[2,4,6,8,10,12,14,16,18,20,-1,22,24,26,28,-1,-1,-1,-1,-1,-1,-1,-1,-1,-1,-1,-1,-1,-1],"split_conditions":[1.25E1,3.082E2,7.33E0,3.0679E2,1.374E1,2.1E-1,3.9333335E-1,1.572E1,1.024E1,3.32E-2,-1.3127245E0,3.0711E2,3.0538E2,7.86E0,5.02E-2,-1.3328644E-2,-5.95886E-1,1.5111521E-1,1.725811E0,-7.8975314E-1,-2.0296936E-1,-1.12505436E-1,8.7837213E-1,1.4052315E-1,-1.8613623E-1,1.1953738E0,-2.558778E-2,7.064309E-1,4.3265056E-2],"split_indices":[6,4,3,4,1,0,7,1,1,5,0,4,4,3,5,0,0,0,0,0,0,0,0,0,0,0,0,0,0],"split_type":[0,0,0,0,0,0,0,0,0,0,0,0,0,0,0,0,0,0,0,0,0,0,0,0,0,0,0,0,0],"sum_hessian":[1.8418E4,1.7152E4,1.266E3,1.6663E4,4.89E2,8.03E2,4.63E2,1.5782E4,8.81E2,4.83E2,6E0,3.13E2,4.9E2,1.99E2,2.64E2,1.5717E4,6.5E1,8.53E2,2.8E1,8E0,4.75E2,3.07E2,6E0,4.16E2,7.4E1,1.9E1,1.8E2,2.1E2,5.4E1],"tree_param":{"num_deleted":"0","num_feature":"11","num_nodes":"29","size_leaf_vector":"1"}},{"base_weights":[4.429665E-3,-2.8203228E-1,2.0373633E0,-9.885206E-1,2.300717E-1,2.0147284E1,1.7863855E0,-1.3604257E0,3.0277357E-1,3.9269595E0,-2.555775E-1,-2.336622E0,3.4470627E1,-1.351744E0,3.1855724E0,-9.952172E-2,-2.6342435E-2,5.829802E-1,3.2984724E-3,-1.1151798E-1,4.099179E-1,-2.6325786E-2,3.4010237E-1,-2.0071283E-1,-3.9315913E-2,1.1221982E0,2.2669904E0,8.242984E-2,-1.9576332E-1,6.9145375E-1,8.724672E-2],"categories":[],"categories_nodes":[],"categories_segments":[],"categories_sizes":[],"default_left":[0,0,0,0,0,0,0,0,0,0,0,0,0,0,0,0,0,0,0,0,0,0,0,0,0,0,0,0,0,0,0],"id":38,"left_children":[1,3,5,7,9,11,13,15,17,19,21,23,25,27,29,-1,-1,-1,-1,-1,-1,-1,-1,-1,-1,-1,-1,-1,-1,-1,-1],"loss_changes":[1.0727028E4,5.8414155E3,1.0304308E4,3.2588335E3,1.6807654E4,1.0063929E4,9.861719E3,2.765498E3,4.0816558E3,2.860678E4,1.5826873E4,3.0654472E1,1.4660762E3,5.3366226E3,2.3788691E4,0E0,0E0,0E0,0E0,0E0,0E0,0E0,0E0,0E0,0E0,0E0,0E0,0E0,0E0,0E0,0E0],"parents":[2147483647,0,0,1,1,2,2,3,3,4,4,5,5,6,6,7,7,8,8,9,9,10,10,11,11,12,12,13,13,14,14],"right_children":[2,4,6,8,10,12,14,16,18,20,22,24,26,28,30,-1,-1,-1,-1,-1,-1,-1,-1,-1,-1,-1,-1,-1,-1,-1,-1],"split_conditions":[2.46E0,5.1E0,2.47E0,5.7666665E-1,2.9E-2,5.04E0,7.86E0,6.45E-2,6.1E-1,2.73E-2,3.0765E2,2.66E0,6E0,3.0518E2,3.53E-2,-9.952172E-2,-2.6342435E-2,5.829802E-1,3.2984724E-3,-1.1151798E-1,4.099179E-1,-2.6325786E-2,3.4010237E-1,-2.0071283E-1,-3.9315913E-2,1.1221982E0,2.2669904E0,8.242984E-2,-1.9576332E-1,6.9145375E-1,8.724672E-2],"split_indices":[1,6,1,8,5,0,3,5,8,5,4,0,6,4,5,0,0,0,0,0,0,0,0,0,0,0,0,0,0,0,0],"split_type":[0,0,0,0,0,0,0,0,0,0,0,0,0,0,0,0,0,0,0,0,0,0,0,0,0,0,0,0,0,0,0],"sum_hessian":[1.8418E4,1.6144E4,2.274E3,6.784E3,9.36E3,3E1,2.244E3,5.267E3,1.517E3,1.086E3,8.274E3,1.2E1,1.8E1,6.92E2,1.552E3,2.999E3,2.268E3,3E1,1.487E3,4.45E2,6.41E2,7.969E3,3.05E2,5E0,7E0,1E1,8E0,3.19E2,3.73E2,1.84E2,1.368E3],"tree_param":{"num_deleted":"0","num_feature":"11","num_nodes":"31","size_leaf_vector":"1"}},{"base_weights":[4.473478E-3,1.2815145E-1,-4.50224E0,-1.7091682E-2,7.5087347E0,-4.194802E0,-1.2602038E0,-1.5303153E-1,5.3421025E0,-1.1829962E1,1.2281617E1,-7.6244164E-1,-3.9778957E0,-1.2601273E-2,3.0299333E-1,1.5607966E-1,1.081849E0,-6.775845E-1,4.2533994E-1,8.293377E-1,-7.619557E-2,-1.6347264E-1,-2.7306947E-1],"categories":[],"categories_nodes":[],"categories_segments":[],"categories_sizes":[],"default_left":[0,0,0,0,0,0,0,0,0,0,0,0,0,0,0,0,0,0,0,0,0,0,0],"id":39,"left_children":[1,3,5,7,9,11,-1,13,15,17,19,-1,21,-1,-1,-1,-1,-1,-1,-1,-1,-1,-1],"loss_changes":[1.0266981E4,1.9218568E4,3.025629E3,1.2810526E4,3.2081555E4,1.1046162E3,0E0,1.0548834E4,1.5672031E4,2.5312734E3,1.6548113E4,0E0,4.845083E2,0E0,0E0,0E0,0E0,0E0,0E0,0E0,0E0,0E0,0E0],"parents":[2147483647,0,0,1,1,2,2,3,3,4,4,5,5,7,7,8,8,9,9,10,10,12,12],"right_children":[2,4,6,8,10,12,-1,14,16,18,20,-1,22,-1,-1,-1,-1,-1,-1,-1,-1,-1,-1],"split_conditions":[3.082E2,3.0765E2,1.374E1,1.184E1,3.66E-2,3.32E-2,-1.2602038E0,1.74E1,3.0664E2,1.05E1,4.13E-2,-7.6244164E-1,1.07E0,-1.2601273E-2,3.0299333E-1,1.5607966E-1,1.081849E0,-6.775845E-1,4.2533994E-1,8.293377E-1,-7.619557E-2,-1.6347264E-1,-2.7306947E-1],"split_indices":[4,4,1,0,5,5,0,6,4,3,5,0,1,0,0,0,0,0,0,0,0,0,0],"split_type":[0,0,0,0,0,0,0,0,0,0,0,0,0,0,0,0,0,0,0,0,0,0,0],"sum_hessian":[1.8418E4,1.7927E4,4.91E2,1.7582E4,3.45E2,4.85E2,6E0,1.7148E4,4.34E2,6.8E1,2.77E2,8E0,4.77E2,1.688E4,2.68E2,3.83E2,5.1E1,6.3E1,5E0,2.11E2,6.6E1,3.25E2,1.52E2],"tree_param":{"num_deleted":"0","num_feature":"11","num_nodes":"23","size_leaf_vector":"1"}},{"base_weights":[4.226501E-3,-1.6398169E-1,3.1112726E0,6.7003644E-1,-6.4343715E-1,4.5025525E0,-4.0731173E0,1.796807E-1,1.0401248E1,-4.997992E-1,-3.8054156E0,-4.6162674E-1,7.2884827E0,-6.218334E0,6.7271175E0,-1.0718923E-2,4.2292777E-1,1.2730238E-1,1.0801378E0,-2.9095486E-2,2.655616E-1,-1.6062307E-1,-2.5358078E-1,1.8495797E-1,-2.6719505E-1,1.148051E0,2.894908E-1,6.4147097E-1,-3.544926E-1,-7.983598E-2,1.4774246E0],"categories":[],"categories_nodes":[],"categories_segments":[],"categories_sizes":[],"default_left":[0,0,0,0,0,0,0,0,0,0,0,0,0,0,0,0,0,0,0,0,0,0,0,0,0,0,0,0,0,0,0],"id":40,"left_children":[1,3,5,7,9,11,13,15,17,19,21,23,25,27,29,-1,-1,-1,-1,-1,-1,-1,-1,-1,-1,-1,-1,-1,-1,-1,-1],"loss_changes":[9.626844E3,6.987839E3,9.474078E3,3.0437164E4,5.0376807E3,1.0970442E4,3.6098342E3,1.9817428E4,2.6869969E4,5.0680034E3,3.455923E2,5.8295996E3,1.179892E4,2.232417E3,4.9861772E3,0E0,0E0,0E0,0E0,0E0,0E0,0E0,0E0,0E0,0E0,0E0,0E0,0E0,0E0,0E0,0E0],"parents":[2147483647,0,0,1,1,2,2,3,3,4,4,5,5,6,6,7,7,8,8,9,9,10,10,11,11,12,12,13,13,14,14],"right_children":[2,4,6,8,10,12,14,16,18,20,22,24,26,28,30,-1,-1,-1,-1,-1,-1,-1,-1,-1,-1,-1,-1,-1,-1,-1,-1],"split_conditions":[4.3233333E0,4.57E-2,1.66E0,4.44E-2,3.0814E2,6.13E0,3.0679E2,3.0742E2,4.25E0,1.184E1,8E-1,5.2E0,6.39E0,3.49E-2,2.34E0,-1.0718923E-2,4.2292777E-1,1.2730238E-1,1.0801378E0,-2.9095486E-2,2.655616E-1,-1.6062307E-1,-2.5358078E-1,1.8495797E-1,-2.6719505E-1,1.148051E0,2.894908E-1,6.4147097E-1,-3.544926E-1,-7.983598E-2,1.4774246E0],"split_indices":[8,5,9,5,4,0,4,4,3,0,1,7,0,5,2,0,0,0,0,0,0,0,0,0,0,0,0,0,0,0,0],"split_type":[0,0,0,0,0,0,0,0,0,0,0,0,0,0,0,0,0,0,0,0,0,0,0,0,0,0,0,0,0,0,0],"sum_hessian":[1.8418E4,1.7473E4,9.45E2,6.378E3,1.1095E4,7.92E2,1.53E2,6.073E3,3.05E2,1.0614E4,4.81E2,2.85E2,5.07E2,1.28E2,2.5E1,5.798E3,2.75E2,1.8E2,1.25E2,1.0467E4,1.47E2,3.3E2,1.51E2,1.54E2,1.31E2,4.3E1,4.64E2,5E0,1.23E2,1.9E1,6E0],"tree_param":{"num_deleted":"0","num_feature":"11","num_nodes":"31","size_leaf_vector":"1"}},{"base_weights":[4.258474E-3,-1.8798243E-1,2.6068661E0,-7.294966E-2,-4.099652E0,7.393005E-1,7.842803E0,-1.3897032E-1,1.144321E1,-3.7979858E0,-1.218602E0,4.2803556E-1,2.278224E1,2.49021E0,7.0513053E0,-1.6666483E-2,1.2750845E-1,9.1023844E-1,-4.6591336E-1,-7.473521E-1,-1.7896026E-1,3.2692122E-1,-3.2723833E-2,-1.0183201E-1,1.2510101E0,-2.670422E-1,4.5203304E-1],"categories":[],"categories_nodes":[],"categories_segments":[],"categories_sizes":[],"default_left":[0,0,0,0,0,0,0,0,0,0,0,0,0,0,0,0,0,0,0,0,0,0,0,0,0,0,0],"id":41,"left_children":[1,3,5,7,9,11,13,15,17,19,-1,21,23,-1,25,-1,-1,-1,-1,-1,-1,-1,-1,-1,-1,-1,-1],"loss_changes":[9.216024E3,7.7180386E3,1.2383507E4,1.2671303E4,2.9040254E3,6.4054644E3,1.0708523E4,8.661314E3,1.3505731E4,1.1270723E3,0E0,6.109528E3,7.730249E2,0E0,8.1342695E3,0E0,0E0,0E0,0E0,0E0,0E0,0E0,0E0,0E0,0E0,0E0,0E0],"parents":[2147483647,0,0,1,1,2,2,3,3,4,4,5,5,6,6,7,7,8,8,9,9,11,11,12,12,14,14],"right_children":[2,4,6,8,10,12,14,16,18,20,-1,22,24,-1,26,-1,-1,-1,-1,-1,-1,-1,-1,-1,-1,-1,-1],"split_conditions":[1.25E1,3.082E2,1.1166667E0,3.0814E2,1.374E1,3.0711E2,1.1266667E0,4.23E0,4.29E0,3.32E-2,-1.218602E0,2.8E-2,-1.61E0,2.49021E0,3.0377E2,-1.6666483E-2,1.2750845E-1,9.1023844E-1,-4.6591336E-1,-7.473521E-1,-1.7896026E-1,3.2692122E-1,-3.2723833E-2,-1.0183201E-1,1.2510101E0,-2.670422E-1,4.5203304E-1],"split_indices":[6,4,7,4,1,4,7,1,0,5,0,5,2,0,4,0,0,0,0,0,0,0,0,0,0,0,0],"split_type":[0,0,0,0,0,0,0,0,0,0,0,0,0,0,0,0,0,0,0,0,0,0,0,0,0,0,0],"sum_hessian":[1.8418E4,1.7152E4,1.266E3,1.6663E4,4.89E2,9.34E2,3.32E2,1.6569E4,9.4E1,4.83E2,6E0,9.22E2,1.2E1,5E0,3.27E2,1.5453E4,1.116E3,7.1E1,2.3E1,8E0,4.75E2,1.38E2,7.84E2,1E0,1.1E1,4.5E1,2.82E2],"tree_param":{"num_deleted":"0","num_feature":"11","num_nodes":"27","size_leaf_vector":"1"}},{"base_weights":[4.182794E-3,-2.0450358E0,2.4319181E-1,-3.2756846E0,-7.8247344E-1,1.4798155E0,-4.5905778E-1,7.2808957E0,-3.414936E0,2.5089355E0,-1.2653282E0,-1.4778942E0,3.179232E0,-6.012998E-1,4.491462E0,-1.6909169E-1,7.1839154E-1,-1.5917833E-1,-3.8771367E-1,9.6565895E-2,1.810016E0,-3.6950093E-2,-1.3053633E-1,4.102478E-1,-9.1807835E-2,4.252566E-2,3.2556978E-1,-2.2825487E-2,-1.7390722E-1,1.1715628E0,1.2048562E-1],"categories":[],"categories_nodes":[],"categories_segments":[],"categories_sizes":[],"default_left":[0,0,0,0,0,0,0,0,0,0,0,0,0,0,0,0,0,0,0,0,0,0,0,0,0,0,0,0,0,0,0],"id":42,"left_children":[1,3,5,7,9,11,13,15,17,19,21,23,25,27,29,-1,-1,-1,-1,-1,-1,-1,-1,-1,-1,-1,-1,-1,-1,-1,-1],"loss_changes":[9.021787E3,2.9868916E3,1.4326111E4,1.4566621E3,1.5145725E3,3.0037316E4,7.411998E3,1.0309485E3,9.4115234E2,2.304295E3,5.858092E2,7.580961E3,2.944241E4,4.2591846E3,1.1535344E4,0E0,0E0,0E0,0E0,0E0,0E0,0E0,0E0,0E0,0E0,0E0,0E0,0E0,0E0,0E0,0E0],"parents":[2147483647,0,0,1,1,2,2,3,3,4,4,5,5,6,6,7,7,8,8,9,9,10,10,11,11,12,12,13,13,14,14],"right_children":[2,4,6,8,10,12,14,16,18,20,22,24,26,28,30,-1,-1,-1,-1,-1,-1,-1,-1,-1,-1,-1,-1,-1,-1,-1,-1],"split_conditions":[3.036E2,4.42E-2,4.65E-2,-1.6E0,2.5E0,5.1E0,6.95E0,3.03E2,1.168E1,2.4E0,1.375E1,3.0392E2,6.14E0,3.0814E2,7.16E0,-1.6909169E-1,7.1839154E-1,-1.5917833E-1,-3.8771367E-1,9.6565895E-2,1.810016E0,-3.6950093E-2,-1.3053633E-1,4.102478E-1,-9.1807835E-2,4.252566E-2,3.2556978E-1,-2.2825487E-2,-1.7390722E-1,1.1715628E0,1.2048562E-1],"split_indices":[4,5,5,9,6,6,1,4,0,6,3,4,3,4,1,0,0,0,0,0,0,0,0,0,0,0,0,0,0,0,0],"split_type":[0,0,0,0,0,0,0,0,0,0,0,0,0,0,0,0,0,0,0,0,0,0,0,0,0,0,0,0,0,0,0],"sum_hessian":[1.8418E4,1.923E3,1.6495E4,9.73E2,9.5E2,5.974E3,1.0521E4,1.2E1,9.61E2,1.21E2,8.29E2,2.18E3,3.794E3,1.0228E4,2.93E2,5E0,7E0,9.14E2,4.7E1,1.2E2,1E0,5.97E2,2.32E2,7.7E1,2.103E3,2.234E3,1.56E3,9.739E3,4.89E2,2.8E1,2.65E2],"tree_param":{"num_deleted":"0","num_feature":"11","num_nodes":"31","size_leaf_vector":"1"}},{"base_weights":[4.1649495E-3,-1.941879E0,2.3114024E-1,-2.8722181E0,-4.1962627E-1,8.249589E-2,5.7191734E0,-2.6746037E0,-8.228816E0,2.2028959E0,-1.6051726E0,1.2613775E0,-5.5489504E-1,2.185604E1,3.0789921E0,1.0722634E-2,-1.4836507E-1,-5.3830326E-1,-2.4497692E-1,9.557355E-2,9.0224075E-1,-8.876565E-2,1.3004941E-1,3.4207683E-2,5.44102E-1,-3.0711824E-2,2.789422E-1,1.4460877E0,-8.535636E-1,-3.2343397E-1,3.080529E-1],"categories":[],"categories_nodes":[],"categories_segments":[],"categories_sizes":[],"default_left":[0,0,0,0,0,0,0,0,0,0,0,0,0,0,0,0,0,0,0,0,0,0,0,0,0,0,0,0,0,0,0],"id":43,"left_children":[1,3,5,7,9,11,13,15,17,19,21,23,25,27,29,-1,-1,-1,-1,-1,-1,-1,-1,-1,-1,-1,-1,-1,-1,-1,-1],"loss_changes":[8.136193E3,2.723585E3,1.345639E4,1.2418887E3,2.276304E3,1.2069821E4,1.8465557E4,9.7563574E2,3.0203394E2,1.0181216E3,3.6529883E2,3.1296363E4,3.798333E3,1.7271738E4,1.1074811E4,0E0,0E0,0E0,0E0,0E0,0E0,0E0,0E0,0E0,0E0,0E0,0E0,0E0,0E0,0E0,0E0],"parents":[2147483647,0,0,1,1,2,2,3,3,4,4,5,5,6,6,7,7,8,8,9,9,10,10,11,11,12,12,13,13,14,14],"right_children":[2,4,6,8,10,12,14,16,18,20,22,24,26,28,30,-1,-1,-1,-1,-1,-1,-1,-1,-1,-1,-1,-1,-1,-1,-1,-1],"split_conditions":[3.036E2,6.41E-2,1.124E1,7.61E0,7.95E-2,4.57E-2,3.04E2,-4.4E-1,1.14E1,3.0333E2,1.649E-1,4.44E-2,6.96E0,2.1E1,4.2E-1,1.0722634E-2,-1.4836507E-1,-5.3830326E-1,-2.4497692E-1,9.557355E-2,9.0224075E-1,-8.876565E-2,1.3004941E-1,3.4207683E-2,5.44102E-1,-3.0711824E-2,2.789422E-1,1.4460877E0,-8.535636E-1,-3.2343397E-1,3.080529E-1],"split_indices":[4,5,0,1,5,5,4,9,3,4,5,5,8,6,2,0,0,0,0,0,0,0,0,0,0,0,0,0,0,0,0],"split_type":[0,0,0,0,0,0,0,0,0,0,0,0,0,0,0,0,0,0,0,0,0,0,0,0,0,0,0,0,0,0,0],"sum_hessian":[1.8418E4,1.923E3,1.6495E4,1.193E3,7.3E2,1.6061E4,4.34E2,1.152E3,4.1E1,2.27E2,5.03E2,5.636E3,1.0425E4,6E1,3.74E2,1.06E2,1.046E3,2.2E1,1.9E1,2.24E2,3E0,4.84E2,1.9E1,5.318E3,3.18E2,1.0326E4,9.9E1,5.1E1,9E0,9.1E1,2.83E2],"tree_param":{"num_deleted":"0","num_feature":"11","num_nodes":"31","size_leaf_vector":"1"}},{"base_weights":[4.0393467E-3,-4.0105754E-1,1.0640672E0,-1.1010407E0,1.1726394E-1,6.5658885E-1,5.596186E0,-1.6890237E0,-3.5799715E-1,3.1286075E0,-3.1378022E-1,-2.9193592E0,1.0223764E0,1.3387104E0,9.572817E0,-1.4989707E-1,-4.8831202E-2,9.843068E-1,-2.0698877E-2,9.9990076E-1,7.747708E-2,-3.131373E-2,3.6534128E-1,6.265274E-1,-1.6566485E-1,4.238761E-1,3.227444E-2,2.301883E-1,-2.1104531E-1,6.2820053E-1,3.999371E-3],"categories":[],"categories_nodes":[],"categories_segments":[],"categories_sizes":[],"default_left":[0,0,0,0,0,0,0,0,0,0,0,0,0,0,0,0,0,0,0,0,0,0,0,0,0,0,0,0,0,0,0],"id":44,"left_children":[1,3,5,7,9,11,13,15,17,19,21,23,25,27,29,-1,-1,-1,-1,-1,-1,-1,-1,-1,-1,-1,-1,-1,-1,-1,-1],"loss_changes":[7.909803E3,4.835382E3,9.401773E3,2.476602E3,9.941235E3,6.116751E3,7.097956E3,2.9483477E3,2.8200774E3,2.5514762E4,1.5959931E4,2.682973E3,1.1910686E4,3.7225332E3,6.1606895E3,0E0,0E0,0E0,0E0,0E0,0E0,0E0,0E0,0E0,0E0,0E0,0E0,0E0,0E0,0E0,0E0],"parents":[2147483647,0,0,1,1,2,2,3,3,4,4,5,5,6,6,7,7,8,8,9,9,10,10,11,11,12,12,13,13,14,14],"right_children":[2,4,6,8,10,12,14,16,18,20,22,24,26,28,30,-1,-1,-1,-1,-1,-1,-1,-1,-1,-1,-1,-1,-1,-1,-1,-1],"split_conditions":[2.5E-1,5.1E0,1.25E1,6.45E-2,2.9E-2,3.036E2,7.86E0,2.7E0,6.46E-2,6E0,3.0765E2,2.6E-2,3.041E2,3.8E-1,5.32E-2,-1.4989707E-1,-4.8831202E-2,9.843068E-1,-2.0698877E-2,9.9990076E-1,7.747708E-2,-3.131373E-2,3.6534128E-1,6.265274E-1,-1.6566485E-1,4.238761E-1,3.227444E-2,2.301883E-1,-2.1104531E-1,6.2820053E-1,3.999371E-3],"split_indices":[1,6,6,5,5,4,3,6,5,6,4,5,4,2,5,0,0,0,0,0,0,0,0,0,0,0,0,0,0,0,0],"split_type":[0,0,0,0,0,0,0,0,0,0,0,0,0,0,0,0,0,0,0,0,0,0,0,0,0,0,0,0,0,0,0],"sum_hessian":[1.8418E4,1.3326E4,5.092E3,5.669E3,7.657E3,4.673E3,4.19E2,3.164E3,2.505E3,9.58E2,6.699E3,4.33E2,4.24E3,2.03E2,2.16E2,1.114E3,2.05E3,6E0,2.499E3,8.1E1,8.77E2,6.436E3,2.63E2,1E1,4.23E2,2.03E2,4.037E3,1.28E2,7.5E1,1.64E2,5.2E1],"tree_param":{"num_deleted":"0","num_feature":"11","num_nodes":"31","size_leaf_vector":"1"}},{"base_weights":[4.0406655E-3,1.0889154E-1,-3.816631E0,-1.3816304E-2,6.344334E0,-3.529864E0,-1.1590614E0,-4.7020268E-1,1.1954495E0,-1.1745601E1,1.08114605E1,-7.2621495E-1,-3.3154712E0,-2.657407E-4,-6.9889784E-2,4.4190902E-2,4.8553106E-1,-6.674719E-1,3.6598012E-1,1.0192786E0,2.8649482E-1,-1.3428913E-1,-2.3177455E-1],"categories":[],"categories_nodes":[],"categories_segments":[],"categories_sizes":[],"default_left":[0,0,0,0,0,0,0,0,0,0,0,0,0,0,0,0,0,0,0,0,0,0,0],"id":45,"left_children":[1,3,5,7,9,11,-1,13,15,17,19,-1,21,-1,-1,-1,-1,-1,-1,-1,-1,-1,-1],"loss_changes":[7.3790815E3,1.3717477E4,2.650313E3,9.704487E3,2.8087258E4,1.0974097E3,0E0,5.505033E3,1.2776439E4,2.2075596E3,1.3408297E4,0E0,3.8486426E2,0E0,0E0,0E0,0E0,0E0,0E0,0E0,0E0,0E0,0E0],"parents":[2147483647,0,0,1,1,2,2,3,3,4,4,5,5,7,7,8,8,9,9,10,10,12,12],"right_children":[2,4,6,8,10,12,-1,14,16,18,20,-1,22,-1,-1,-1,-1,-1,-1,-1,-1,-1,-1],"split_conditions":[3.082E2,3.0765E2,1.374E1,2.5E-1,3.66E-2,3.32E-2,-1.1590614E0,3.0543E2,3.0679E2,1.05E1,3.94E-2,-7.2621495E-1,1.07E0,-2.657407E-4,-6.9889784E-2,4.4190902E-2,4.8553106E-1,-6.674719E-1,3.6598012E-1,1.0192786E0,2.8649482E-1,-1.3428913E-1,-2.3177455E-1],"split_indices":[4,4,1,1,5,5,0,4,4,3,5,0,1,0,0,0,0,0,0,0,0,0,0],"split_type":[0,0,0,0,0,0,0,0,0,0,0,0,0,0,0,0,0,0,0,0,0,0,0],"sum_hessian":[1.8418E4,1.7927E4,4.91E2,1.7582E4,3.45E2,4.85E2,6E0,1.2765E4,4.817E3,6.8E1,2.77E2,8E0,4.77E2,8.504E3,4.261E3,4.648E3,1.69E2,6.3E1,5E0,9.5E1,1.82E2,3.25E2,1.52E2],"tree_param":{"num_deleted":"0","num_feature":"11","num_nodes":"23","size_leaf_vector":"1"}},{"base_weights":[3.7958785E-3,-8.087599E-2,4.519868E0,-1.7552696E0,1.113436E-1,8.97151E0,-2.529083E0,-2.8404245E0,-6.144632E-1,1.1938086E0,-4.7480074E-1,1.2784529E0,2.837807E1,-1.2020229E1,6.282863E-1,3.5030088E-1,-1.4866471E-1,1.2191657E-1,-5.431621E-2,3.1126022E-2,5.333757E-1,-2.8378133E-2,2.712234E-1,-3.016276E-1,4.860033E-1,1.2170048E-1,1.8197733E0,-1.1473211E0,-1.8854414E-1,1.559328E0,-1.368335E-1],"categories":[],"categories_nodes":[],"categories_segments":[],"categories_sizes":[],"default_left":[0,0,0,0,0,0,0,0,0,0,0,0,0,0,0,0,0,0,0,0,0,0,0,0,0,0,0,0,0,0,0],"id":46,"left_children":[1,3,5,7,9,11,13,15,17,19,21,23,25,27,29,-1,-1,-1,-1,-1,-1,-1,-1,-1,-1,-1,-1,-1,-1,-1,-1],"loss_changes":[7.043501E3,5.8195884E3,1.0660309E4,2.3033208E3,1.0291845E4,3.1017248E4,3.9632039E3,1.2689438E3,1.3120586E3,3.0832162E4,5.761552E3,9.316138E3,1.2183637E4,2.887892E3,1.0368073E4,0E0,0E0,0E0,0E0,0E0,0E0,0E0,0E0,0E0,0E0,0E0,0E0,0E0,0E0,0E0,0E0],"parents":[2147483647,0,0,1,1,2,2,3,3,4,4,5,5,6,6,7,7,8,8,9,9,10,10,11,11,12,12,13,13,14,14],"right_children":[2,4,6,8,10,12,14,16,18,20,22,24,26,28,30,-1,-1,-1,-1,-1,-1,-1,-1,-1,-1,-1,-1,-1,-1,-1,-1],"split_conditions":[6.96E0,3.036E2,9.9333334E-1,4.42E-2,4.57E-2,7.7E-1,1.12E0,-1.6E0,2.5E0,4.44E-2,1.184E1,8.3E0,3.04E2,4.68E-2,1.2E0,3.5030088E-1,-1.4866471E-1,1.2191657E-1,-5.431621E-2,3.1126022E-2,5.333757E-1,-2.8378133E-2,2.712234E-1,-3.016276E-1,4.860033E-1,1.2170048E-1,1.8197733E0,-1.1473211E0,-1.8854414E-1,1.559328E0,-1.368335E-1],"split_indices":[8,4,9,5,5,9,2,9,6,5,0,6,4,5,2,0,0,0,0,0,0,0,0,0,0,0,0,0,0,0,0],"split_type":[0,0,0,0,0,0,0,0,0,0,0,0,0,0,0,0,0,0,0,0,0,0,0,0,0,0,0,0,0,0,0],"sum_hessian":[1.8418E4,1.808E4,3.38E2,1.861E3,1.6219E4,2.07E2,1.31E2,9.53E2,9.08E2,5.697E3,1.0522E4,1.49E2,5.8E1,3.2E1,9.9E1,1.2E1,9.41E2,1.21E2,7.87E2,5.374E3,3.23E2,1.036E4,1.62E2,8E1,6.9E1,1.4E1,4.4E1,1.3E1,1.9E1,9E0,9E1],"tree_param":{"num_deleted":"0","num_feature":"11","num_nodes":"31","size_leaf_vector":"1"}},{"base_weights":[3.7847238E-3,-7.782439E-1,4.652785E-1,-1.1891832E0,1.7474632E0,2.0713718E0,-3.6570174E-1,-1.5743526E0,4.4919232E-1,2.2110798E0,-4.6488013E0,1.3570791E0,1.3835394E1,-1.672357E-1,-3.6663601E0,-7.337048E-2,-3.829368E-1,1.3153367E-1,-2.1909831E-2,7.530563E-2,4.4473487E-1,-9.918948E-2,-3.753862E-1,4.296455E-2,7.1448684E-1,1.0456907E0,8.10261E-2,-1.837072E-2,2.0911422E-1,-9.5821184E-1,-1.5895474E-1],"categories":[],"categories_nodes":[],"categories_segments":[],"categories_sizes":[],"default_left":[0,0,0,0,0,0,0,0,0,0,0,0,0,0,0,0,0,0,0,0,0,0,0,0,0,0,0,0,0,0,0],"id":47,"left_children":[1,3,5,7,9,11,13,15,17,19,21,23,25,27,29,-1,-1,-1,-1,-1,-1,-1,-1,-1,-1,-1,-1,-1,-1,-1,-1],"loss_changes":[6.6478037E3,7.0972476E3,1.5461133E4,3.711294E3,2.8481814E3,3.31729E4,5.000836E3,3.086662E3,2.1692732E3,4.1941807E3,4.8034534E2,2.3968242E4,1.9506512E4,6.2730537E3,3.2089082E3,0E0,0E0,0E0,0E0,0E0,0E0,0E0,0E0,0E0,0E0,0E0,0E0,0E0,0E0,0E0,0E0],"parents":[2147483647,0,0,1,1,2,2,3,3,4,4,5,5,6,6,7,7,8,8,9,9,10,10,11,11,12,12,13,13,14,14],"right_children":[2,4,6,8,10,12,14,16,18,20,22,24,26,28,30,-1,-1,-1,-1,-1,-1,-1,-1,-1,-1,-1,-1,-1,-1,-1,-1],"split_conditions":[4.5E0,7.1E-1,4.65E-2,8.24E-2,4.29E0,4.44E-2,3.0742E2,3.87E0,3.3E0,1.2E0,2.46E0,3.0765E2,4.57E-2,6.95E0,5.18E-2,-7.337048E-2,-3.829368E-1,1.3153367E-1,-2.1909831E-2,7.530563E-2,4.4473487E-1,-9.918948E-2,-3.753862E-1,4.296455E-2,7.1448684E-1,1.0456907E0,8.10261E-2,-1.837072E-2,2.0911422E-1,-9.5821184E-1,-1.5895474E-1],"split_indices":[3,9,5,5,0,5,4,1,6,10,1,4,5,1,5,0,0,0,0,0,0,0,0,0,0,0,0,0,0,0,0],"split_type":[0,0,0,0,0,0,0,0,0,0,0,0,0,0,0,0,0,0,0,0,0,0,0,0,0,0,0,0,0,0,0],"sum_hessian":[1.8418E4,6.835E3,1.1583E4,5.879E3,9.56E2,3.949E3,7.634E3,4.76E3,1.119E3,8.92E2,6.4E1,3.724E3,2.25E2,7.202E3,4.32E2,4.679E3,8.1E1,3.23E2,7.96E2,8.08E2,8.4E1,3.4E1,3E1,3.587E3,1.37E2,1.42E2,8.3E1,6.886E3,3.16E2,1.2E1,4.2E2],"tree_param":{"num_deleted":"0","num_feature":"11","num_nodes":"31","size_leaf_vector":"1"}},{"base_weights":[3.6310852E-3,-1.714347E0,2.040061E-1,-2.5715353E0,-3.1188846E-1,1.5521606E0,-3.3104926E-1,-2.3812041E0,-7.735355E0,2.167823E0,-1.4330438E0,-1.20316625E-1,9.200754E0,-4.4478E0,1.5014556E-1,2.4239223E-1,-1.2403752E-1,-1.6254173E-1,-4.610885E-1,9.437475E-2,8.697157E-1,-7.963683E-2,1.2555782E-1,-7.185189E-2,3.7893662E-1,5.742392E-1,-1.0140876E-1,-1.9781114E-1,-5.8978105E-1,1.7029119E-1,-2.2887686E-2],"categories":[],"categories_nodes":[],"categories_segments":[],"categories_sizes":[],"default_left":[0,0,0,0,0,0,0,0,0,0,0,0,0,0,0,0,0,0,0,0,0,0,0,0,0,0,0,0,0,0,0],"id":48,"left_children":[1,3,5,7,9,11,13,15,17,19,21,23,25,27,29,-1,-1,-1,-1,-1,-1,-1,-1,-1,-1,-1,-1,-1,-1,-1,-1],"loss_changes":[6.3409043E3,2.3121758E3,1.1899693E4,1.1550869E3,2.0353903E3,5.995767E4,2.3395799E4,8.417529E2,2.499878E2,9.4036597E2,3.214491E2,3.9009855E4,2.1592594E4,4.417797E3,2.0930799E4,0E0,0E0,0E0,0E0,0E0,0E0,0E0,0E0,0E0,0E0,0E0,0E0,0E0,0E0,0E0,0E0],"parents":[2147483647,0,0,1,1,2,2,3,3,4,4,5,5,6,6,7,7,8,8,9,9,10,10,11,11,12,12,13,13,14,14],"right_children":[2,4,6,8,10,12,14,16,18,20,22,24,26,28,30,-1,-1,-1,-1,-1,-1,-1,-1,-1,-1,-1,-1,-1,-1,-1,-1],"split_conditions":[3.036E2,6.41E-2,3.0467E2,7.61E0,7.95E-2,3.046E2,3.66E-2,-1.6E0,1.124E1,3.0333E2,1.649E-1,1.4E1,3.94E-2,3.0765E2,4.65E-2,2.4239223E-1,-1.2403752E-1,-1.6254173E-1,-4.610885E-1,9.437475E-2,8.697157E-1,-7.963683E-2,1.2555782E-1,-7.185189E-2,3.7893662E-1,5.742392E-1,-1.0140876E-1,-1.9781114E-1,-5.8978105E-1,1.7029119E-1,-2.2887686E-2],"split_indices":[4,5,4,1,5,4,5,9,0,4,5,3,5,4,5,0,0,0,0,0,0,0,0,0,0,0,0,0,0,0,0],"split_type":[0,0,0,0,0,0,0,0,0,0,0,0,0,0,0,0,0,0,0,0,0,0,0,0,0,0,0,0,0,0,0],"sum_hessian":[1.8418E4,1.923E3,1.6495E4,1.193E3,7.3E2,4.686E3,1.1809E4,1.152E3,4.1E1,2.27E2,5.03E2,3.846E3,8.4E2,1.235E3,1.0574E4,1.5E1,1.137E3,1.1E1,3E1,2.24E2,3E0,4.84E2,1.9E1,3.285E3,5.61E2,6.98E2,1.42E2,1.159E3,7.6E1,1.663E3,8.911E3],"tree_param":{"num_deleted":"0","num_feature":"11","num_nodes":"31","size_leaf_vector":"1"}},{"base_weights":[3.4844996E-3,-3.949112E-1,8.353395E-1,-1.2424715E0,-3.1181261E-2,4.4632095E-1,5.4464273E0,-2.7825143E0,-4.198481E-1,3.1411464E0,-4.3808594E-1,7.085468E-1,-3.3690667E0,-3.1431472E-1,8.537667E0,-3.2784825E-3,-1.61764E-1,-2.3752721E-2,7.26932E-1,2.7179798E-1,-2.608179E-1,-3.1189207E-2,2.2062273E-1,-1.13267176E-1,5.3597357E-2,-1.8241693E-1,3.87086E-1,7.43362E-1,-7.018723E-2,5.5024433E-1,-4.9839087E-2],"categories":[],"categories_nodes":[],"categories_segments":[],"categories_sizes":[],"default_left":[0,0,0,0,0,0,0,0,0,0,0,0,0,0,0,0,0,0,0,0,0,0,0,0,0,0,0,0,0,0,0],"id":49,"left_children":[1,3,5,7,9,11,13,15,17,19,21,23,25,27,29,-1,-1,-1,-1,-1,-1,-1,-1,-1,-1,-1,-1,-1,-1,-1,-1],"loss_changes":[6.104524E3,3.839626E3,1.0697578E4,4.736946E3,1.1252294E4,5.507101E3,8.26552E3,1.6014277E3,2.02104E3,1.9034658E4,6.9618438E3,5.567017E3,1.1266816E3,2.716766E3,7.11509E3,0E0,0E0,0E0,0E0,0E0,0E0,0E0,0E0,0E0,0E0,0E0,0E0,0E0,0E0,0E0,0E0],"parents":[2147483647,0,0,1,1,2,2,3,3,4,4,5,5,6,6,7,7,8,8,9,9,10,10,11,11,12,12,13,13,14,14],"right_children":[2,4,6,8,10,12,14,16,18,20,22,24,26,28,30,-1,-1,-1,-1,-1,-1,-1,-1,-1,-1,-1,-1,-1,-1,-1,-1],"split_conditions":[4.1666666E-1,4.6E0,1.25E1,4.44E-2,2.9E-2,2.188E-1,6.75E0,3.0397E2,2.055E1,3.0463E2,3.0765E2,3.036E2,8.2E0,-1.49E0,5.32E-2,-3.2784825E-3,-1.61764E-1,-2.3752721E-2,7.26932E-1,2.7179798E-1,-2.608179E-1,-3.1189207E-2,2.2062273E-1,-1.13267176E-1,5.3597357E-2,-1.8241693E-1,3.87086E-1,7.43362E-1,-7.018723E-2,5.5024433E-1,-4.9839087E-2],"split_indices":[7,6,6,5,5,5,3,4,0,4,4,4,8,2,5,0,0,0,0,0,0,0,0,0,0,0,0,0,0,0,0],"split_type":[0,0,0,0,0,0,0,0,0,0,0,0,0,0,0,0,0,0,0,0,0,0,0,0,0,0,0,0,0,0,0],"sum_hessian":[1.8418E4,1.2454E4,5.964E3,3.739E3,8.715E3,5.501E3,4.63E2,1.301E3,2.438E3,9.9E2,7.725E3,5.148E3,3.53E2,1.62E2,3.01E2,1.86E2,1.115E3,2.43E3,8E0,7.77E2,2.13E2,7.441E3,2.84E2,5.6E2,4.588E3,3.45E2,8E0,1E1,1.52E2,2.39E2,